<BIF VERSION="0.3"><NETWORK><NAME>Test11NFNTE</NAME><VARIABLE TYPE="nature"><NAME>N0</NAME><OUTCOME>True</OUTCOME><OUTCOME>False</OUTCOME></VARIABLE><VARIABLE TYPE="nature"><NAME>N1</NAME><OUTCOME>True</OUTCOME><OUTCOME>False</OUTCOME></VARIABLE><VARIABLE TYPE="nature"><NAME>N2</NAME><OUTCOME>True</OUTCOME><OUTCOME>False</OUTCOME></VARIABLE><VARIABLE TYPE="nature"><NAME>N3</NAME><OUTCOME>True</OUTCOME><OUTCOME>False</OUTCOME></VARIABLE><VARIABLE TYPE="nature"><NAME>N4</NAME><OUTCOME>True</OUTCOME><OUTCOME>False</OUTCOME></VARIABLE><VARIABLE TYPE="nature"><NAME>N5</NAME><OUTCOME>True</OUTCOME><OUTCOME>False</OUTCOME></VARIABLE><VARIABLE TYPE="nature"><NAME>N6</NAME><OUTCOME>True</OUTCOME><OUTCOME>False</OUTCOME></VARIABLE><VARIABLE TYPE="nature"><NAME>N7</NAME><OUTCOME>True</OUTCOME><OUTCOME>False</OUTCOME></VARIABLE><VARIABLE TYPE="nature"><NAME>N8</NAME><OUTCOME>True</OUTCOME><OUTCOME>False</OUTCOME></VARIABLE><VARIABLE TYPE="nature"><NAME>N9</NAME><OUTCOME>True</OUTCOME><OUTCOME>False</OUTCOME></VARIABLE><VARIABLE TYPE="nature"><NAME>N10</NAME><OUTCOME>True</OUTCOME><OUTCOME>False</OUTCOME></VARIABLE><DEFINITION><FOR>N1</FOR><GIVEN>N1</GIVEN><TABLE>0.37 0.63 0.66 0.33999999999999997</TABLE></DEFINITION><DEFINITION><FOR>N2</FOR><GIVEN>N2</GIVEN><TABLE>0.67 0.32999999999999996 0.95 0.050000000000000044</TABLE></DEFINITION><DEFINITION><FOR>N3</FOR><GIVEN>N3</GIVEN><TABLE>0.9 0.09999999999999998 0.36 0.64</TABLE></DEFINITION><DEFINITION><FOR>N4</FOR><GIVEN>N4</GIVEN><TABLE>0.28 0.72 0.89 0.10999999999999999</TABLE></DEFINITION><DEFINITION><FOR>N5</FOR><GIVEN>N5</GIVEN><TABLE>0.16 0.84 0.54 0.45999999999999996</TABLE></DEFINITION><DEFINITION><FOR>N6</FOR><GIVEN>N6</GIVEN><TABLE>0.13 0.87 0.15 0.85</TABLE></DEFINITION><DEFINITION><FOR>N7</FOR><GIVEN>N7</GIVEN><TABLE>0.11 0.89 0.19 0.81</TABLE></DEFINITION><DEFINITION><FOR>N8</FOR><GIVEN>N8</GIVEN><TABLE>0.05 0.95 0.99 0.010000000000000009</TABLE></DEFINITION><DEFINITION><FOR>N9</FOR><GIVEN>N9</GIVEN><TABLE>0.79 0.20999999999999996 0.55 0.44999999999999996</TABLE></DEFINITION><DEFINITION><FOR>N10</FOR><GIVEN>N10</GIVEN><TABLE>0.99 0.010000000000000009 0.98 0.020000000000000018</TABLE></DEFINITION></NETWORK></BIF>