<BIF VERSION="0.3"><NETWORK><NAME>Test12NFNTE</NAME><VARIABLE TYPE="nature"><NAME>N0</NAME><OUTCOME>True</OUTCOME><OUTCOME>False</OUTCOME></VARIABLE><VARIABLE TYPE="nature"><NAME>N1</NAME><OUTCOME>True</OUTCOME><OUTCOME>False</OUTCOME></VARIABLE><VARIABLE TYPE="nature"><NAME>N2</NAME><OUTCOME>True</OUTCOME><OUTCOME>False</OUTCOME></VARIABLE><VARIABLE TYPE="nature"><NAME>N3</NAME><OUTCOME>True</OUTCOME><OUTCOME>False</OUTCOME></VARIABLE><VARIABLE TYPE="nature"><NAME>N4</NAME><OUTCOME>True</OUTCOME><OUTCOME>False</OUTCOME></VARIABLE><VARIABLE TYPE="nature"><NAME>N5</NAME><OUTCOME>True</OUTCOME><OUTCOME>False</OUTCOME></VARIABLE><VARIABLE TYPE="nature"><NAME>N6</NAME><OUTCOME>True</OUTCOME><OUTCOME>False</OUTCOME></VARIABLE><VARIABLE TYPE="nature"><NAME>N7</NAME><OUTCOME>True</OUTCOME><OUTCOME>False</OUTCOME></VARIABLE><VARIABLE TYPE="nature"><NAME>N8</NAME><OUTCOME>True</OUTCOME><OUTCOME>False</OUTCOME></VARIABLE><VARIABLE TYPE="nature"><NAME>N9</NAME><OUTCOME>True</OUTCOME><OUTCOME>False</OUTCOME></VARIABLE><VARIABLE TYPE="nature"><NAME>N10</NAME><OUTCOME>True</OUTCOME><OUTCOME>False</OUTCOME></VARIABLE><VARIABLE TYPE="nature"><NAME>N11</NAME><OUTCOME>True</OUTCOME><OUTCOME>False</OUTCOME></VARIABLE><DEFINITION><FOR>N2</FOR><GIVEN>N1</GIVEN><TABLE>0.17 0.83 0.27 0.73</TABLE></DEFINITION><DEFINITION><FOR>N3</FOR><GIVEN>N2</GIVEN><TABLE>0.95 0.050000000000000044 0.99 0.010000000000000009</TABLE></DEFINITION><DEFINITION><FOR>N4</FOR><GIVEN>N3</GIVEN><TABLE>0.43 0.5700000000000001 0.34 0.6599999999999999</TABLE></DEFINITION><DEFINITION><FOR>N5</FOR><GIVEN>N4</GIVEN><TABLE>0.95 0.050000000000000044 0.48 0.52</TABLE></DEFINITION><DEFINITION><FOR>N6</FOR><GIVEN>N5</GIVEN><TABLE>0.08 0.92 0.88 0.12</TABLE></DEFINITION><DEFINITION><FOR>N7</FOR><GIVEN>N6</GIVEN><TABLE>0.89 0.10999999999999999 0.36 0.64</TABLE></DEFINITION><DEFINITION><FOR>N8</FOR><GIVEN>N7</GIVEN><TABLE>0.82 0.18000000000000005 0.55 0.44999999999999996</TABLE></DEFINITION><DEFINITION><FOR>N9</FOR><GIVEN>N8</GIVEN><TABLE>0.42 0.5800000000000001 0.46 0.54</TABLE></DEFINITION><DEFINITION><FOR>N10</FOR><GIVEN>N9</GIVEN><TABLE>0.99 0.010000000000000009 0.1 0.9</TABLE></DEFINITION><DEFINITION><FOR>N11</FOR><GIVEN>N10</GIVEN><TABLE>0.26 0.74 0.33 0.6699999999999999</TABLE></DEFINITION></NETWORK></BIF>