<BIF VERSION="0.3"><NETWORK><NAME>Test14NFNTE</NAME><VARIABLE TYPE="nature"><NAME>N0</NAME><OUTCOME>True</OUTCOME><OUTCOME>False</OUTCOME></VARIABLE><VARIABLE TYPE="nature"><NAME>N1</NAME><OUTCOME>True</OUTCOME><OUTCOME>False</OUTCOME></VARIABLE><VARIABLE TYPE="nature"><NAME>N2</NAME><OUTCOME>True</OUTCOME><OUTCOME>False</OUTCOME></VARIABLE><VARIABLE TYPE="nature"><NAME>N3</NAME><OUTCOME>True</OUTCOME><OUTCOME>False</OUTCOME></VARIABLE><VARIABLE TYPE="nature"><NAME>N4</NAME><OUTCOME>True</OUTCOME><OUTCOME>False</OUTCOME></VARIABLE><VARIABLE TYPE="nature"><NAME>N5</NAME><OUTCOME>True</OUTCOME><OUTCOME>False</OUTCOME></VARIABLE><VARIABLE TYPE="nature"><NAME>N6</NAME><OUTCOME>True</OUTCOME><OUTCOME>False</OUTCOME></VARIABLE><VARIABLE TYPE="nature"><NAME>N7</NAME><OUTCOME>True</OUTCOME><OUTCOME>False</OUTCOME></VARIABLE><VARIABLE TYPE="nature"><NAME>N8</NAME><OUTCOME>True</OUTCOME><OUTCOME>False</OUTCOME></VARIABLE><VARIABLE TYPE="nature"><NAME>N9</NAME><OUTCOME>True</OUTCOME><OUTCOME>False</OUTCOME></VARIABLE><VARIABLE TYPE="nature"><NAME>N10</NAME><OUTCOME>True</OUTCOME><OUTCOME>False</OUTCOME></VARIABLE><VARIABLE TYPE="nature"><NAME>N11</NAME><OUTCOME>True</OUTCOME><OUTCOME>False</OUTCOME></VARIABLE><VARIABLE TYPE="nature"><NAME>N12</NAME><OUTCOME>True</OUTCOME><OUTCOME>False</OUTCOME></VARIABLE><VARIABLE TYPE="nature"><NAME>N13</NAME><OUTCOME>True</OUTCOME><OUTCOME>False</OUTCOME></VARIABLE><DEFINITION><FOR>N6</FOR><GIVEN>N1</GIVEN><TABLE>0.97 0.030000000000000027 0.77 0.22999999999999998</TABLE></DEFINITION><DEFINITION><FOR>N7</FOR><GIVEN>N2</GIVEN><TABLE>0.47 0.53 0.85 0.15000000000000002</TABLE></DEFINITION><DEFINITION><FOR>N8</FOR><GIVEN>N3</GIVEN><TABLE>0.15 0.85 0.97 0.030000000000000027</TABLE></DEFINITION><DEFINITION><FOR>N9</FOR><GIVEN>N4</GIVEN><TABLE>0.84 0.16000000000000003 0.81 0.18999999999999995</TABLE></DEFINITION><DEFINITION><FOR>N10</FOR><GIVEN>N5</GIVEN><TABLE>0.76 0.24 0.93 0.06999999999999995</TABLE></DEFINITION><DEFINITION><FOR>N11</FOR><GIVEN>N6</GIVEN><TABLE>0.18 0.8200000000000001 0.34 0.6599999999999999</TABLE></DEFINITION><DEFINITION><FOR>N12</FOR><GIVEN>N7</GIVEN><TABLE>0.99 0.010000000000000009 0.25 0.75</TABLE></DEFINITION><DEFINITION><FOR>N13</FOR><GIVEN>N8</GIVEN><TABLE>0.66 0.33999999999999997 0.94 0.06000000000000005</TABLE></DEFINITION></NETWORK></BIF>