<BIF VERSION="0.3"><NETWORK><NAME>Test15NFNTE</NAME><VARIABLE TYPE="nature"><NAME>N0</NAME><OUTCOME>True</OUTCOME><OUTCOME>False</OUTCOME></VARIABLE><VARIABLE TYPE="nature"><NAME>N1</NAME><OUTCOME>True</OUTCOME><OUTCOME>False</OUTCOME></VARIABLE><VARIABLE TYPE="nature"><NAME>N2</NAME><OUTCOME>True</OUTCOME><OUTCOME>False</OUTCOME></VARIABLE><VARIABLE TYPE="nature"><NAME>N3</NAME><OUTCOME>True</OUTCOME><OUTCOME>False</OUTCOME></VARIABLE><VARIABLE TYPE="nature"><NAME>N4</NAME><OUTCOME>True</OUTCOME><OUTCOME>False</OUTCOME></VARIABLE><VARIABLE TYPE="nature"><NAME>N5</NAME><OUTCOME>True</OUTCOME><OUTCOME>False</OUTCOME></VARIABLE><VARIABLE TYPE="nature"><NAME>N6</NAME><OUTCOME>True</OUTCOME><OUTCOME>False</OUTCOME></VARIABLE><VARIABLE TYPE="nature"><NAME>N7</NAME><OUTCOME>True</OUTCOME><OUTCOME>False</OUTCOME></VARIABLE><VARIABLE TYPE="nature"><NAME>N8</NAME><OUTCOME>True</OUTCOME><OUTCOME>False</OUTCOME></VARIABLE><VARIABLE TYPE="nature"><NAME>N9</NAME><OUTCOME>True</OUTCOME><OUTCOME>False</OUTCOME></VARIABLE><VARIABLE TYPE="nature"><NAME>N10</NAME><OUTCOME>True</OUTCOME><OUTCOME>False</OUTCOME></VARIABLE><VARIABLE TYPE="nature"><NAME>N11</NAME><OUTCOME>True</OUTCOME><OUTCOME>False</OUTCOME></VARIABLE><VARIABLE TYPE="nature"><NAME>N12</NAME><OUTCOME>True</OUTCOME><OUTCOME>False</OUTCOME></VARIABLE><VARIABLE TYPE="nature"><NAME>N13</NAME><OUTCOME>True</OUTCOME><OUTCOME>False</OUTCOME></VARIABLE><VARIABLE TYPE="nature"><NAME>N14</NAME><OUTCOME>True</OUTCOME><OUTCOME>False</OUTCOME></VARIABLE><DEFINITION><FOR>N1</FOR><GIVEN>N1</GIVEN><TABLE>0.1 0.9 0.64 0.36</TABLE></DEFINITION><DEFINITION><FOR>N2</FOR><GIVEN>N2</GIVEN><TABLE>0.39 0.61 0.81 0.18999999999999995</TABLE></DEFINITION><DEFINITION><FOR>N3</FOR><GIVEN>N3</GIVEN><TABLE>0.92 0.07999999999999996 0.77 0.22999999999999998</TABLE></DEFINITION><DEFINITION><FOR>N4</FOR><GIVEN>N4</GIVEN><TABLE>0.25 0.75 0.45 0.55</TABLE></DEFINITION><DEFINITION><FOR>N5</FOR><GIVEN>N5</GIVEN><TABLE>0.85 0.15000000000000002 0.06 0.94</TABLE></DEFINITION><DEFINITION><FOR>N6</FOR><GIVEN>N6</GIVEN><TABLE>0.04 0.96 0.71 0.29000000000000004</TABLE></DEFINITION><DEFINITION><FOR>N7</FOR><GIVEN>N7</GIVEN><TABLE>0.03 0.97 0.94 0.06000000000000005</TABLE></DEFINITION><DEFINITION><FOR>N8</FOR><GIVEN>N8</GIVEN><TABLE>0.71 0.29000000000000004 0.49 0.51</TABLE></DEFINITION><DEFINITION><FOR>N9</FOR><GIVEN>N9</GIVEN><TABLE>0.07 0.9299999999999999 0.52 0.48</TABLE></DEFINITION><DEFINITION><FOR>N10</FOR><GIVEN>N10</GIVEN><TABLE>0.29 0.71 0.05 0.95</TABLE></DEFINITION><DEFINITION><FOR>N11</FOR><GIVEN>N11</GIVEN><TABLE>0.56 0.43999999999999995 0.97 0.030000000000000027</TABLE></DEFINITION><DEFINITION><FOR>N12</FOR><GIVEN>N12</GIVEN><TABLE>0.31 0.69 0.54 0.45999999999999996</TABLE></DEFINITION><DEFINITION><FOR>N13</FOR><GIVEN>N13</GIVEN><TABLE>0.34 0.6599999999999999 0.9 0.09999999999999998</TABLE></DEFINITION><DEFINITION><FOR>N14</FOR><GIVEN>N14</GIVEN><TABLE>0.58 0.42000000000000004 0.78 0.21999999999999997</TABLE></DEFINITION></NETWORK></BIF>