<BIF VERSION="0.3"><NETWORK><NAME>Test15NFNTE</NAME><VARIABLE TYPE="nature"><NAME>N0</NAME><OUTCOME>True</OUTCOME><OUTCOME>False</OUTCOME></VARIABLE><VARIABLE TYPE="nature"><NAME>N1</NAME><OUTCOME>True</OUTCOME><OUTCOME>False</OUTCOME></VARIABLE><VARIABLE TYPE="nature"><NAME>N2</NAME><OUTCOME>True</OUTCOME><OUTCOME>False</OUTCOME></VARIABLE><VARIABLE TYPE="nature"><NAME>N3</NAME><OUTCOME>True</OUTCOME><OUTCOME>False</OUTCOME></VARIABLE><VARIABLE TYPE="nature"><NAME>N4</NAME><OUTCOME>True</OUTCOME><OUTCOME>False</OUTCOME></VARIABLE><VARIABLE TYPE="nature"><NAME>N5</NAME><OUTCOME>True</OUTCOME><OUTCOME>False</OUTCOME></VARIABLE><VARIABLE TYPE="nature"><NAME>N6</NAME><OUTCOME>True</OUTCOME><OUTCOME>False</OUTCOME></VARIABLE><VARIABLE TYPE="nature"><NAME>N7</NAME><OUTCOME>True</OUTCOME><OUTCOME>False</OUTCOME></VARIABLE><VARIABLE TYPE="nature"><NAME>N8</NAME><OUTCOME>True</OUTCOME><OUTCOME>False</OUTCOME></VARIABLE><VARIABLE TYPE="nature"><NAME>N9</NAME><OUTCOME>True</OUTCOME><OUTCOME>False</OUTCOME></VARIABLE><VARIABLE TYPE="nature"><NAME>N10</NAME><OUTCOME>True</OUTCOME><OUTCOME>False</OUTCOME></VARIABLE><VARIABLE TYPE="nature"><NAME>N11</NAME><OUTCOME>True</OUTCOME><OUTCOME>False</OUTCOME></VARIABLE><VARIABLE TYPE="nature"><NAME>N12</NAME><OUTCOME>True</OUTCOME><OUTCOME>False</OUTCOME></VARIABLE><VARIABLE TYPE="nature"><NAME>N13</NAME><OUTCOME>True</OUTCOME><OUTCOME>False</OUTCOME></VARIABLE><VARIABLE TYPE="nature"><NAME>N14</NAME><OUTCOME>True</OUTCOME><OUTCOME>False</OUTCOME></VARIABLE><DEFINITION><FOR>N0</FOR><GIVEN>N1</GIVEN><TABLE>0.8 0.19999999999999996 0.86 0.14</TABLE></DEFINITION><DEFINITION><FOR>N1</FOR><GIVEN>N2</GIVEN><TABLE>0.2 0.8 0.06 0.94</TABLE></DEFINITION><DEFINITION><FOR>N2</FOR><GIVEN>N3</GIVEN><TABLE>0.41 0.5900000000000001 0.61 0.39</TABLE></DEFINITION><DEFINITION><FOR>N3</FOR><GIVEN>N4</GIVEN><TABLE>0.06 0.94 0.8 0.19999999999999996</TABLE></DEFINITION><DEFINITION><FOR>N4</FOR><GIVEN>N5</GIVEN><TABLE>0.95 0.050000000000000044 0.42 0.5800000000000001</TABLE></DEFINITION><DEFINITION><FOR>N5</FOR><GIVEN>N6</GIVEN><TABLE>0.03 0.97 0.35 0.65</TABLE></DEFINITION><DEFINITION><FOR>N6</FOR><GIVEN>N7</GIVEN><TABLE>0.77 0.22999999999999998 0.26 0.74</TABLE></DEFINITION><DEFINITION><FOR>N7</FOR><GIVEN>N8</GIVEN><TABLE>0.26 0.74 0.85 0.15000000000000002</TABLE></DEFINITION><DEFINITION><FOR>N8</FOR><GIVEN>N9</GIVEN><TABLE>0.09 0.91 0.96 0.040000000000000036</TABLE></DEFINITION><DEFINITION><FOR>N9</FOR><GIVEN>N10</GIVEN><TABLE>0.26 0.74 0.06 0.94</TABLE></DEFINITION><DEFINITION><FOR>N10</FOR><GIVEN>N11</GIVEN><TABLE>0.2 0.8 0.98 0.020000000000000018</TABLE></DEFINITION><DEFINITION><FOR>N11</FOR><GIVEN>N12</GIVEN><TABLE>0.5 0.5 0.39 0.61</TABLE></DEFINITION><DEFINITION><FOR>N12</FOR><GIVEN>N13</GIVEN><TABLE>0.56 0.43999999999999995 0.83 0.17000000000000004</TABLE></DEFINITION><DEFINITION><FOR>N13</FOR><GIVEN>N14</GIVEN><TABLE>0.16 0.84 0.08 0.92</TABLE></DEFINITION><DEFINITION><FOR>N14</FOR><TABLE>0.3 0.7</TABLE></DEFINITION></NETWORK></BIF>