<BIF VERSION="0.3"><NETWORK><NAME>Test15NFNTE</NAME><VARIABLE TYPE="nature"><NAME>N0</NAME><OUTCOME>True</OUTCOME><OUTCOME>False</OUTCOME></VARIABLE><VARIABLE TYPE="nature"><NAME>N1</NAME><OUTCOME>True</OUTCOME><OUTCOME>False</OUTCOME></VARIABLE><VARIABLE TYPE="nature"><NAME>N2</NAME><OUTCOME>True</OUTCOME><OUTCOME>False</OUTCOME></VARIABLE><VARIABLE TYPE="nature"><NAME>N3</NAME><OUTCOME>True</OUTCOME><OUTCOME>False</OUTCOME></VARIABLE><VARIABLE TYPE="nature"><NAME>N4</NAME><OUTCOME>True</OUTCOME><OUTCOME>False</OUTCOME></VARIABLE><VARIABLE TYPE="nature"><NAME>N5</NAME><OUTCOME>True</OUTCOME><OUTCOME>False</OUTCOME></VARIABLE><VARIABLE TYPE="nature"><NAME>N6</NAME><OUTCOME>True</OUTCOME><OUTCOME>False</OUTCOME></VARIABLE><VARIABLE TYPE="nature"><NAME>N7</NAME><OUTCOME>True</OUTCOME><OUTCOME>False</OUTCOME></VARIABLE><VARIABLE TYPE="nature"><NAME>N8</NAME><OUTCOME>True</OUTCOME><OUTCOME>False</OUTCOME></VARIABLE><VARIABLE TYPE="nature"><NAME>N9</NAME><OUTCOME>True</OUTCOME><OUTCOME>False</OUTCOME></VARIABLE><VARIABLE TYPE="nature"><NAME>N10</NAME><OUTCOME>True</OUTCOME><OUTCOME>False</OUTCOME></VARIABLE><VARIABLE TYPE="nature"><NAME>N11</NAME><OUTCOME>True</OUTCOME><OUTCOME>False</OUTCOME></VARIABLE><VARIABLE TYPE="nature"><NAME>N12</NAME><OUTCOME>True</OUTCOME><OUTCOME>False</OUTCOME></VARIABLE><VARIABLE TYPE="nature"><NAME>N13</NAME><OUTCOME>True</OUTCOME><OUTCOME>False</OUTCOME></VARIABLE><VARIABLE TYPE="nature"><NAME>N14</NAME><OUTCOME>True</OUTCOME><OUTCOME>False</OUTCOME></VARIABLE><DEFINITION><FOR>N0</FOR><GIVEN>N1</GIVEN><TABLE>0.3 0.7 0.97 0.030000000000000027</TABLE></DEFINITION><DEFINITION><FOR>N1</FOR><GIVEN>N2</GIVEN><TABLE>0.99 0.010000000000000009 0.82 0.18000000000000005</TABLE></DEFINITION><DEFINITION><FOR>N2</FOR><GIVEN>N3</GIVEN><TABLE>0.67 0.32999999999999996 0.49 0.51</TABLE></DEFINITION><DEFINITION><FOR>N3</FOR><GIVEN>N4</GIVEN><TABLE>0.22 0.78 0.81 0.18999999999999995</TABLE></DEFINITION><DEFINITION><FOR>N4</FOR><GIVEN>N5</GIVEN><TABLE>0.52 0.48 0.82 0.18000000000000005</TABLE></DEFINITION><DEFINITION><FOR>N5</FOR><GIVEN>N6</GIVEN><TABLE>0.74 0.26 0.44 0.56</TABLE></DEFINITION><DEFINITION><FOR>N6</FOR><GIVEN>N7</GIVEN><TABLE>0.21 0.79 0.71 0.29000000000000004</TABLE></DEFINITION><DEFINITION><FOR>N7</FOR><GIVEN>N8</GIVEN><TABLE>0.08 0.92 0.57 0.43000000000000005</TABLE></DEFINITION><DEFINITION><FOR>N8</FOR><GIVEN>N9</GIVEN><TABLE>0.91 0.08999999999999997 0.48 0.52</TABLE></DEFINITION><DEFINITION><FOR>N9</FOR><GIVEN>N10</GIVEN><TABLE>0.63 0.37 0.23 0.77</TABLE></DEFINITION><DEFINITION><FOR>N10</FOR><GIVEN>N11</GIVEN><TABLE>0.35 0.65 0.4 0.6</TABLE></DEFINITION><DEFINITION><FOR>N11</FOR><GIVEN>N12</GIVEN><TABLE>0.65 0.35 0.91 0.08999999999999997</TABLE></DEFINITION><DEFINITION><FOR>N12</FOR><GIVEN>N13</GIVEN><TABLE>0.08 0.92 0.17 0.83</TABLE></DEFINITION><DEFINITION><FOR>N13</FOR><GIVEN>N14</GIVEN><TABLE>0.69 0.31000000000000005 0.09 0.91</TABLE></DEFINITION><DEFINITION><FOR>N14</FOR><TABLE>0.94 0.06000000000000005</TABLE></DEFINITION></NETWORK></BIF>