<BIF VERSION="0.3"><NETWORK><NAME>Test15NFNTE</NAME><VARIABLE TYPE="nature"><NAME>N0</NAME><OUTCOME>True</OUTCOME><OUTCOME>False</OUTCOME></VARIABLE><VARIABLE TYPE="nature"><NAME>N1</NAME><OUTCOME>True</OUTCOME><OUTCOME>False</OUTCOME></VARIABLE><VARIABLE TYPE="nature"><NAME>N2</NAME><OUTCOME>True</OUTCOME><OUTCOME>False</OUTCOME></VARIABLE><VARIABLE TYPE="nature"><NAME>N3</NAME><OUTCOME>True</OUTCOME><OUTCOME>False</OUTCOME></VARIABLE><VARIABLE TYPE="nature"><NAME>N4</NAME><OUTCOME>True</OUTCOME><OUTCOME>False</OUTCOME></VARIABLE><VARIABLE TYPE="nature"><NAME>N5</NAME><OUTCOME>True</OUTCOME><OUTCOME>False</OUTCOME></VARIABLE><VARIABLE TYPE="nature"><NAME>N6</NAME><OUTCOME>True</OUTCOME><OUTCOME>False</OUTCOME></VARIABLE><VARIABLE TYPE="nature"><NAME>N7</NAME><OUTCOME>True</OUTCOME><OUTCOME>False</OUTCOME></VARIABLE><VARIABLE TYPE="nature"><NAME>N8</NAME><OUTCOME>True</OUTCOME><OUTCOME>False</OUTCOME></VARIABLE><VARIABLE TYPE="nature"><NAME>N9</NAME><OUTCOME>True</OUTCOME><OUTCOME>False</OUTCOME></VARIABLE><VARIABLE TYPE="nature"><NAME>N10</NAME><OUTCOME>True</OUTCOME><OUTCOME>False</OUTCOME></VARIABLE><VARIABLE TYPE="nature"><NAME>N11</NAME><OUTCOME>True</OUTCOME><OUTCOME>False</OUTCOME></VARIABLE><VARIABLE TYPE="nature"><NAME>N12</NAME><OUTCOME>True</OUTCOME><OUTCOME>False</OUTCOME></VARIABLE><VARIABLE TYPE="nature"><NAME>N13</NAME><OUTCOME>True</OUTCOME><OUTCOME>False</OUTCOME></VARIABLE><VARIABLE TYPE="nature"><NAME>N14</NAME><OUTCOME>True</OUTCOME><OUTCOME>False</OUTCOME></VARIABLE><DEFINITION><FOR>N6</FOR><GIVEN>N1</GIVEN><TABLE>0.37 0.63 0.97 0.030000000000000027</TABLE></DEFINITION><DEFINITION><FOR>N7</FOR><GIVEN>N2</GIVEN><TABLE>0.1 0.9 0.82 0.18000000000000005</TABLE></DEFINITION><DEFINITION><FOR>N8</FOR><GIVEN>N3</GIVEN><TABLE>0.07 0.9299999999999999 0.61 0.39</TABLE></DEFINITION><DEFINITION><FOR>N9</FOR><GIVEN>N4</GIVEN><TABLE>0.1 0.9 0.16 0.84</TABLE></DEFINITION><DEFINITION><FOR>N10</FOR><GIVEN>N5</GIVEN><TABLE>0.57 0.43000000000000005 0.5 0.5</TABLE></DEFINITION><DEFINITION><FOR>N11</FOR><GIVEN>N6</GIVEN><TABLE>0.68 0.31999999999999995 0.91 0.08999999999999997</TABLE></DEFINITION><DEFINITION><FOR>N12</FOR><GIVEN>N7</GIVEN><TABLE>0.78 0.21999999999999997 0.34 0.6599999999999999</TABLE></DEFINITION><DEFINITION><FOR>N13</FOR><GIVEN>N8</GIVEN><TABLE>0.08 0.92 0.53 0.47</TABLE></DEFINITION><DEFINITION><FOR>N14</FOR><GIVEN>N9</GIVEN><TABLE>0.7 0.30000000000000004 0.69 0.31000000000000005</TABLE></DEFINITION></NETWORK></BIF>