<BIF VERSION="0.3"><NETWORK><NAME>Test5NTNTE</NAME><VARIABLE TYPE="nature"><NAME>N0</NAME><OUTCOME>True</OUTCOME><OUTCOME>False</OUTCOME></VARIABLE><VARIABLE TYPE="nature"><NAME>N1</NAME><OUTCOME>True</OUTCOME><OUTCOME>False</OUTCOME></VARIABLE><VARIABLE TYPE="nature"><NAME>N2</NAME><OUTCOME>True</OUTCOME><OUTCOME>False</OUTCOME></VARIABLE><VARIABLE TYPE="nature"><NAME>N3</NAME><OUTCOME>True</OUTCOME><OUTCOME>False</OUTCOME></VARIABLE><VARIABLE TYPE="nature"><NAME>N4</NAME><OUTCOME>True</OUTCOME><OUTCOME>False</OUTCOME></VARIABLE><DEFINITION><FOR>N0</FOR><TABLE>0.13 0.87</TABLE></DEFINITION><DEFINITION><FOR>N1</FOR><GIVEN>N0</GIVEN><TABLE>0.28 0.72 0.99 0.010000000000000009</TABLE></DEFINITION><DEFINITION><FOR>N2</FOR><GIVEN>N0</GIVEN><GIVEN>N1</GIVEN><TABLE>0.07 0.9299999999999999 0.75 0.25 0.27 0.73 0.02 0.98</TABLE></DEFINITION><DEFINITION><FOR>N3</FOR><GIVEN>N0</GIVEN><GIVEN>N1</GIVEN><GIVEN>N2</GIVEN><TABLE>0.09 0.91 0.95 0.050000000000000044 0.38 0.62 0.17 0.83 0.85 0.15000000000000002 0.17 0.83 0.41 0.5900000000000001 0.93 0.06999999999999995</TABLE></DEFINITION><DEFINITION><FOR>N4</FOR><GIVEN>N0</GIVEN><GIVEN>N1</GIVEN><GIVEN>N2</GIVEN><GIVEN>N3</GIVEN><TABLE>0.75 0.25 0.21 0.79 0.33 0.6699999999999999 0.59 0.41000000000000003 0.23 0.77 0.99 0.010000000000000009 0.08 0.92 0.57 0.43000000000000005 0.87 0.13 0.39 0.61 0.58 0.42000000000000004 0.26 0.74 0.25 0.75 0.23 0.77 0.47 0.53 0.23 0.77</TABLE></DEFINITION></NETWORK></BIF>