<BIF VERSION="0.3"><NETWORK><NAME>Test6NTNTE</NAME><VARIABLE TYPE="nature"><NAME>N0</NAME><OUTCOME>True</OUTCOME><OUTCOME>False</OUTCOME></VARIABLE><VARIABLE TYPE="nature"><NAME>N1</NAME><OUTCOME>True</OUTCOME><OUTCOME>False</OUTCOME></VARIABLE><VARIABLE TYPE="nature"><NAME>N2</NAME><OUTCOME>True</OUTCOME><OUTCOME>False</OUTCOME></VARIABLE><VARIABLE TYPE="nature"><NAME>N3</NAME><OUTCOME>True</OUTCOME><OUTCOME>False</OUTCOME></VARIABLE><VARIABLE TYPE="nature"><NAME>N4</NAME><OUTCOME>True</OUTCOME><OUTCOME>False</OUTCOME></VARIABLE><VARIABLE TYPE="nature"><NAME>N5</NAME><OUTCOME>True</OUTCOME><OUTCOME>False</OUTCOME></VARIABLE><DEFINITION><FOR>N0</FOR><TABLE>0.06 0.94</TABLE></DEFINITION><DEFINITION><FOR>N1</FOR><GIVEN>N0</GIVEN><TABLE>0.71 0.29000000000000004 0.59 0.41000000000000003</TABLE></DEFINITION><DEFINITION><FOR>N2</FOR><GIVEN>N0</GIVEN><GIVEN>N1</GIVEN><TABLE>0.3 0.7 0.17 0.83 0.45 0.55 0.85 0.15000000000000002</TABLE></DEFINITION><DEFINITION><FOR>N3</FOR><GIVEN>N0</GIVEN><GIVEN>N1</GIVEN><GIVEN>N2</GIVEN><TABLE>0.6 0.4 0.51 0.49 0.37 0.63 0.38 0.62 0.82 0.18000000000000005 0.92 0.07999999999999996 0.64 0.36 0.44 0.56</TABLE></DEFINITION><DEFINITION><FOR>N4</FOR><GIVEN>N0</GIVEN><GIVEN>N1</GIVEN><GIVEN>N2</GIVEN><GIVEN>N3</GIVEN><TABLE>0.48 0.52 0.53 0.47 0.61 0.39 0.7 0.30000000000000004 0.64 0.36 0.36 0.64 0.57 0.43000000000000005 0.57 0.43000000000000005 0.99 0.010000000000000009 0.19 0.81 0.53 0.47 0.33 0.6699999999999999 0.93 0.06999999999999995 0.16 0.84 0.37 0.63 0.88 0.12</TABLE></DEFINITION><DEFINITION><FOR>N5</FOR><GIVEN>N0</GIVEN><GIVEN>N1</GIVEN><GIVEN>N2</GIVEN><GIVEN>N3</GIVEN><GIVEN>N4</GIVEN><TABLE>0.8 0.19999999999999996 0.4 0.6 0.67 0.32999999999999996 0.55 0.44999999999999996 0.91 0.08999999999999997 0.53 0.47 0.08 0.92 0.47 0.53 0.71 0.29000000000000004 0.33 0.6699999999999999 0.03 0.97 0.55 0.44999999999999996 0.25 0.75 0.36 0.64 0.61 0.39 0.21 0.79 0.52 0.48 0.27 0.73 0.95 0.050000000000000044 0.62 0.38 0.98 0.020000000000000018 0.83 0.17000000000000004 0.01 0.99 0.85 0.15000000000000002 0.31 0.69 0.78 0.21999999999999997 0.88 0.12 0.33 0.6699999999999999 0.06 0.94 0.76 0.24 0.68 0.31999999999999995 0.56 0.43999999999999995</TABLE></DEFINITION></NETWORK></BIF>