<BIF VERSION="0.3"><NETWORK><NAME>Test10NFNTE</NAME><VARIABLE TYPE="nature"><NAME>N0</NAME><OUTCOME>True</OUTCOME><OUTCOME>False</OUTCOME></VARIABLE><VARIABLE TYPE="nature"><NAME>N1</NAME><OUTCOME>True</OUTCOME><OUTCOME>False</OUTCOME></VARIABLE><VARIABLE TYPE="nature"><NAME>N2</NAME><OUTCOME>True</OUTCOME><OUTCOME>False</OUTCOME></VARIABLE><VARIABLE TYPE="nature"><NAME>N3</NAME><OUTCOME>True</OUTCOME><OUTCOME>False</OUTCOME></VARIABLE><VARIABLE TYPE="nature"><NAME>N4</NAME><OUTCOME>True</OUTCOME><OUTCOME>False</OUTCOME></VARIABLE><VARIABLE TYPE="nature"><NAME>N5</NAME><OUTCOME>True</OUTCOME><OUTCOME>False</OUTCOME></VARIABLE><VARIABLE TYPE="nature"><NAME>N6</NAME><OUTCOME>True</OUTCOME><OUTCOME>False</OUTCOME></VARIABLE><VARIABLE TYPE="nature"><NAME>N7</NAME><OUTCOME>True</OUTCOME><OUTCOME>False</OUTCOME></VARIABLE><VARIABLE TYPE="nature"><NAME>N8</NAME><OUTCOME>True</OUTCOME><OUTCOME>False</OUTCOME></VARIABLE><VARIABLE TYPE="nature"><NAME>N9</NAME><OUTCOME>True</OUTCOME><OUTCOME>False</OUTCOME></VARIABLE><DEFINITION><FOR>N0</FOR><TABLE>0.26 0.74</TABLE></DEFINITION><DEFINITION><FOR>N1</FOR><GIVEN>N0</GIVEN><TABLE>0.96 0.040000000000000036 0.28 0.72</TABLE></DEFINITION><DEFINITION><FOR>N2</FOR><GIVEN>N0</GIVEN><GIVEN>N1</GIVEN><TABLE>0.34 0.6599999999999999 0.98 0.020000000000000018 0.47 0.53 0.75 0.25</TABLE></DEFINITION><DEFINITION><FOR>N3</FOR><GIVEN>N0</GIVEN><GIVEN>N1</GIVEN><GIVEN>N2</GIVEN><TABLE>0.61 0.39 0.23 0.77 0.18 0.8200000000000001 0.8 0.19999999999999996 0.8 0.19999999999999996 0.59 0.41000000000000003 0.18 0.8200000000000001 0.03 0.97</TABLE></DEFINITION><DEFINITION><FOR>N4</FOR><GIVEN>N0</GIVEN><GIVEN>N1</GIVEN><GIVEN>N2</GIVEN><GIVEN>N3</GIVEN><TABLE>0.41 0.5900000000000001 0.98 0.020000000000000018 0.45 0.55 0.99 0.010000000000000009 0.47 0.53 0.78 0.21999999999999997 0.84 0.16000000000000003 0.2 0.8 0.32 0.6799999999999999 0.79 0.20999999999999996 0.14 0.86 0.87 0.13 0.83 0.17000000000000004 0.6 0.4 0.84 0.16000000000000003 0.59 0.41000000000000003</TABLE></DEFINITION><DEFINITION><FOR>N5</FOR><GIVEN>N0</GIVEN><GIVEN>N1</GIVEN><GIVEN>N2</GIVEN><GIVEN>N3</GIVEN><GIVEN>N4</GIVEN><TABLE>0.03 0.97 0.88 0.12 0.13 0.87 0.1 0.9 0.83 0.17000000000000004 0.02 0.98 0.72 0.28 0.79 0.20999999999999996 0.5 0.5 0.23 0.77 0.83 0.17000000000000004 0.29 0.71 0.49 0.51 0.05 0.95 0.29 0.71 0.98 0.020000000000000018 0.26 0.74 0.07 0.9299999999999999 0.94 0.06000000000000005 0.05 0.95 0.25 0.75 0.18 0.8200000000000001 0.49 0.51 0.78 0.21999999999999997 0.54 0.45999999999999996 0.14 0.86 0.57 0.43000000000000005 0.23 0.77 0.43 0.5700000000000001 0.4 0.6 0.68 0.31999999999999995 0.19 0.81</TABLE></DEFINITION><DEFINITION><FOR>N6</FOR><GIVEN>N0</GIVEN><GIVEN>N1</GIVEN><GIVEN>N2</GIVEN><GIVEN>N3</GIVEN><GIVEN>N4</GIVEN><GIVEN>N5</GIVEN><TABLE>0.03 0.97 0.75 0.25 0.54 0.45999999999999996 0.55 0.44999999999999996 0.38 0.62 0.68 0.31999999999999995 0.08 0.92 0.87 0.13 0.95 0.050000000000000044 0.62 0.38 0.56 0.43999999999999995 0.97 0.030000000000000027 0.66 0.33999999999999997 0.06 0.94 0.15 0.85 0.77 0.22999999999999998 0.46 0.54 0.2 0.8 0.79 0.20999999999999996 0.05 0.95 0.01 0.99 0.43 0.5700000000000001 0.66 0.33999999999999997 0.36 0.64 0.71 0.29000000000000004 0.69 0.31000000000000005 0.03 0.97 0.25 0.75 0.63 0.37 0.93 0.06999999999999995 0.9 0.09999999999999998 0.47 0.53 0.8 0.19999999999999996 0.37 0.63 0.14 0.86 0.66 0.33999999999999997 0.5 0.5 0.36 0.64 0.22 0.78 0.17 0.83 0.3 0.7 0.47 0.53 0.89 0.10999999999999999 0.11 0.89 0.46 0.54 0.52 0.48 0.54 0.45999999999999996 0.86 0.14 0.04 0.96 0.31 0.69 0.02 0.98 0.2 0.8 0.81 0.18999999999999995 0.82 0.18000000000000005 0.03 0.97 0.14 0.86 0.33 0.6699999999999999 0.26 0.74 0.49 0.51 0.04 0.96 0.95 0.050000000000000044 0.79 0.20999999999999996 0.5 0.5 0.07 0.9299999999999999</TABLE></DEFINITION><DEFINITION><FOR>N7</FOR><GIVEN>N0</GIVEN><GIVEN>N1</GIVEN><GIVEN>N2</GIVEN><GIVEN>N3</GIVEN><GIVEN>N4</GIVEN><GIVEN>N5</GIVEN><GIVEN>N6</GIVEN><TABLE>0.1 0.9 0.68 0.31999999999999995 0.25 0.75 0.13 0.87 0.19 0.81 0.92 0.07999999999999996 0.32 0.6799999999999999 0.5 0.5 0.17 0.83 0.32 0.6799999999999999 0.48 0.52 0.68 0.31999999999999995 0.77 0.22999999999999998 0.11 0.89 0.38 0.62 0.78 0.21999999999999997 0.7 0.30000000000000004 0.82 0.18000000000000005 0.42 0.5800000000000001 0.2 0.8 0.77 0.22999999999999998 0.28 0.72 0.01 0.99 0.48 0.52 0.5 0.5 0.47 0.53 0.76 0.24 0.78 0.21999999999999997 0.31 0.69 0.42 0.5800000000000001 0.85 0.15000000000000002 0.52 0.48 0.64 0.36 0.49 0.51 0.77 0.22999999999999998 0.46 0.54 0.9 0.09999999999999998 0.01 0.99 0.68 0.31999999999999995 0.72 0.28 0.3 0.7 0.21 0.79 0.68 0.31999999999999995 0.46 0.54 0.97 0.030000000000000027 0.75 0.25 0.35 0.65 0.28 0.72 0.37 0.63 0.86 0.14 0.39 0.61 0.88 0.12 0.48 0.52 0.93 0.06999999999999995 0.77 0.22999999999999998 0.05 0.95 0.28 0.72 0.14 0.86 0.07 0.9299999999999999 0.82 0.18000000000000005 0.6 0.4 0.73 0.27 0.32 0.6799999999999999 0.38 0.62 0.3 0.7 0.61 0.39 0.72 0.28 0.62 0.38 0.7 0.30000000000000004 0.47 0.53 0.62 0.38 0.28 0.72 0.08 0.92 0.42 0.5800000000000001 0.11 0.89 0.37 0.63 0.56 0.43999999999999995 0.4 0.6 0.96 0.040000000000000036 0.48 0.52 0.7 0.30000000000000004 0.04 0.96 0.78 0.21999999999999997 0.64 0.36 0.64 0.36 0.82 0.18000000000000005 0.86 0.14 0.54 0.45999999999999996 0.81 0.18999999999999995 0.41 0.5900000000000001 0.06 0.94 0.04 0.96 0.55 0.44999999999999996 0.69 0.31000000000000005 0.24 0.76 0.48 0.52 0.32 0.6799999999999999 0.48 0.52 0.28 0.72 0.28 0.72 0.15 0.85 0.6 0.4 0.04 0.96 0.04 0.96 0.41 0.5900000000000001 0.85 0.15000000000000002 0.05 0.95 0.52 0.48 0.62 0.38 0.98 0.020000000000000018 0.67 0.32999999999999996 0.41 0.5900000000000001 0.34 0.6599999999999999 0.31 0.69 0.23 0.77 0.5 0.5 0.34 0.6599999999999999 0.52 0.48 0.07 0.9299999999999999 0.33 0.6699999999999999 0.28 0.72 0.35 0.65 0.85 0.15000000000000002 0.27 0.73 0.86 0.14 0.18 0.8200000000000001 0.28 0.72 0.2 0.8</TABLE></DEFINITION><DEFINITION><FOR>N8</FOR><GIVEN>N0</GIVEN><GIVEN>N1</GIVEN><GIVEN>N2</GIVEN><GIVEN>N3</GIVEN><GIVEN>N4</GIVEN><GIVEN>N5</GIVEN><GIVEN>N6</GIVEN><GIVEN>N7</GIVEN><TABLE>0.25 0.75 0.8 0.19999999999999996 0.76 0.24 0.04 0.96 0.99 0.010000000000000009 0.94 0.06000000000000005 0.05 0.95 0.15 0.85 0.91 0.08999999999999997 0.19 0.81 0.79 0.20999999999999996 0.1 0.9 0.17 0.83 0.19 0.81 0.94 0.06000000000000005 0.24 0.76 0.56 0.43999999999999995 0.23 0.77 0.36 0.64 0.73 0.27 0.46 0.54 0.95 0.050000000000000044 0.13 0.87 0.93 0.06999999999999995 0.69 0.31000000000000005 0.83 0.17000000000000004 0.01 0.99 0.34 0.6599999999999999 0.03 0.97 0.61 0.39 0.65 0.35 0.33 0.6699999999999999 0.8 0.19999999999999996 0.21 0.79 0.97 0.030000000000000027 0.88 0.12 0.65 0.35 0.06 0.94 0.97 0.030000000000000027 0.09 0.91 0.12 0.88 0.66 0.33999999999999997 0.47 0.53 0.36 0.64 0.4 0.6 0.19 0.81 0.28 0.72 0.22 0.78 0.06 0.94 0.52 0.48 0.75 0.25 0.41 0.5900000000000001 0.08 0.92 0.81 0.18999999999999995 0.39 0.61 0.76 0.24 0.92 0.07999999999999996 0.84 0.16000000000000003 0.09 0.91 0.86 0.14 0.02 0.98 0.97 0.030000000000000027 0.94 0.06000000000000005 0.56 0.43999999999999995 0.74 0.26 0.46 0.54 0.11 0.89 0.74 0.26 0.23 0.77 0.4 0.6 0.66 0.33999999999999997 0.05 0.95 0.73 0.27 0.17 0.83 0.85 0.15000000000000002 0.37 0.63 0.53 0.47 0.99 0.010000000000000009 0.89 0.10999999999999999 0.26 0.74 0.91 0.08999999999999997 0.43 0.5700000000000001 0.1 0.9 0.73 0.27 0.21 0.79 0.34 0.6599999999999999 0.48 0.52 0.2 0.8 0.29 0.71 0.31 0.69 0.42 0.5800000000000001 0.09 0.91 0.76 0.24 0.5 0.5 0.28 0.72 0.08 0.92 0.27 0.73 0.84 0.16000000000000003 0.72 0.28 0.42 0.5800000000000001 0.21 0.79 0.03 0.97 0.82 0.18000000000000005 0.85 0.15000000000000002 0.59 0.41000000000000003 0.91 0.08999999999999997 0.99 0.010000000000000009 0.15 0.85 0.41 0.5900000000000001 0.69 0.31000000000000005 0.15 0.85 0.51 0.49 0.42 0.5800000000000001 0.01 0.99 0.31 0.69 0.31 0.69 0.97 0.030000000000000027 0.13 0.87 0.17 0.83 0.46 0.54 0.06 0.94 0.45 0.55 0.7 0.30000000000000004 0.4 0.6 0.08 0.92 0.95 0.050000000000000044 0.55 0.44999999999999996 0.69 0.31000000000000005 0.59 0.41000000000000003 0.09 0.91 0.97 0.030000000000000027 0.41 0.5900000000000001 0.18 0.8200000000000001 0.52 0.48 0.61 0.39 0.93 0.06999999999999995 0.56 0.43999999999999995 0.07 0.9299999999999999 0.59 0.41000000000000003 0.12 0.88 0.68 0.31999999999999995 0.02 0.98 0.19 0.81 0.56 0.43999999999999995 0.3 0.7 0.19 0.81 0.47 0.53 0.43 0.5700000000000001 0.38 0.62 0.77 0.22999999999999998 0.02 0.98 0.95 0.050000000000000044 0.17 0.83 0.86 0.14 0.03 0.97 0.05 0.95 0.72 0.28 0.62 0.38 0.78 0.21999999999999997 0.12 0.88 0.07 0.9299999999999999 0.57 0.43000000000000005 0.08 0.92 0.92 0.07999999999999996 0.58 0.42000000000000004 0.78 0.21999999999999997 0.39 0.61 0.48 0.52 0.48 0.52 0.37 0.63 0.78 0.21999999999999997 0.53 0.47 0.79 0.20999999999999996 0.8 0.19999999999999996 0.79 0.20999999999999996 0.15 0.85 0.35 0.65 0.23 0.77 0.8 0.19999999999999996 0.72 0.28 0.57 0.43000000000000005 0.88 0.12 0.27 0.73 0.67 0.32999999999999996 0.85 0.15000000000000002 0.57 0.43000000000000005 0.65 0.35 0.12 0.88 0.41 0.5900000000000001 0.35 0.65 0.49 0.51 0.28 0.72 0.14 0.86 0.25 0.75 0.46 0.54 0.13 0.87 0.51 0.49 0.19 0.81 0.54 0.45999999999999996 0.15 0.85 0.34 0.6599999999999999 0.89 0.10999999999999999 0.21 0.79 0.82 0.18000000000000005 0.67 0.32999999999999996 0.82 0.18000000000000005 0.66 0.33999999999999997 0.79 0.20999999999999996 0.49 0.51 0.64 0.36 0.91 0.08999999999999997 0.12 0.88 0.56 0.43999999999999995 0.28 0.72 0.63 0.37 0.77 0.22999999999999998 0.61 0.39 0.67 0.32999999999999996 0.89 0.10999999999999999 0.94 0.06000000000000005 0.21 0.79 0.71 0.29000000000000004 0.87 0.13 0.33 0.6699999999999999 0.87 0.13 0.77 0.22999999999999998 0.68 0.31999999999999995 0.62 0.38 0.09 0.91 0.24 0.76 0.62 0.38 0.76 0.24 0.45 0.55 0.26 0.74 0.67 0.32999999999999996 0.83 0.17000000000000004 0.47 0.53 0.95 0.050000000000000044 0.48 0.52 0.24 0.76 0.91 0.08999999999999997 0.52 0.48 0.63 0.37 0.29 0.71 0.47 0.53 0.5 0.5 0.09 0.91 0.01 0.99 0.16 0.84 0.02 0.98 0.46 0.54 0.94 0.06000000000000005 0.31 0.69 0.47 0.53 0.29 0.71 0.35 0.65</TABLE></DEFINITION><DEFINITION><FOR>N9</FOR><GIVEN>N0</GIVEN><GIVEN>N1</GIVEN><GIVEN>N2</GIVEN><GIVEN>N3</GIVEN><GIVEN>N4</GIVEN><GIVEN>N5</GIVEN><GIVEN>N6</GIVEN><GIVEN>N7</GIVEN><GIVEN>N8</GIVEN><TABLE>0.6 0.4 0.22 0.78 0.04 0.96 0.91 0.08999999999999997 0.56 0.43999999999999995 0.43 0.5700000000000001 0.46 0.54 0.69 0.31000000000000005 0.95 0.050000000000000044 0.3 0.7 0.55 0.44999999999999996 0.68 0.31999999999999995 0.84 0.16000000000000003 0.52 0.48 0.25 0.75 0.54 0.45999999999999996 0.66 0.33999999999999997 0.02 0.98 0.83 0.17000000000000004 0.65 0.35 0.09 0.91 0.42 0.5800000000000001 0.49 0.51 0.78 0.21999999999999997 0.92 0.07999999999999996 0.28 0.72 0.35 0.65 0.41 0.5900000000000001 0.08 0.92 0.27 0.73 0.58 0.42000000000000004 0.08 0.92 0.27 0.73 0.17 0.83 0.18 0.8200000000000001 0.13 0.87 0.68 0.31999999999999995 0.16 0.84 0.07 0.9299999999999999 0.85 0.15000000000000002 0.34 0.6599999999999999 0.81 0.18999999999999995 0.24 0.76 0.68 0.31999999999999995 0.18 0.8200000000000001 0.31 0.69 0.71 0.29000000000000004 0.6 0.4 0.93 0.06999999999999995 0.89 0.10999999999999999 0.98 0.020000000000000018 0.66 0.33999999999999997 0.21 0.79 0.46 0.54 0.15 0.85 0.49 0.51 0.05 0.95 0.39 0.61 0.54 0.45999999999999996 0.62 0.38 0.45 0.55 0.06 0.94 0.48 0.52 0.87 0.13 0.12 0.88 0.01 0.99 0.19 0.81 0.53 0.47 0.57 0.43000000000000005 0.55 0.44999999999999996 0.9 0.09999999999999998 0.65 0.35 0.34 0.6599999999999999 0.74 0.26 0.53 0.47 0.58 0.42000000000000004 0.58 0.42000000000000004 0.42 0.5800000000000001 0.14 0.86 0.9 0.09999999999999998 0.48 0.52 0.35 0.65 0.6 0.4 0.6 0.4 0.03 0.97 0.07 0.9299999999999999 0.76 0.24 0.19 0.81 0.56 0.43999999999999995 0.01 0.99 0.78 0.21999999999999997 0.03 0.97 0.78 0.21999999999999997 0.27 0.73 0.98 0.020000000000000018 0.35 0.65 0.01 0.99 0.58 0.42000000000000004 0.79 0.20999999999999996 0.41 0.5900000000000001 0.13 0.87 0.37 0.63 0.13 0.87 0.72 0.28 0.58 0.42000000000000004 0.17 0.83 0.6 0.4 0.25 0.75 0.35 0.65 0.5 0.5 0.83 0.17000000000000004 0.94 0.06000000000000005 0.81 0.18999999999999995 0.49 0.51 0.69 0.31000000000000005 0.48 0.52 0.5 0.5 0.76 0.24 0.78 0.21999999999999997 0.42 0.5800000000000001 0.32 0.6799999999999999 0.46 0.54 0.08 0.92 0.73 0.27 0.93 0.06999999999999995 0.86 0.14 0.45 0.55 0.24 0.76 0.29 0.71 0.86 0.14 0.7 0.30000000000000004 0.7 0.30000000000000004 0.15 0.85 0.1 0.9 0.83 0.17000000000000004 0.37 0.63 0.66 0.33999999999999997 0.46 0.54 0.64 0.36 0.28 0.72 0.02 0.98 0.41 0.5900000000000001 0.02 0.98 0.73 0.27 0.81 0.18999999999999995 0.7 0.30000000000000004 0.41 0.5900000000000001 0.6 0.4 0.69 0.31000000000000005 0.64 0.36 0.2 0.8 0.24 0.76 0.16 0.84 0.24 0.76 0.37 0.63 0.46 0.54 0.41 0.5900000000000001 0.2 0.8 0.89 0.10999999999999999 0.17 0.83 0.78 0.21999999999999997 0.96 0.040000000000000036 0.12 0.88 0.83 0.17000000000000004 0.52 0.48 0.13 0.87 0.28 0.72 0.61 0.39 0.52 0.48 0.42 0.5800000000000001 0.08 0.92 0.85 0.15000000000000002 0.42 0.5800000000000001 0.34 0.6599999999999999 0.23 0.77 0.35 0.65 0.69 0.31000000000000005 0.99 0.010000000000000009 0.24 0.76 0.45 0.55 0.34 0.6599999999999999 0.43 0.5700000000000001 0.49 0.51 0.16 0.84 0.78 0.21999999999999997 0.49 0.51 0.34 0.6599999999999999 0.89 0.10999999999999999 0.99 0.010000000000000009 0.35 0.65 0.09 0.91 0.61 0.39 0.84 0.16000000000000003 0.66 0.33999999999999997 0.86 0.14 0.72 0.28 0.17 0.83 0.34 0.6599999999999999 0.87 0.13 0.69 0.31000000000000005 0.05 0.95 0.36 0.64 0.05 0.95 0.56 0.43999999999999995 0.64 0.36 0.89 0.10999999999999999 0.92 0.07999999999999996 0.24 0.76 0.74 0.26 0.28 0.72 0.89 0.10999999999999999 0.61 0.39 0.25 0.75 0.99 0.010000000000000009 0.36 0.64 0.46 0.54 0.03 0.97 0.94 0.06000000000000005 0.79 0.20999999999999996 0.17 0.83 0.05 0.95 0.21 0.79 0.98 0.020000000000000018 0.2 0.8 0.58 0.42000000000000004 0.99 0.010000000000000009 0.71 0.29000000000000004 0.67 0.32999999999999996 0.93 0.06999999999999995 0.67 0.32999999999999996 0.37 0.63 0.87 0.13 0.63 0.37 0.52 0.48 0.13 0.87 0.86 0.14 0.14 0.86 0.52 0.48 0.86 0.14 0.28 0.72 0.72 0.28 0.55 0.44999999999999996 0.52 0.48 0.56 0.43999999999999995 0.83 0.17000000000000004 0.86 0.14 0.22 0.78 0.98 0.020000000000000018 0.46 0.54 0.71 0.29000000000000004 0.33 0.6699999999999999 0.6 0.4 0.95 0.050000000000000044 0.48 0.52 0.94 0.06000000000000005 0.91 0.08999999999999997 0.71 0.29000000000000004 0.67 0.32999999999999996 0.14 0.86 0.53 0.47 0.53 0.47 0.84 0.16000000000000003 0.79 0.20999999999999996 0.91 0.08999999999999997 0.54 0.45999999999999996 0.88 0.12 0.78 0.21999999999999997 0.23 0.77 0.46 0.54 0.65 0.35 0.89 0.10999999999999999 0.39 0.61 0.01 0.99 0.21 0.79 0.91 0.08999999999999997 0.14 0.86 0.66 0.33999999999999997 0.19 0.81 0.13 0.87 0.08 0.92 0.9 0.09999999999999998 0.44 0.56 0.79 0.20999999999999996 0.95 0.050000000000000044 0.55 0.44999999999999996 0.9 0.09999999999999998 0.27 0.73 0.37 0.63 0.46 0.54 0.94 0.06000000000000005 0.73 0.27 0.7 0.30000000000000004 0.31 0.69 0.14 0.86 0.97 0.030000000000000027 0.14 0.86 0.3 0.7 0.42 0.5800000000000001 0.63 0.37 0.98 0.020000000000000018 0.38 0.62 0.24 0.76 0.02 0.98 0.03 0.97 0.51 0.49 0.47 0.53 0.66 0.33999999999999997 0.31 0.69 0.11 0.89 0.54 0.45999999999999996 0.13 0.87 0.44 0.56 0.12 0.88 0.43 0.5700000000000001 0.36 0.64 0.76 0.24 0.95 0.050000000000000044 0.42 0.5800000000000001 0.45 0.55 0.04 0.96 0.06 0.94 0.02 0.98 0.39 0.61 0.9 0.09999999999999998 0.48 0.52 0.75 0.25 0.03 0.97 0.34 0.6599999999999999 0.81 0.18999999999999995 0.9 0.09999999999999998 0.62 0.38 0.87 0.13 0.58 0.42000000000000004 0.29 0.71 0.88 0.12 0.66 0.33999999999999997 0.33 0.6699999999999999 0.83 0.17000000000000004 0.08 0.92 0.2 0.8 0.35 0.65 0.59 0.41000000000000003 0.72 0.28 0.12 0.88 0.06 0.94 0.96 0.040000000000000036 0.98 0.020000000000000018 0.75 0.25 0.28 0.72 0.78 0.21999999999999997 0.05 0.95 0.52 0.48 0.56 0.43999999999999995 0.11 0.89 0.56 0.43999999999999995 0.81 0.18999999999999995 0.22 0.78 0.06 0.94 0.86 0.14 0.76 0.24 0.46 0.54 0.16 0.84 0.79 0.20999999999999996 0.89 0.10999999999999999 0.98 0.020000000000000018 0.47 0.53 0.98 0.020000000000000018 0.24 0.76 0.77 0.22999999999999998 0.39 0.61 0.89 0.10999999999999999 0.6 0.4 0.46 0.54 0.83 0.17000000000000004 0.89 0.10999999999999999 0.22 0.78 0.24 0.76 0.18 0.8200000000000001 0.36 0.64 0.24 0.76 0.29 0.71 0.32 0.6799999999999999 0.88 0.12 0.26 0.74 0.71 0.29000000000000004 0.53 0.47 0.71 0.29000000000000004 0.66 0.33999999999999997 0.1 0.9 0.98 0.020000000000000018 0.64 0.36 0.84 0.16000000000000003 0.83 0.17000000000000004 0.91 0.08999999999999997 0.22 0.78 0.56 0.43999999999999995 0.5 0.5 0.6 0.4 0.61 0.39 0.23 0.77 0.78 0.21999999999999997 0.54 0.45999999999999996 0.42 0.5800000000000001 0.55 0.44999999999999996 0.87 0.13 0.84 0.16000000000000003 0.1 0.9 0.69 0.31000000000000005 0.92 0.07999999999999996 0.3 0.7 0.55 0.44999999999999996 0.64 0.36 0.63 0.37 0.87 0.13 0.94 0.06000000000000005 0.47 0.53 0.01 0.99 0.64 0.36 0.09 0.91 0.09 0.91 0.54 0.45999999999999996 0.23 0.77 0.91 0.08999999999999997 0.84 0.16000000000000003 0.61 0.39 0.75 0.25 0.9 0.09999999999999998 0.93 0.06999999999999995 0.97 0.030000000000000027 0.83 0.17000000000000004 0.52 0.48 0.56 0.43999999999999995 0.58 0.42000000000000004 0.37 0.63 0.89 0.10999999999999999 0.83 0.17000000000000004 0.08 0.92 0.28 0.72 0.41 0.5900000000000001 0.31 0.69 0.67 0.32999999999999996 0.91 0.08999999999999997 0.35 0.65 0.91 0.08999999999999997 0.58 0.42000000000000004 0.29 0.71 0.94 0.06000000000000005 0.28 0.72 0.61 0.39 0.28 0.72 0.68 0.31999999999999995 0.94 0.06000000000000005 0.64 0.36 0.28 0.72 0.34 0.6599999999999999 0.33 0.6699999999999999 0.97 0.030000000000000027 0.19 0.81 0.63 0.37 0.27 0.73 0.59 0.41000000000000003 0.67 0.32999999999999996 0.17 0.83 0.53 0.47 0.62 0.38 0.93 0.06999999999999995 0.21 0.79 0.73 0.27 0.16 0.84 0.05 0.95 0.73 0.27 0.27 0.73 0.58 0.42000000000000004 0.55 0.44999999999999996 0.86 0.14 0.68 0.31999999999999995 0.52 0.48 0.86 0.14 0.15 0.85 0.26 0.74 0.28 0.72 0.11 0.89 0.4 0.6 0.68 0.31999999999999995 0.52 0.48 0.13 0.87 0.62 0.38 0.19 0.81 0.81 0.18999999999999995 0.25 0.75 0.36 0.64 0.42 0.5800000000000001 0.99 0.010000000000000009 0.46 0.54 0.3 0.7 0.69 0.31000000000000005 0.07 0.9299999999999999 0.39 0.61 0.47 0.53 0.03 0.97 0.77 0.22999999999999998 0.17 0.83 0.49 0.51 0.42 0.5800000000000001 0.04 0.96 0.75 0.25 0.62 0.38 0.21 0.79 0.18 0.8200000000000001 0.14 0.86 0.28 0.72 0.94 0.06000000000000005</TABLE></DEFINITION></NETWORK></BIF>