<BIF VERSION="0.3"><NETWORK><NAME>Test10NFNTE</NAME><VARIABLE TYPE="nature"><NAME>N0</NAME><OUTCOME>True</OUTCOME><OUTCOME>False</OUTCOME></VARIABLE><VARIABLE TYPE="nature"><NAME>N1</NAME><OUTCOME>True</OUTCOME><OUTCOME>False</OUTCOME></VARIABLE><VARIABLE TYPE="nature"><NAME>N2</NAME><OUTCOME>True</OUTCOME><OUTCOME>False</OUTCOME></VARIABLE><VARIABLE TYPE="nature"><NAME>N3</NAME><OUTCOME>True</OUTCOME><OUTCOME>False</OUTCOME></VARIABLE><VARIABLE TYPE="nature"><NAME>N4</NAME><OUTCOME>True</OUTCOME><OUTCOME>False</OUTCOME></VARIABLE><VARIABLE TYPE="nature"><NAME>N5</NAME><OUTCOME>True</OUTCOME><OUTCOME>False</OUTCOME></VARIABLE><VARIABLE TYPE="nature"><NAME>N6</NAME><OUTCOME>True</OUTCOME><OUTCOME>False</OUTCOME></VARIABLE><VARIABLE TYPE="nature"><NAME>N7</NAME><OUTCOME>True</OUTCOME><OUTCOME>False</OUTCOME></VARIABLE><VARIABLE TYPE="nature"><NAME>N8</NAME><OUTCOME>True</OUTCOME><OUTCOME>False</OUTCOME></VARIABLE><VARIABLE TYPE="nature"><NAME>N9</NAME><OUTCOME>True</OUTCOME><OUTCOME>False</OUTCOME></VARIABLE><DEFINITION><FOR>N0</FOR><TABLE>0.49 0.51</TABLE></DEFINITION><DEFINITION><FOR>N1</FOR><GIVEN>N0</GIVEN><TABLE>0.88 0.12 0.2 0.8</TABLE></DEFINITION><DEFINITION><FOR>N2</FOR><GIVEN>N0</GIVEN><GIVEN>N1</GIVEN><TABLE>0.3 0.7 0.28 0.72 0.66 0.33999999999999997 0.75 0.25</TABLE></DEFINITION><DEFINITION><FOR>N3</FOR><GIVEN>N0</GIVEN><GIVEN>N1</GIVEN><GIVEN>N2</GIVEN><TABLE>0.08 0.92 0.2 0.8 0.93 0.06999999999999995 0.92 0.07999999999999996 0.07 0.9299999999999999 0.02 0.98 0.43 0.5700000000000001 0.94 0.06000000000000005</TABLE></DEFINITION><DEFINITION><FOR>N4</FOR><GIVEN>N0</GIVEN><GIVEN>N1</GIVEN><GIVEN>N2</GIVEN><GIVEN>N3</GIVEN><TABLE>0.52 0.48 0.79 0.20999999999999996 0.39 0.61 0.41 0.5900000000000001 0.07 0.9299999999999999 0.54 0.45999999999999996 0.66 0.33999999999999997 0.96 0.040000000000000036 0.31 0.69 0.84 0.16000000000000003 0.14 0.86 0.68 0.31999999999999995 0.62 0.38 0.45 0.55 0.76 0.24 0.3 0.7</TABLE></DEFINITION><DEFINITION><FOR>N5</FOR><GIVEN>N0</GIVEN><GIVEN>N1</GIVEN><GIVEN>N2</GIVEN><GIVEN>N3</GIVEN><GIVEN>N4</GIVEN><TABLE>0.17 0.83 0.11 0.89 0.35 0.65 0.35 0.65 0.3 0.7 0.41 0.5900000000000001 0.7 0.30000000000000004 0.69 0.31000000000000005 0.87 0.13 0.16 0.84 0.09 0.91 0.46 0.54 0.36 0.64 0.69 0.31000000000000005 0.1 0.9 0.38 0.62 0.13 0.87 0.51 0.49 0.03 0.97 0.56 0.43999999999999995 0.09 0.91 0.85 0.15000000000000002 0.33 0.6699999999999999 0.66 0.33999999999999997 0.49 0.51 0.58 0.42000000000000004 0.87 0.13 0.46 0.54 0.62 0.38 0.55 0.44999999999999996 0.24 0.76 0.13 0.87</TABLE></DEFINITION><DEFINITION><FOR>N6</FOR><GIVEN>N0</GIVEN><GIVEN>N1</GIVEN><GIVEN>N2</GIVEN><GIVEN>N3</GIVEN><GIVEN>N4</GIVEN><GIVEN>N5</GIVEN><TABLE>0.93 0.06999999999999995 0.54 0.45999999999999996 0.44 0.56 0.09 0.91 0.89 0.10999999999999999 0.62 0.38 0.71 0.29000000000000004 0.28 0.72 0.89 0.10999999999999999 0.53 0.47 0.79 0.20999999999999996 0.13 0.87 0.63 0.37 0.65 0.35 0.26 0.74 0.52 0.48 0.05 0.95 0.78 0.21999999999999997 0.82 0.18000000000000005 0.79 0.20999999999999996 0.55 0.44999999999999996 0.49 0.51 0.46 0.54 0.03 0.97 0.6 0.4 0.97 0.030000000000000027 0.7 0.30000000000000004 0.39 0.61 0.65 0.35 0.69 0.31000000000000005 0.38 0.62 0.14 0.86 0.32 0.6799999999999999 0.38 0.62 0.61 0.39 0.37 0.63 0.03 0.97 0.49 0.51 0.24 0.76 0.15 0.85 0.6 0.4 0.48 0.52 0.07 0.9299999999999999 0.43 0.5700000000000001 0.13 0.87 0.18 0.8200000000000001 0.3 0.7 0.91 0.08999999999999997 0.16 0.84 0.57 0.43000000000000005 0.75 0.25 0.6 0.4 0.05 0.95 0.57 0.43000000000000005 0.52 0.48 0.29 0.71 0.03 0.97 0.29 0.71 0.86 0.14 0.13 0.87 0.48 0.52 0.57 0.43000000000000005 0.3 0.7 0.73 0.27</TABLE></DEFINITION><DEFINITION><FOR>N7</FOR><GIVEN>N0</GIVEN><GIVEN>N1</GIVEN><GIVEN>N2</GIVEN><GIVEN>N3</GIVEN><GIVEN>N4</GIVEN><GIVEN>N5</GIVEN><GIVEN>N6</GIVEN><TABLE>0.16 0.84 0.11 0.89 0.02 0.98 0.64 0.36 0.09 0.91 0.91 0.08999999999999997 0.71 0.29000000000000004 0.18 0.8200000000000001 0.04 0.96 0.16 0.84 0.21 0.79 0.69 0.31000000000000005 0.76 0.24 0.99 0.010000000000000009 0.41 0.5900000000000001 0.15 0.85 0.84 0.16000000000000003 0.04 0.96 0.65 0.35 0.34 0.6599999999999999 0.25 0.75 0.76 0.24 0.81 0.18999999999999995 0.67 0.32999999999999996 0.11 0.89 0.89 0.10999999999999999 0.03 0.97 0.48 0.52 0.69 0.31000000000000005 0.57 0.43000000000000005 0.09 0.91 0.54 0.45999999999999996 0.98 0.020000000000000018 0.1 0.9 0.41 0.5900000000000001 0.33 0.6699999999999999 0.63 0.37 0.37 0.63 0.01 0.99 0.62 0.38 0.96 0.040000000000000036 0.45 0.55 0.77 0.22999999999999998 0.23 0.77 0.59 0.41000000000000003 0.7 0.30000000000000004 0.8 0.19999999999999996 0.4 0.6 0.96 0.040000000000000036 0.82 0.18000000000000005 0.83 0.17000000000000004 0.61 0.39 0.65 0.35 0.56 0.43999999999999995 0.78 0.21999999999999997 0.21 0.79 0.45 0.55 0.35 0.65 0.54 0.45999999999999996 0.43 0.5700000000000001 0.81 0.18999999999999995 0.92 0.07999999999999996 0.57 0.43000000000000005 0.66 0.33999999999999997 0.24 0.76 0.25 0.75 0.15 0.85 0.58 0.42000000000000004 0.38 0.62 0.1 0.9 0.39 0.61 0.93 0.06999999999999995 0.58 0.42000000000000004 0.98 0.020000000000000018 0.95 0.050000000000000044 0.46 0.54 0.13 0.87 0.84 0.16000000000000003 0.2 0.8 0.61 0.39 0.76 0.24 0.83 0.17000000000000004 0.53 0.47 0.77 0.22999999999999998 0.01 0.99 0.43 0.5700000000000001 0.99 0.010000000000000009 0.16 0.84 0.65 0.35 0.34 0.6599999999999999 0.45 0.55 0.05 0.95 0.57 0.43000000000000005 0.76 0.24 0.67 0.32999999999999996 0.82 0.18000000000000005 0.3 0.7 0.76 0.24 0.3 0.7 0.7 0.30000000000000004 0.57 0.43000000000000005 0.42 0.5800000000000001 0.86 0.14 0.29 0.71 0.51 0.49 0.26 0.74 0.47 0.53 0.13 0.87 0.89 0.10999999999999999 0.27 0.73 0.79 0.20999999999999996 0.41 0.5900000000000001 0.39 0.61 0.7 0.30000000000000004 0.18 0.8200000000000001 0.03 0.97 0.79 0.20999999999999996 0.02 0.98 0.84 0.16000000000000003 0.01 0.99 0.55 0.44999999999999996 0.06 0.94 0.23 0.77 0.44 0.56 0.52 0.48 0.57 0.43000000000000005 0.34 0.6599999999999999 0.14 0.86</TABLE></DEFINITION><DEFINITION><FOR>N8</FOR><GIVEN>N0</GIVEN><GIVEN>N1</GIVEN><GIVEN>N2</GIVEN><GIVEN>N3</GIVEN><GIVEN>N4</GIVEN><GIVEN>N5</GIVEN><GIVEN>N6</GIVEN><GIVEN>N7</GIVEN><TABLE>0.76 0.24 0.15 0.85 0.58 0.42000000000000004 0.94 0.06000000000000005 0.35 0.65 0.54 0.45999999999999996 0.09 0.91 0.86 0.14 0.87 0.13 0.72 0.28 0.49 0.51 0.42 0.5800000000000001 0.59 0.41000000000000003 0.69 0.31000000000000005 0.58 0.42000000000000004 0.7 0.30000000000000004 0.73 0.27 0.26 0.74 0.29 0.71 0.62 0.38 0.74 0.26 0.73 0.27 0.66 0.33999999999999997 0.95 0.050000000000000044 0.94 0.06000000000000005 0.03 0.97 0.75 0.25 0.5 0.5 0.78 0.21999999999999997 0.61 0.39 0.53 0.47 0.41 0.5900000000000001 0.57 0.43000000000000005 0.12 0.88 0.44 0.56 0.48 0.52 0.45 0.55 0.68 0.31999999999999995 0.62 0.38 0.74 0.26 0.06 0.94 0.17 0.83 0.44 0.56 0.71 0.29000000000000004 0.83 0.17000000000000004 0.07 0.9299999999999999 0.1 0.9 0.31 0.69 0.02 0.98 0.71 0.29000000000000004 0.79 0.20999999999999996 0.65 0.35 0.07 0.9299999999999999 0.01 0.99 0.84 0.16000000000000003 0.67 0.32999999999999996 0.69 0.31000000000000005 0.8 0.19999999999999996 0.48 0.52 0.81 0.18999999999999995 0.73 0.27 0.7 0.30000000000000004 0.61 0.39 0.27 0.73 0.94 0.06000000000000005 0.13 0.87 0.33 0.6699999999999999 0.38 0.62 0.19 0.81 0.19 0.81 0.84 0.16000000000000003 0.75 0.25 0.85 0.15000000000000002 0.75 0.25 0.54 0.45999999999999996 0.65 0.35 0.9 0.09999999999999998 0.1 0.9 0.18 0.8200000000000001 0.94 0.06000000000000005 0.76 0.24 0.11 0.89 0.1 0.9 0.38 0.62 0.08 0.92 0.41 0.5900000000000001 0.18 0.8200000000000001 0.64 0.36 0.12 0.88 0.35 0.65 0.21 0.79 0.5 0.5 0.42 0.5800000000000001 0.58 0.42000000000000004 0.42 0.5800000000000001 0.54 0.45999999999999996 0.42 0.5800000000000001 0.33 0.6699999999999999 0.67 0.32999999999999996 0.91 0.08999999999999997 0.47 0.53 0.5 0.5 0.2 0.8 0.23 0.77 0.95 0.050000000000000044 0.45 0.55 0.73 0.27 0.07 0.9299999999999999 0.21 0.79 0.55 0.44999999999999996 0.33 0.6699999999999999 0.94 0.06000000000000005 0.71 0.29000000000000004 0.43 0.5700000000000001 0.25 0.75 0.73 0.27 0.29 0.71 0.35 0.65 0.2 0.8 0.84 0.16000000000000003 0.72 0.28 0.55 0.44999999999999996 0.75 0.25 0.69 0.31000000000000005 0.28 0.72 0.12 0.88 0.95 0.050000000000000044 0.8 0.19999999999999996 0.06 0.94 0.67 0.32999999999999996 0.87 0.13 0.19 0.81 0.63 0.37 0.72 0.28 0.02 0.98 0.64 0.36 0.43 0.5700000000000001 0.66 0.33999999999999997 0.83 0.17000000000000004 0.75 0.25 0.26 0.74 0.24 0.76 0.03 0.97 0.12 0.88 0.64 0.36 0.48 0.52 0.1 0.9 0.8 0.19999999999999996 0.27 0.73 0.48 0.52 0.35 0.65 0.03 0.97 0.16 0.84 0.04 0.96 0.39 0.61 0.19 0.81 0.5 0.5 0.11 0.89 0.83 0.17000000000000004 0.76 0.24 0.62 0.38 0.26 0.74 0.65 0.35 0.71 0.29000000000000004 0.95 0.050000000000000044 0.2 0.8 0.51 0.49 0.25 0.75 0.54 0.45999999999999996 0.15 0.85 0.79 0.20999999999999996 0.66 0.33999999999999997 0.95 0.050000000000000044 0.02 0.98 0.68 0.31999999999999995 0.38 0.62 0.29 0.71 0.27 0.73 0.7 0.30000000000000004 0.73 0.27 0.28 0.72 0.2 0.8 0.82 0.18000000000000005 0.69 0.31000000000000005 0.3 0.7 0.65 0.35 0.02 0.98 0.77 0.22999999999999998 0.17 0.83 0.85 0.15000000000000002 0.06 0.94 0.15 0.85 0.51 0.49 0.61 0.39 0.51 0.49 0.07 0.9299999999999999 0.75 0.25 0.83 0.17000000000000004 0.14 0.86 0.56 0.43999999999999995 0.62 0.38 0.01 0.99 0.81 0.18999999999999995 0.41 0.5900000000000001 0.77 0.22999999999999998 0.16 0.84 0.13 0.87 0.64 0.36 0.23 0.77 0.99 0.010000000000000009 0.33 0.6699999999999999 0.66 0.33999999999999997 0.42 0.5800000000000001 0.57 0.43000000000000005 0.01 0.99 0.48 0.52 0.48 0.52 0.79 0.20999999999999996 0.4 0.6 0.51 0.49 0.72 0.28 0.13 0.87 0.51 0.49 0.48 0.52 0.71 0.29000000000000004 0.07 0.9299999999999999 0.63 0.37 0.84 0.16000000000000003 0.56 0.43999999999999995 0.05 0.95 0.58 0.42000000000000004 0.5 0.5 0.81 0.18999999999999995 0.31 0.69 0.09 0.91 0.87 0.13 0.12 0.88 0.5 0.5 0.33 0.6699999999999999 0.11 0.89 0.01 0.99 0.42 0.5800000000000001 0.73 0.27 0.82 0.18000000000000005 0.89 0.10999999999999999 0.92 0.07999999999999996 0.31 0.69 0.81 0.18999999999999995 0.37 0.63 0.48 0.52 0.99 0.010000000000000009 0.55 0.44999999999999996 0.85 0.15000000000000002 0.24 0.76 0.75 0.25 0.36 0.64</TABLE></DEFINITION><DEFINITION><FOR>N9</FOR><GIVEN>N0</GIVEN><GIVEN>N1</GIVEN><GIVEN>N2</GIVEN><GIVEN>N3</GIVEN><GIVEN>N4</GIVEN><GIVEN>N5</GIVEN><GIVEN>N6</GIVEN><GIVEN>N7</GIVEN><GIVEN>N8</GIVEN><TABLE>0.27 0.73 0.38 0.62 0.15 0.85 0.24 0.76 0.79 0.20999999999999996 0.8 0.19999999999999996 0.29 0.71 0.25 0.75 0.11 0.89 0.83 0.17000000000000004 0.85 0.15000000000000002 0.72 0.28 0.71 0.29000000000000004 0.63 0.37 0.42 0.5800000000000001 0.41 0.5900000000000001 0.31 0.69 0.5 0.5 0.79 0.20999999999999996 0.59 0.41000000000000003 0.4 0.6 0.49 0.51 0.89 0.10999999999999999 0.29 0.71 0.37 0.63 0.08 0.92 0.24 0.76 0.07 0.9299999999999999 0.04 0.96 0.57 0.43000000000000005 0.24 0.76 0.15 0.85 0.04 0.96 0.9 0.09999999999999998 0.01 0.99 0.22 0.78 0.38 0.62 0.21 0.79 0.56 0.43999999999999995 0.65 0.35 0.3 0.7 0.12 0.88 0.28 0.72 0.7 0.30000000000000004 0.5 0.5 0.18 0.8200000000000001 0.15 0.85 0.5 0.5 0.65 0.35 0.74 0.26 0.53 0.47 0.8 0.19999999999999996 0.61 0.39 0.6 0.4 0.51 0.49 0.5 0.5 0.03 0.97 0.62 0.38 0.12 0.88 0.42 0.5800000000000001 0.14 0.86 0.37 0.63 0.45 0.55 0.6 0.4 0.61 0.39 0.17 0.83 0.75 0.25 0.97 0.030000000000000027 0.28 0.72 0.59 0.41000000000000003 0.31 0.69 0.94 0.06000000000000005 0.39 0.61 0.33 0.6699999999999999 0.1 0.9 0.59 0.41000000000000003 0.89 0.10999999999999999 0.9 0.09999999999999998 0.18 0.8200000000000001 0.62 0.38 0.08 0.92 0.75 0.25 0.41 0.5900000000000001 0.47 0.53 0.18 0.8200000000000001 0.7 0.30000000000000004 0.43 0.5700000000000001 0.93 0.06999999999999995 0.97 0.030000000000000027 0.39 0.61 0.76 0.24 0.37 0.63 0.12 0.88 0.51 0.49 0.19 0.81 0.67 0.32999999999999996 0.73 0.27 0.31 0.69 0.78 0.21999999999999997 0.13 0.87 0.9 0.09999999999999998 0.37 0.63 0.72 0.28 0.95 0.050000000000000044 0.69 0.31000000000000005 0.55 0.44999999999999996 0.38 0.62 0.3 0.7 0.41 0.5900000000000001 0.46 0.54 0.21 0.79 0.28 0.72 0.59 0.41000000000000003 0.22 0.78 0.58 0.42000000000000004 0.02 0.98 0.12 0.88 0.9 0.09999999999999998 0.16 0.84 0.22 0.78 0.33 0.6699999999999999 0.74 0.26 0.2 0.8 0.84 0.16000000000000003 0.43 0.5700000000000001 0.05 0.95 0.29 0.71 0.65 0.35 0.56 0.43999999999999995 0.57 0.43000000000000005 0.57 0.43000000000000005 0.02 0.98 0.8 0.19999999999999996 0.91 0.08999999999999997 0.5 0.5 0.66 0.33999999999999997 0.25 0.75 0.49 0.51 0.33 0.6699999999999999 0.04 0.96 0.9 0.09999999999999998 0.05 0.95 0.86 0.14 0.8 0.19999999999999996 0.4 0.6 0.7 0.30000000000000004 0.44 0.56 0.11 0.89 0.41 0.5900000000000001 0.81 0.18999999999999995 0.53 0.47 0.98 0.020000000000000018 0.18 0.8200000000000001 0.23 0.77 0.89 0.10999999999999999 0.41 0.5900000000000001 0.12 0.88 0.29 0.71 0.15 0.85 0.91 0.08999999999999997 0.74 0.26 0.46 0.54 0.57 0.43000000000000005 0.68 0.31999999999999995 0.74 0.26 0.49 0.51 0.48 0.52 0.33 0.6699999999999999 0.99 0.010000000000000009 0.63 0.37 0.67 0.32999999999999996 0.62 0.38 0.34 0.6599999999999999 0.18 0.8200000000000001 0.94 0.06000000000000005 0.94 0.06000000000000005 0.91 0.08999999999999997 0.88 0.12 0.2 0.8 0.59 0.41000000000000003 0.95 0.050000000000000044 0.2 0.8 0.46 0.54 0.33 0.6699999999999999 0.51 0.49 0.9 0.09999999999999998 0.66 0.33999999999999997 0.39 0.61 0.21 0.79 0.48 0.52 0.04 0.96 0.47 0.53 0.01 0.99 0.01 0.99 0.29 0.71 0.28 0.72 0.48 0.52 0.29 0.71 0.79 0.20999999999999996 0.86 0.14 0.39 0.61 0.56 0.43999999999999995 0.74 0.26 0.17 0.83 0.25 0.75 0.93 0.06999999999999995 0.86 0.14 0.63 0.37 0.48 0.52 0.7 0.30000000000000004 0.16 0.84 0.95 0.050000000000000044 0.98 0.020000000000000018 0.85 0.15000000000000002 0.92 0.07999999999999996 0.42 0.5800000000000001 0.04 0.96 0.77 0.22999999999999998 0.34 0.6599999999999999 0.92 0.07999999999999996 0.67 0.32999999999999996 0.1 0.9 0.75 0.25 0.9 0.09999999999999998 0.59 0.41000000000000003 0.06 0.94 0.33 0.6699999999999999 0.56 0.43999999999999995 0.75 0.25 0.15 0.85 0.14 0.86 0.21 0.79 0.91 0.08999999999999997 0.81 0.18999999999999995 0.02 0.98 0.6 0.4 0.45 0.55 0.71 0.29000000000000004 0.49 0.51 0.13 0.87 0.15 0.85 0.16 0.84 0.96 0.040000000000000036 0.36 0.64 0.1 0.9 0.79 0.20999999999999996 0.95 0.050000000000000044 0.56 0.43999999999999995 0.8 0.19999999999999996 0.53 0.47 0.89 0.10999999999999999 0.9 0.09999999999999998 0.05 0.95 0.45 0.55 0.66 0.33999999999999997 0.64 0.36 0.83 0.17000000000000004 0.45 0.55 0.11 0.89 0.66 0.33999999999999997 0.08 0.92 0.37 0.63 0.29 0.71 0.81 0.18999999999999995 0.6 0.4 0.91 0.08999999999999997 0.87 0.13 0.83 0.17000000000000004 0.27 0.73 0.39 0.61 0.28 0.72 0.68 0.31999999999999995 0.09 0.91 0.9 0.09999999999999998 0.4 0.6 0.41 0.5900000000000001 0.51 0.49 0.31 0.69 0.46 0.54 0.31 0.69 0.68 0.31999999999999995 0.67 0.32999999999999996 0.59 0.41000000000000003 0.15 0.85 0.99 0.010000000000000009 0.4 0.6 0.07 0.9299999999999999 0.16 0.84 0.34 0.6599999999999999 0.45 0.55 0.28 0.72 0.65 0.35 0.65 0.35 0.16 0.84 0.82 0.18000000000000005 0.6 0.4 0.94 0.06000000000000005 0.77 0.22999999999999998 0.99 0.010000000000000009 0.34 0.6599999999999999 0.38 0.62 0.78 0.21999999999999997 0.83 0.17000000000000004 0.33 0.6699999999999999 0.8 0.19999999999999996 0.13 0.87 0.64 0.36 0.9 0.09999999999999998 0.16 0.84 0.79 0.20999999999999996 0.29 0.71 0.48 0.52 0.98 0.020000000000000018 0.44 0.56 0.38 0.62 0.49 0.51 0.31 0.69 0.93 0.06999999999999995 0.86 0.14 0.12 0.88 0.72 0.28 0.53 0.47 0.21 0.79 0.9 0.09999999999999998 0.22 0.78 0.8 0.19999999999999996 0.19 0.81 0.6 0.4 0.15 0.85 0.25 0.75 0.03 0.97 0.32 0.6799999999999999 0.3 0.7 0.29 0.71 0.76 0.24 0.74 0.26 0.05 0.95 0.42 0.5800000000000001 0.78 0.21999999999999997 0.5 0.5 0.35 0.65 0.6 0.4 0.78 0.21999999999999997 0.62 0.38 0.2 0.8 0.9 0.09999999999999998 0.65 0.35 0.22 0.78 0.77 0.22999999999999998 0.56 0.43999999999999995 0.26 0.74 0.51 0.49 0.89 0.10999999999999999 0.31 0.69 0.91 0.08999999999999997 0.84 0.16000000000000003 0.29 0.71 0.27 0.73 0.75 0.25 0.98 0.020000000000000018 0.84 0.16000000000000003 0.15 0.85 0.85 0.15000000000000002 0.71 0.29000000000000004 0.67 0.32999999999999996 0.98 0.020000000000000018 0.02 0.98 0.14 0.86 0.68 0.31999999999999995 0.15 0.85 0.57 0.43000000000000005 0.05 0.95 0.1 0.9 0.65 0.35 0.83 0.17000000000000004 0.65 0.35 0.16 0.84 0.43 0.5700000000000001 0.57 0.43000000000000005 0.97 0.030000000000000027 0.06 0.94 0.2 0.8 0.45 0.55 0.93 0.06999999999999995 0.62 0.38 0.8 0.19999999999999996 0.11 0.89 0.68 0.31999999999999995 0.65 0.35 0.84 0.16000000000000003 0.8 0.19999999999999996 0.46 0.54 0.09 0.91 0.94 0.06000000000000005 0.51 0.49 0.43 0.5700000000000001 0.12 0.88 0.21 0.79 0.36 0.64 0.27 0.73 0.25 0.75 0.22 0.78 0.3 0.7 0.25 0.75 0.27 0.73 0.69 0.31000000000000005 0.75 0.25 0.17 0.83 0.72 0.28 0.68 0.31999999999999995 0.54 0.45999999999999996 0.08 0.92 0.59 0.41000000000000003 0.64 0.36 0.95 0.050000000000000044 0.38 0.62 0.95 0.050000000000000044 0.34 0.6599999999999999 0.61 0.39 0.54 0.45999999999999996 0.44 0.56 0.52 0.48 0.09 0.91 0.82 0.18000000000000005 0.37 0.63 0.64 0.36 0.17 0.83 0.13 0.87 0.47 0.53 0.23 0.77 0.12 0.88 0.28 0.72 0.95 0.050000000000000044 0.34 0.6599999999999999 0.55 0.44999999999999996 0.09 0.91 0.12 0.88 0.68 0.31999999999999995 0.38 0.62 0.06 0.94 0.82 0.18000000000000005 0.5 0.5 0.64 0.36 0.65 0.35 0.59 0.41000000000000003 0.68 0.31999999999999995 0.19 0.81 0.67 0.32999999999999996 0.37 0.63 0.97 0.030000000000000027 0.32 0.6799999999999999 0.61 0.39 0.36 0.64 0.6 0.4 0.88 0.12 0.31 0.69 0.98 0.020000000000000018 0.94 0.06000000000000005 0.45 0.55 0.6 0.4 0.61 0.39 0.52 0.48 0.83 0.17000000000000004 0.25 0.75 0.26 0.74 0.35 0.65 0.33 0.6699999999999999 0.15 0.85 0.1 0.9 0.57 0.43000000000000005 0.82 0.18000000000000005 0.43 0.5700000000000001 0.65 0.35 0.7 0.30000000000000004 0.79 0.20999999999999996 0.09 0.91 0.74 0.26 0.4 0.6 0.09 0.91 0.03 0.97 0.75 0.25 0.25 0.75 0.29 0.71 0.61 0.39 0.16 0.84 0.21 0.79 0.75 0.25 0.91 0.08999999999999997 0.59 0.41000000000000003 0.67 0.32999999999999996 0.91 0.08999999999999997 0.34 0.6599999999999999 0.39 0.61 0.95 0.050000000000000044 0.16 0.84 0.83 0.17000000000000004 0.81 0.18999999999999995 0.39 0.61 0.24 0.76 0.82 0.18000000000000005 0.61 0.39 0.05 0.95 0.94 0.06000000000000005 0.05 0.95 0.52 0.48 0.6 0.4 0.52 0.48 0.31 0.69 0.81 0.18999999999999995 0.01 0.99 0.55 0.44999999999999996 0.78 0.21999999999999997</TABLE></DEFINITION></NETWORK></BIF>