<BIF VERSION="0.3"><NETWORK><NAME>Test10NFNTE</NAME><VARIABLE TYPE="nature"><NAME>N0</NAME><OUTCOME>True</OUTCOME><OUTCOME>False</OUTCOME></VARIABLE><VARIABLE TYPE="nature"><NAME>N1</NAME><OUTCOME>True</OUTCOME><OUTCOME>False</OUTCOME></VARIABLE><VARIABLE TYPE="nature"><NAME>N2</NAME><OUTCOME>True</OUTCOME><OUTCOME>False</OUTCOME></VARIABLE><VARIABLE TYPE="nature"><NAME>N3</NAME><OUTCOME>True</OUTCOME><OUTCOME>False</OUTCOME></VARIABLE><VARIABLE TYPE="nature"><NAME>N4</NAME><OUTCOME>True</OUTCOME><OUTCOME>False</OUTCOME></VARIABLE><VARIABLE TYPE="nature"><NAME>N5</NAME><OUTCOME>True</OUTCOME><OUTCOME>False</OUTCOME></VARIABLE><VARIABLE TYPE="nature"><NAME>N6</NAME><OUTCOME>True</OUTCOME><OUTCOME>False</OUTCOME></VARIABLE><VARIABLE TYPE="nature"><NAME>N7</NAME><OUTCOME>True</OUTCOME><OUTCOME>False</OUTCOME></VARIABLE><VARIABLE TYPE="nature"><NAME>N8</NAME><OUTCOME>True</OUTCOME><OUTCOME>False</OUTCOME></VARIABLE><VARIABLE TYPE="nature"><NAME>N9</NAME><OUTCOME>True</OUTCOME><OUTCOME>False</OUTCOME></VARIABLE><DEFINITION><FOR>N0</FOR><TABLE>0.98 0.020000000000000018</TABLE></DEFINITION><DEFINITION><FOR>N1</FOR><GIVEN>N0</GIVEN><TABLE>0.69 0.31000000000000005 0.58 0.42000000000000004</TABLE></DEFINITION><DEFINITION><FOR>N2</FOR><GIVEN>N0</GIVEN><GIVEN>N1</GIVEN><TABLE>0.26 0.74 0.78 0.21999999999999997 0.77 0.22999999999999998 0.83 0.17000000000000004</TABLE></DEFINITION><DEFINITION><FOR>N3</FOR><GIVEN>N0</GIVEN><GIVEN>N1</GIVEN><GIVEN>N2</GIVEN><TABLE>0.03 0.97 0.91 0.08999999999999997 0.23 0.77 0.48 0.52 0.19 0.81 0.63 0.37 0.28 0.72 0.15 0.85</TABLE></DEFINITION><DEFINITION><FOR>N4</FOR><GIVEN>N0</GIVEN><GIVEN>N1</GIVEN><GIVEN>N2</GIVEN><GIVEN>N3</GIVEN><TABLE>0.28 0.72 0.58 0.42000000000000004 0.88 0.12 0.19 0.81 0.08 0.92 0.02 0.98 0.53 0.47 0.77 0.22999999999999998 0.2 0.8 0.13 0.87 0.85 0.15000000000000002 0.69 0.31000000000000005 0.76 0.24 0.45 0.55 0.67 0.32999999999999996 0.76 0.24</TABLE></DEFINITION><DEFINITION><FOR>N5</FOR><GIVEN>N0</GIVEN><GIVEN>N1</GIVEN><GIVEN>N2</GIVEN><GIVEN>N3</GIVEN><GIVEN>N4</GIVEN><TABLE>0.32 0.6799999999999999 0.11 0.89 0.29 0.71 0.54 0.45999999999999996 0.88 0.12 0.81 0.18999999999999995 0.53 0.47 0.93 0.06999999999999995 0.48 0.52 0.06 0.94 0.92 0.07999999999999996 0.15 0.85 0.3 0.7 0.1 0.9 0.76 0.24 0.21 0.79 0.43 0.5700000000000001 0.47 0.53 0.86 0.14 0.02 0.98 0.89 0.10999999999999999 0.79 0.20999999999999996 0.78 0.21999999999999997 0.94 0.06000000000000005 0.03 0.97 0.4 0.6 0.74 0.26 0.02 0.98 0.93 0.06999999999999995 0.34 0.6599999999999999 0.59 0.41000000000000003 0.5 0.5</TABLE></DEFINITION><DEFINITION><FOR>N6</FOR><GIVEN>N0</GIVEN><GIVEN>N1</GIVEN><GIVEN>N2</GIVEN><GIVEN>N3</GIVEN><GIVEN>N4</GIVEN><GIVEN>N5</GIVEN><TABLE>0.09 0.91 0.55 0.44999999999999996 0.37 0.63 0.46 0.54 0.87 0.13 0.82 0.18000000000000005 0.18 0.8200000000000001 0.41 0.5900000000000001 0.6 0.4 0.42 0.5800000000000001 0.69 0.31000000000000005 0.79 0.20999999999999996 0.88 0.12 0.65 0.35 0.86 0.14 0.75 0.25 0.37 0.63 0.96 0.040000000000000036 0.08 0.92 0.75 0.25 0.04 0.96 0.32 0.6799999999999999 0.71 0.29000000000000004 0.92 0.07999999999999996 0.76 0.24 0.45 0.55 0.16 0.84 0.99 0.010000000000000009 0.74 0.26 0.8 0.19999999999999996 0.77 0.22999999999999998 0.44 0.56 0.83 0.17000000000000004 0.98 0.020000000000000018 0.83 0.17000000000000004 0.34 0.6599999999999999 0.15 0.85 0.45 0.55 0.68 0.31999999999999995 0.5 0.5 0.69 0.31000000000000005 0.13 0.87 0.9 0.09999999999999998 0.29 0.71 0.2 0.8 0.97 0.030000000000000027 0.72 0.28 0.72 0.28 0.98 0.020000000000000018 0.63 0.37 0.81 0.18999999999999995 0.73 0.27 0.12 0.88 0.4 0.6 0.19 0.81 0.52 0.48 0.73 0.27 0.42 0.5800000000000001 0.17 0.83 0.23 0.77 0.41 0.5900000000000001 0.26 0.74 0.65 0.35 0.7 0.30000000000000004</TABLE></DEFINITION><DEFINITION><FOR>N7</FOR><GIVEN>N0</GIVEN><GIVEN>N1</GIVEN><GIVEN>N2</GIVEN><GIVEN>N3</GIVEN><GIVEN>N4</GIVEN><GIVEN>N5</GIVEN><GIVEN>N6</GIVEN><TABLE>0.52 0.48 0.96 0.040000000000000036 0.42 0.5800000000000001 0.94 0.06000000000000005 0.29 0.71 0.28 0.72 0.5 0.5 0.52 0.48 0.88 0.12 0.28 0.72 0.94 0.06000000000000005 0.91 0.08999999999999997 0.91 0.08999999999999997 0.33 0.6699999999999999 0.62 0.38 0.18 0.8200000000000001 0.76 0.24 0.79 0.20999999999999996 0.65 0.35 0.17 0.83 0.42 0.5800000000000001 0.1 0.9 0.82 0.18000000000000005 0.59 0.41000000000000003 0.45 0.55 0.13 0.87 0.3 0.7 0.33 0.6699999999999999 0.59 0.41000000000000003 0.08 0.92 0.16 0.84 0.85 0.15000000000000002 0.3 0.7 0.2 0.8 0.31 0.69 0.43 0.5700000000000001 0.16 0.84 0.68 0.31999999999999995 0.74 0.26 0.7 0.30000000000000004 0.11 0.89 0.7 0.30000000000000004 0.19 0.81 0.11 0.89 0.46 0.54 0.46 0.54 0.31 0.69 0.87 0.13 0.31 0.69 0.24 0.76 0.41 0.5900000000000001 0.17 0.83 0.72 0.28 0.8 0.19999999999999996 0.57 0.43000000000000005 0.76 0.24 0.83 0.17000000000000004 0.1 0.9 0.31 0.69 0.1 0.9 0.34 0.6599999999999999 0.68 0.31999999999999995 0.45 0.55 0.37 0.63 0.07 0.9299999999999999 0.01 0.99 0.25 0.75 0.62 0.38 0.44 0.56 0.53 0.47 0.44 0.56 0.64 0.36 0.95 0.050000000000000044 0.83 0.17000000000000004 0.71 0.29000000000000004 0.38 0.62 0.8 0.19999999999999996 0.46 0.54 0.96 0.040000000000000036 0.52 0.48 0.28 0.72 0.39 0.61 0.46 0.54 0.48 0.52 0.59 0.41000000000000003 0.85 0.15000000000000002 0.41 0.5900000000000001 0.1 0.9 0.54 0.45999999999999996 0.97 0.030000000000000027 0.64 0.36 0.27 0.73 0.01 0.99 0.45 0.55 0.91 0.08999999999999997 0.57 0.43000000000000005 0.67 0.32999999999999996 0.43 0.5700000000000001 0.63 0.37 0.13 0.87 0.81 0.18999999999999995 0.31 0.69 0.39 0.61 0.7 0.30000000000000004 0.23 0.77 0.66 0.33999999999999997 0.98 0.020000000000000018 0.37 0.63 0.48 0.52 0.2 0.8 0.58 0.42000000000000004 0.19 0.81 0.15 0.85 0.52 0.48 0.38 0.62 0.69 0.31000000000000005 0.37 0.63 0.51 0.49 0.31 0.69 0.3 0.7 0.75 0.25 0.8 0.19999999999999996 0.19 0.81 0.01 0.99 0.01 0.99 0.01 0.99 0.6 0.4 0.11 0.89</TABLE></DEFINITION><DEFINITION><FOR>N8</FOR><GIVEN>N0</GIVEN><GIVEN>N1</GIVEN><GIVEN>N2</GIVEN><GIVEN>N3</GIVEN><GIVEN>N4</GIVEN><GIVEN>N5</GIVEN><GIVEN>N6</GIVEN><GIVEN>N7</GIVEN><TABLE>0.42 0.5800000000000001 0.09 0.91 0.34 0.6599999999999999 0.37 0.63 0.16 0.84 0.57 0.43000000000000005 0.14 0.86 0.36 0.64 0.3 0.7 0.88 0.12 0.84 0.16000000000000003 0.68 0.31999999999999995 0.02 0.98 0.18 0.8200000000000001 0.54 0.45999999999999996 0.36 0.64 0.16 0.84 0.7 0.30000000000000004 0.13 0.87 0.54 0.45999999999999996 0.41 0.5900000000000001 0.04 0.96 0.64 0.36 0.9 0.09999999999999998 0.43 0.5700000000000001 0.51 0.49 0.18 0.8200000000000001 0.78 0.21999999999999997 0.69 0.31000000000000005 0.04 0.96 0.5 0.5 0.77 0.22999999999999998 0.18 0.8200000000000001 0.86 0.14 0.63 0.37 0.25 0.75 0.96 0.040000000000000036 0.73 0.27 0.03 0.97 0.83 0.17000000000000004 0.84 0.16000000000000003 0.11 0.89 0.41 0.5900000000000001 0.79 0.20999999999999996 0.59 0.41000000000000003 0.22 0.78 0.5 0.5 0.95 0.050000000000000044 0.12 0.88 0.26 0.74 0.07 0.9299999999999999 0.07 0.9299999999999999 0.73 0.27 0.69 0.31000000000000005 0.84 0.16000000000000003 0.46 0.54 0.75 0.25 0.49 0.51 0.59 0.41000000000000003 0.13 0.87 0.79 0.20999999999999996 0.55 0.44999999999999996 0.9 0.09999999999999998 0.83 0.17000000000000004 0.81 0.18999999999999995 0.9 0.09999999999999998 0.16 0.84 0.36 0.64 0.78 0.21999999999999997 0.96 0.040000000000000036 0.97 0.030000000000000027 0.32 0.6799999999999999 0.78 0.21999999999999997 0.48 0.52 0.24 0.76 0.16 0.84 0.04 0.96 0.06 0.94 0.07 0.9299999999999999 0.28 0.72 0.15 0.85 0.15 0.85 0.85 0.15000000000000002 0.52 0.48 0.46 0.54 0.71 0.29000000000000004 0.43 0.5700000000000001 0.53 0.47 0.54 0.45999999999999996 0.35 0.65 0.76 0.24 0.97 0.030000000000000027 0.96 0.040000000000000036 0.64 0.36 0.2 0.8 0.45 0.55 0.27 0.73 0.14 0.86 0.25 0.75 0.24 0.76 0.16 0.84 0.34 0.6599999999999999 0.96 0.040000000000000036 0.55 0.44999999999999996 0.54 0.45999999999999996 0.92 0.07999999999999996 0.24 0.76 0.47 0.53 0.09 0.91 0.92 0.07999999999999996 0.5 0.5 0.83 0.17000000000000004 0.96 0.040000000000000036 0.11 0.89 0.99 0.010000000000000009 0.55 0.44999999999999996 0.33 0.6699999999999999 0.16 0.84 0.36 0.64 0.56 0.43999999999999995 0.4 0.6 0.64 0.36 0.16 0.84 0.38 0.62 0.4 0.6 0.2 0.8 0.37 0.63 0.29 0.71 0.77 0.22999999999999998 0.84 0.16000000000000003 0.47 0.53 0.23 0.77 0.25 0.75 0.82 0.18000000000000005 0.65 0.35 0.04 0.96 0.66 0.33999999999999997 0.08 0.92 0.94 0.06000000000000005 0.23 0.77 0.92 0.07999999999999996 0.68 0.31999999999999995 0.41 0.5900000000000001 0.58 0.42000000000000004 0.94 0.06000000000000005 0.92 0.07999999999999996 0.33 0.6699999999999999 0.43 0.5700000000000001 0.09 0.91 0.46 0.54 0.9 0.09999999999999998 0.57 0.43000000000000005 0.46 0.54 0.24 0.76 0.56 0.43999999999999995 0.85 0.15000000000000002 0.02 0.98 0.76 0.24 0.95 0.050000000000000044 0.95 0.050000000000000044 0.98 0.020000000000000018 0.01 0.99 0.1 0.9 0.42 0.5800000000000001 0.39 0.61 0.28 0.72 0.54 0.45999999999999996 0.09 0.91 0.08 0.92 0.38 0.62 0.95 0.050000000000000044 0.11 0.89 0.7 0.30000000000000004 0.37 0.63 0.79 0.20999999999999996 0.78 0.21999999999999997 0.04 0.96 0.64 0.36 0.6 0.4 0.47 0.53 0.6 0.4 0.5 0.5 0.94 0.06000000000000005 0.41 0.5900000000000001 0.04 0.96 0.2 0.8 0.81 0.18999999999999995 0.79 0.20999999999999996 0.55 0.44999999999999996 0.22 0.78 0.7 0.30000000000000004 0.92 0.07999999999999996 0.66 0.33999999999999997 0.64 0.36 0.23 0.77 0.97 0.030000000000000027 0.47 0.53 0.31 0.69 0.99 0.010000000000000009 0.52 0.48 0.37 0.63 0.6 0.4 0.34 0.6599999999999999 0.68 0.31999999999999995 0.39 0.61 0.46 0.54 0.92 0.07999999999999996 0.71 0.29000000000000004 0.88 0.12 0.05 0.95 0.94 0.06000000000000005 0.15 0.85 0.98 0.020000000000000018 0.13 0.87 0.92 0.07999999999999996 0.22 0.78 0.34 0.6599999999999999 0.48 0.52 0.3 0.7 0.07 0.9299999999999999 0.34 0.6599999999999999 0.35 0.65 0.36 0.64 0.61 0.39 0.58 0.42000000000000004 0.93 0.06999999999999995 0.17 0.83 0.22 0.78 0.01 0.99 0.86 0.14 0.67 0.32999999999999996 0.87 0.13 0.52 0.48 0.41 0.5900000000000001 0.25 0.75 0.48 0.52 0.99 0.010000000000000009 0.79 0.20999999999999996 0.82 0.18000000000000005 0.16 0.84 0.31 0.69 0.33 0.6699999999999999 0.14 0.86 0.92 0.07999999999999996 0.93 0.06999999999999995 0.21 0.79 0.11 0.89 0.35 0.65 0.31 0.69 0.67 0.32999999999999996 0.52 0.48 0.23 0.77 0.35 0.65 0.74 0.26 0.85 0.15000000000000002 0.77 0.22999999999999998</TABLE></DEFINITION><DEFINITION><FOR>N9</FOR><GIVEN>N0</GIVEN><GIVEN>N1</GIVEN><GIVEN>N2</GIVEN><GIVEN>N3</GIVEN><GIVEN>N4</GIVEN><GIVEN>N5</GIVEN><GIVEN>N6</GIVEN><GIVEN>N7</GIVEN><GIVEN>N8</GIVEN><TABLE>0.27 0.73 0.04 0.96 0.29 0.71 0.04 0.96 0.49 0.51 0.31 0.69 0.94 0.06000000000000005 0.31 0.69 0.97 0.030000000000000027 0.6 0.4 0.94 0.06000000000000005 0.13 0.87 0.97 0.030000000000000027 0.02 0.98 0.27 0.73 0.79 0.20999999999999996 0.68 0.31999999999999995 0.85 0.15000000000000002 0.94 0.06000000000000005 0.79 0.20999999999999996 0.85 0.15000000000000002 0.64 0.36 0.76 0.24 0.25 0.75 0.38 0.62 0.26 0.74 0.26 0.74 0.83 0.17000000000000004 0.44 0.56 0.86 0.14 0.42 0.5800000000000001 0.62 0.38 0.01 0.99 0.93 0.06999999999999995 0.05 0.95 0.35 0.65 0.2 0.8 0.42 0.5800000000000001 0.57 0.43000000000000005 0.05 0.95 0.05 0.95 0.55 0.44999999999999996 0.05 0.95 0.8 0.19999999999999996 0.94 0.06000000000000005 0.95 0.050000000000000044 0.66 0.33999999999999997 0.62 0.38 0.92 0.07999999999999996 0.96 0.040000000000000036 0.77 0.22999999999999998 0.06 0.94 0.61 0.39 0.59 0.41000000000000003 0.28 0.72 0.45 0.55 0.42 0.5800000000000001 0.66 0.33999999999999997 0.07 0.9299999999999999 0.96 0.040000000000000036 0.27 0.73 0.61 0.39 0.55 0.44999999999999996 0.88 0.12 0.5 0.5 0.95 0.050000000000000044 0.37 0.63 0.5 0.5 0.58 0.42000000000000004 0.74 0.26 0.89 0.10999999999999999 0.33 0.6699999999999999 0.47 0.53 0.16 0.84 0.52 0.48 0.61 0.39 0.1 0.9 0.37 0.63 0.03 0.97 0.47 0.53 0.35 0.65 0.81 0.18999999999999995 0.5 0.5 0.24 0.76 0.32 0.6799999999999999 0.78 0.21999999999999997 0.39 0.61 0.06 0.94 0.48 0.52 0.84 0.16000000000000003 0.75 0.25 0.12 0.88 0.6 0.4 0.07 0.9299999999999999 0.22 0.78 0.43 0.5700000000000001 0.16 0.84 0.52 0.48 0.56 0.43999999999999995 0.22 0.78 0.26 0.74 0.82 0.18000000000000005 0.04 0.96 0.73 0.27 0.23 0.77 0.25 0.75 0.23 0.77 0.87 0.13 0.85 0.15000000000000002 0.39 0.61 0.61 0.39 0.58 0.42000000000000004 0.33 0.6699999999999999 0.23 0.77 0.82 0.18000000000000005 0.99 0.010000000000000009 0.76 0.24 0.95 0.050000000000000044 0.93 0.06999999999999995 0.79 0.20999999999999996 0.53 0.47 0.45 0.55 0.42 0.5800000000000001 0.72 0.28 0.9 0.09999999999999998 0.8 0.19999999999999996 0.39 0.61 0.13 0.87 0.26 0.74 0.5 0.5 0.16 0.84 0.46 0.54 0.65 0.35 0.41 0.5900000000000001 0.45 0.55 0.85 0.15000000000000002 0.79 0.20999999999999996 0.96 0.040000000000000036 0.59 0.41000000000000003 0.24 0.76 0.7 0.30000000000000004 0.01 0.99 0.39 0.61 0.62 0.38 0.93 0.06999999999999995 0.35 0.65 0.71 0.29000000000000004 0.92 0.07999999999999996 0.66 0.33999999999999997 0.61 0.39 0.32 0.6799999999999999 0.06 0.94 0.94 0.06000000000000005 0.06 0.94 0.37 0.63 0.7 0.30000000000000004 0.95 0.050000000000000044 0.99 0.010000000000000009 0.34 0.6599999999999999 0.82 0.18000000000000005 0.9 0.09999999999999998 0.58 0.42000000000000004 0.88 0.12 0.95 0.050000000000000044 0.38 0.62 0.39 0.61 0.68 0.31999999999999995 0.38 0.62 0.06 0.94 0.42 0.5800000000000001 0.76 0.24 0.62 0.38 0.4 0.6 0.93 0.06999999999999995 0.54 0.45999999999999996 0.27 0.73 0.52 0.48 0.05 0.95 0.11 0.89 0.9 0.09999999999999998 0.69 0.31000000000000005 0.39 0.61 0.31 0.69 0.22 0.78 0.34 0.6599999999999999 0.41 0.5900000000000001 0.1 0.9 0.28 0.72 0.44 0.56 0.89 0.10999999999999999 0.12 0.88 0.14 0.86 0.07 0.9299999999999999 0.22 0.78 0.71 0.29000000000000004 0.59 0.41000000000000003 0.06 0.94 0.03 0.97 0.91 0.08999999999999997 0.31 0.69 0.37 0.63 0.41 0.5900000000000001 0.23 0.77 0.39 0.61 0.69 0.31000000000000005 0.11 0.89 0.29 0.71 0.22 0.78 0.72 0.28 0.54 0.45999999999999996 0.24 0.76 0.63 0.37 0.11 0.89 0.55 0.44999999999999996 0.83 0.17000000000000004 0.14 0.86 0.88 0.12 0.1 0.9 0.46 0.54 0.69 0.31000000000000005 0.64 0.36 0.28 0.72 0.67 0.32999999999999996 0.97 0.030000000000000027 0.15 0.85 0.24 0.76 0.81 0.18999999999999995 0.57 0.43000000000000005 0.59 0.41000000000000003 0.77 0.22999999999999998 0.03 0.97 0.08 0.92 0.61 0.39 0.91 0.08999999999999997 0.9 0.09999999999999998 0.83 0.17000000000000004 0.49 0.51 0.9 0.09999999999999998 0.96 0.040000000000000036 0.93 0.06999999999999995 0.37 0.63 0.59 0.41000000000000003 0.59 0.41000000000000003 0.48 0.52 0.18 0.8200000000000001 0.76 0.24 0.19 0.81 0.37 0.63 0.27 0.73 0.6 0.4 0.79 0.20999999999999996 0.15 0.85 0.18 0.8200000000000001 0.59 0.41000000000000003 0.18 0.8200000000000001 0.1 0.9 0.61 0.39 0.17 0.83 0.19 0.81 0.05 0.95 0.91 0.08999999999999997 0.59 0.41000000000000003 0.71 0.29000000000000004 0.58 0.42000000000000004 0.76 0.24 0.63 0.37 0.95 0.050000000000000044 0.47 0.53 0.91 0.08999999999999997 0.32 0.6799999999999999 0.76 0.24 0.84 0.16000000000000003 0.77 0.22999999999999998 0.25 0.75 0.91 0.08999999999999997 0.6 0.4 0.71 0.29000000000000004 0.36 0.64 0.81 0.18999999999999995 0.4 0.6 0.37 0.63 0.11 0.89 0.11 0.89 0.95 0.050000000000000044 0.6 0.4 0.35 0.65 0.85 0.15000000000000002 0.03 0.97 0.63 0.37 0.75 0.25 0.58 0.42000000000000004 0.45 0.55 0.2 0.8 0.97 0.030000000000000027 0.17 0.83 0.66 0.33999999999999997 0.85 0.15000000000000002 0.24 0.76 0.26 0.74 0.51 0.49 0.12 0.88 0.43 0.5700000000000001 0.38 0.62 0.67 0.32999999999999996 0.64 0.36 0.47 0.53 0.63 0.37 0.8 0.19999999999999996 0.73 0.27 0.55 0.44999999999999996 0.56 0.43999999999999995 0.87 0.13 0.35 0.65 0.64 0.36 0.6 0.4 0.54 0.45999999999999996 0.54 0.45999999999999996 0.9 0.09999999999999998 0.38 0.62 0.96 0.040000000000000036 0.52 0.48 0.03 0.97 0.65 0.35 0.08 0.92 0.36 0.64 0.94 0.06000000000000005 0.59 0.41000000000000003 0.25 0.75 0.64 0.36 0.26 0.74 0.34 0.6599999999999999 0.37 0.63 0.47 0.53 0.14 0.86 0.31 0.69 0.15 0.85 0.26 0.74 0.19 0.81 0.13 0.87 0.63 0.37 0.11 0.89 0.5 0.5 0.22 0.78 0.71 0.29000000000000004 0.81 0.18999999999999995 0.97 0.030000000000000027 0.8 0.19999999999999996 0.14 0.86 0.09 0.91 0.86 0.14 0.87 0.13 0.76 0.24 0.19 0.81 0.29 0.71 0.15 0.85 0.67 0.32999999999999996 0.89 0.10999999999999999 0.76 0.24 0.89 0.10999999999999999 0.44 0.56 0.21 0.79 0.91 0.08999999999999997 0.73 0.27 0.44 0.56 0.52 0.48 0.27 0.73 0.35 0.65 0.2 0.8 0.41 0.5900000000000001 0.63 0.37 0.94 0.06000000000000005 0.3 0.7 0.79 0.20999999999999996 0.71 0.29000000000000004 0.97 0.030000000000000027 0.69 0.31000000000000005 0.59 0.41000000000000003 0.07 0.9299999999999999 0.94 0.06000000000000005 0.3 0.7 0.92 0.07999999999999996 0.86 0.14 0.5 0.5 0.02 0.98 0.33 0.6699999999999999 0.17 0.83 0.26 0.74 0.83 0.17000000000000004 0.69 0.31000000000000005 0.22 0.78 0.01 0.99 0.33 0.6699999999999999 0.94 0.06000000000000005 0.55 0.44999999999999996 0.34 0.6599999999999999 0.45 0.55 0.49 0.51 0.35 0.65 0.22 0.78 0.84 0.16000000000000003 0.89 0.10999999999999999 0.59 0.41000000000000003 0.85 0.15000000000000002 0.17 0.83 0.27 0.73 0.1 0.9 0.55 0.44999999999999996 0.26 0.74 0.81 0.18999999999999995 0.61 0.39 0.99 0.010000000000000009 0.39 0.61 0.92 0.07999999999999996 0.54 0.45999999999999996 0.4 0.6 0.87 0.13 0.47 0.53 0.49 0.51 0.8 0.19999999999999996 0.59 0.41000000000000003 0.39 0.61 0.4 0.6 0.32 0.6799999999999999 0.6 0.4 0.78 0.21999999999999997 0.7 0.30000000000000004 0.36 0.64 0.14 0.86 0.04 0.96 0.84 0.16000000000000003 0.69 0.31000000000000005 0.51 0.49 0.63 0.37 0.01 0.99 0.09 0.91 0.79 0.20999999999999996 0.86 0.14 0.16 0.84 0.5 0.5 0.87 0.13 0.24 0.76 0.35 0.65 0.84 0.16000000000000003 0.81 0.18999999999999995 0.06 0.94 0.46 0.54 0.42 0.5800000000000001 0.13 0.87 0.11 0.89 0.74 0.26 0.88 0.12 0.98 0.020000000000000018 0.83 0.17000000000000004 0.06 0.94 0.32 0.6799999999999999 0.26 0.74 0.72 0.28 0.4 0.6 0.69 0.31000000000000005 0.78 0.21999999999999997 0.34 0.6599999999999999 0.89 0.10999999999999999 0.35 0.65 0.61 0.39 0.09 0.91 0.64 0.36 0.73 0.27 0.68 0.31999999999999995 0.16 0.84 0.45 0.55 0.83 0.17000000000000004 0.21 0.79 0.27 0.73 0.05 0.95 0.91 0.08999999999999997 0.36 0.64 0.04 0.96 0.71 0.29000000000000004 0.49 0.51 0.06 0.94 0.45 0.55 0.82 0.18000000000000005 0.3 0.7 0.22 0.78 0.16 0.84 0.76 0.24 0.4 0.6 0.02 0.98 0.71 0.29000000000000004 0.53 0.47 0.23 0.77 0.21 0.79 0.51 0.49 0.96 0.040000000000000036 0.73 0.27 0.59 0.41000000000000003 0.14 0.86 0.95 0.050000000000000044 0.9 0.09999999999999998 0.01 0.99 0.83 0.17000000000000004 0.63 0.37 0.52 0.48 0.62 0.38 0.95 0.050000000000000044 0.77 0.22999999999999998 0.39 0.61 0.4 0.6 0.28 0.72 0.68 0.31999999999999995 0.08 0.92 0.59 0.41000000000000003</TABLE></DEFINITION></NETWORK></BIF>