<BIF VERSION="0.3"><NETWORK><NAME>Test10NFNTE</NAME><VARIABLE TYPE="nature"><NAME>N0</NAME><OUTCOME>True</OUTCOME><OUTCOME>False</OUTCOME></VARIABLE><VARIABLE TYPE="nature"><NAME>N1</NAME><OUTCOME>True</OUTCOME><OUTCOME>False</OUTCOME></VARIABLE><VARIABLE TYPE="nature"><NAME>N2</NAME><OUTCOME>True</OUTCOME><OUTCOME>False</OUTCOME></VARIABLE><VARIABLE TYPE="nature"><NAME>N3</NAME><OUTCOME>True</OUTCOME><OUTCOME>False</OUTCOME></VARIABLE><VARIABLE TYPE="nature"><NAME>N4</NAME><OUTCOME>True</OUTCOME><OUTCOME>False</OUTCOME></VARIABLE><VARIABLE TYPE="nature"><NAME>N5</NAME><OUTCOME>True</OUTCOME><OUTCOME>False</OUTCOME></VARIABLE><VARIABLE TYPE="nature"><NAME>N6</NAME><OUTCOME>True</OUTCOME><OUTCOME>False</OUTCOME></VARIABLE><VARIABLE TYPE="nature"><NAME>N7</NAME><OUTCOME>True</OUTCOME><OUTCOME>False</OUTCOME></VARIABLE><VARIABLE TYPE="nature"><NAME>N8</NAME><OUTCOME>True</OUTCOME><OUTCOME>False</OUTCOME></VARIABLE><VARIABLE TYPE="nature"><NAME>N9</NAME><OUTCOME>True</OUTCOME><OUTCOME>False</OUTCOME></VARIABLE><DEFINITION><FOR>N0</FOR><TABLE>0.55 0.44999999999999996</TABLE></DEFINITION><DEFINITION><FOR>N1</FOR><GIVEN>N0</GIVEN><TABLE>0.38 0.62 0.01 0.99</TABLE></DEFINITION><DEFINITION><FOR>N2</FOR><GIVEN>N0</GIVEN><GIVEN>N1</GIVEN><TABLE>0.94 0.06000000000000005 0.9 0.09999999999999998 0.01 0.99 0.38 0.62</TABLE></DEFINITION><DEFINITION><FOR>N3</FOR><GIVEN>N0</GIVEN><GIVEN>N1</GIVEN><GIVEN>N2</GIVEN><TABLE>0.99 0.010000000000000009 0.52 0.48 0.72 0.28 0.48 0.52 0.43 0.5700000000000001 0.03 0.97 0.44 0.56 0.42 0.5800000000000001</TABLE></DEFINITION><DEFINITION><FOR>N4</FOR><GIVEN>N0</GIVEN><GIVEN>N1</GIVEN><GIVEN>N2</GIVEN><GIVEN>N3</GIVEN><TABLE>0.06 0.94 0.01 0.99 0.7 0.30000000000000004 0.65 0.35 0.83 0.17000000000000004 0.64 0.36 0.74 0.26 0.13 0.87 0.94 0.06000000000000005 0.32 0.6799999999999999 0.63 0.37 0.14 0.86 0.33 0.6699999999999999 0.69 0.31000000000000005 0.06 0.94 0.64 0.36</TABLE></DEFINITION><DEFINITION><FOR>N5</FOR><GIVEN>N0</GIVEN><GIVEN>N1</GIVEN><GIVEN>N2</GIVEN><GIVEN>N3</GIVEN><GIVEN>N4</GIVEN><TABLE>0.44 0.56 0.66 0.33999999999999997 0.1 0.9 0.78 0.21999999999999997 0.08 0.92 0.19 0.81 0.83 0.17000000000000004 0.44 0.56 0.89 0.10999999999999999 0.96 0.040000000000000036 0.95 0.050000000000000044 0.5 0.5 0.87 0.13 0.95 0.050000000000000044 0.96 0.040000000000000036 0.46 0.54 0.36 0.64 0.21 0.79 0.27 0.73 0.62 0.38 0.24 0.76 0.4 0.6 0.93 0.06999999999999995 0.32 0.6799999999999999 0.04 0.96 0.89 0.10999999999999999 0.25 0.75 0.58 0.42000000000000004 0.4 0.6 0.97 0.030000000000000027 0.15 0.85 0.79 0.20999999999999996</TABLE></DEFINITION><DEFINITION><FOR>N6</FOR><GIVEN>N0</GIVEN><GIVEN>N1</GIVEN><GIVEN>N2</GIVEN><GIVEN>N3</GIVEN><GIVEN>N4</GIVEN><GIVEN>N5</GIVEN><TABLE>0.19 0.81 0.5 0.5 0.09 0.91 0.46 0.54 0.74 0.26 0.69 0.31000000000000005 0.4 0.6 0.38 0.62 0.16 0.84 0.9 0.09999999999999998 0.31 0.69 0.1 0.9 0.6 0.4 0.57 0.43000000000000005 0.97 0.030000000000000027 0.1 0.9 0.01 0.99 0.77 0.22999999999999998 0.74 0.26 0.22 0.78 0.32 0.6799999999999999 0.97 0.030000000000000027 0.36 0.64 0.24 0.76 0.75 0.25 0.3 0.7 0.66 0.33999999999999997 0.79 0.20999999999999996 0.22 0.78 0.74 0.26 0.64 0.36 0.54 0.45999999999999996 0.01 0.99 0.22 0.78 0.36 0.64 0.41 0.5900000000000001 0.37 0.63 0.65 0.35 0.62 0.38 0.91 0.08999999999999997 0.44 0.56 0.23 0.77 0.81 0.18999999999999995 0.16 0.84 0.49 0.51 0.72 0.28 0.45 0.55 0.08 0.92 0.22 0.78 0.17 0.83 0.2 0.8 0.2 0.8 0.27 0.73 0.57 0.43000000000000005 0.28 0.72 0.42 0.5800000000000001 0.12 0.88 0.95 0.050000000000000044 0.45 0.55 0.96 0.040000000000000036 0.69 0.31000000000000005 0.06 0.94 0.19 0.81 0.91 0.08999999999999997</TABLE></DEFINITION><DEFINITION><FOR>N7</FOR><GIVEN>N0</GIVEN><GIVEN>N1</GIVEN><GIVEN>N2</GIVEN><GIVEN>N3</GIVEN><GIVEN>N4</GIVEN><GIVEN>N5</GIVEN><GIVEN>N6</GIVEN><TABLE>0.42 0.5800000000000001 0.49 0.51 0.25 0.75 0.48 0.52 0.24 0.76 0.08 0.92 0.28 0.72 0.88 0.12 0.06 0.94 0.67 0.32999999999999996 0.29 0.71 0.37 0.63 0.78 0.21999999999999997 0.46 0.54 0.02 0.98 0.85 0.15000000000000002 0.52 0.48 0.99 0.010000000000000009 0.01 0.99 0.84 0.16000000000000003 0.18 0.8200000000000001 0.15 0.85 0.79 0.20999999999999996 0.17 0.83 0.07 0.9299999999999999 0.14 0.86 0.39 0.61 0.78 0.21999999999999997 0.52 0.48 0.36 0.64 0.18 0.8200000000000001 0.56 0.43999999999999995 0.51 0.49 0.94 0.06000000000000005 0.29 0.71 0.43 0.5700000000000001 0.17 0.83 0.01 0.99 0.7 0.30000000000000004 0.89 0.10999999999999999 0.89 0.10999999999999999 0.75 0.25 0.94 0.06000000000000005 0.6 0.4 0.98 0.020000000000000018 0.59 0.41000000000000003 0.07 0.9299999999999999 0.28 0.72 0.92 0.07999999999999996 0.77 0.22999999999999998 0.68 0.31999999999999995 0.56 0.43999999999999995 0.57 0.43000000000000005 0.58 0.42000000000000004 0.49 0.51 0.87 0.13 0.5 0.5 0.64 0.36 0.19 0.81 0.63 0.37 0.98 0.020000000000000018 0.63 0.37 0.79 0.20999999999999996 0.92 0.07999999999999996 0.11 0.89 0.45 0.55 0.8 0.19999999999999996 0.71 0.29000000000000004 0.69 0.31000000000000005 0.11 0.89 0.02 0.98 0.54 0.45999999999999996 0.63 0.37 0.54 0.45999999999999996 0.89 0.10999999999999999 0.52 0.48 0.22 0.78 0.97 0.030000000000000027 0.78 0.21999999999999997 0.5 0.5 0.57 0.43000000000000005 0.3 0.7 0.35 0.65 0.91 0.08999999999999997 0.13 0.87 0.94 0.06000000000000005 0.99 0.010000000000000009 0.54 0.45999999999999996 0.69 0.31000000000000005 0.35 0.65 0.79 0.20999999999999996 0.05 0.95 0.43 0.5700000000000001 0.59 0.41000000000000003 0.44 0.56 0.54 0.45999999999999996 0.98 0.020000000000000018 0.01 0.99 0.32 0.6799999999999999 0.48 0.52 0.79 0.20999999999999996 0.38 0.62 0.16 0.84 0.68 0.31999999999999995 0.22 0.78 0.19 0.81 0.79 0.20999999999999996 0.43 0.5700000000000001 0.52 0.48 0.7 0.30000000000000004 0.53 0.47 0.01 0.99 0.55 0.44999999999999996 0.13 0.87 0.97 0.030000000000000027 0.3 0.7 0.87 0.13 0.71 0.29000000000000004 0.81 0.18999999999999995 0.92 0.07999999999999996 0.11 0.89 0.38 0.62 0.24 0.76 0.94 0.06000000000000005 0.28 0.72 0.73 0.27 0.96 0.040000000000000036 0.92 0.07999999999999996</TABLE></DEFINITION><DEFINITION><FOR>N8</FOR><GIVEN>N0</GIVEN><GIVEN>N1</GIVEN><GIVEN>N2</GIVEN><GIVEN>N3</GIVEN><GIVEN>N4</GIVEN><GIVEN>N5</GIVEN><GIVEN>N6</GIVEN><GIVEN>N7</GIVEN><TABLE>0.13 0.87 0.77 0.22999999999999998 0.63 0.37 0.93 0.06999999999999995 0.78 0.21999999999999997 0.41 0.5900000000000001 0.66 0.33999999999999997 0.39 0.61 0.19 0.81 0.73 0.27 0.83 0.17000000000000004 0.97 0.030000000000000027 0.9 0.09999999999999998 0.97 0.030000000000000027 0.99 0.010000000000000009 0.35 0.65 0.52 0.48 0.25 0.75 0.85 0.15000000000000002 0.47 0.53 0.92 0.07999999999999996 0.57 0.43000000000000005 0.41 0.5900000000000001 0.9 0.09999999999999998 0.13 0.87 0.49 0.51 0.04 0.96 0.4 0.6 0.14 0.86 0.5 0.5 0.4 0.6 0.43 0.5700000000000001 0.32 0.6799999999999999 0.39 0.61 0.29 0.71 0.98 0.020000000000000018 0.32 0.6799999999999999 0.26 0.74 0.05 0.95 0.71 0.29000000000000004 0.21 0.79 0.28 0.72 0.29 0.71 0.74 0.26 0.78 0.21999999999999997 0.91 0.08999999999999997 0.4 0.6 0.35 0.65 0.17 0.83 0.38 0.62 0.42 0.5800000000000001 0.54 0.45999999999999996 0.17 0.83 0.06 0.94 0.86 0.14 0.43 0.5700000000000001 0.3 0.7 0.4 0.6 0.29 0.71 0.68 0.31999999999999995 0.27 0.73 0.84 0.16000000000000003 0.72 0.28 0.55 0.44999999999999996 0.69 0.31000000000000005 0.44 0.56 0.47 0.53 0.51 0.49 0.31 0.69 0.67 0.32999999999999996 0.91 0.08999999999999997 0.17 0.83 0.4 0.6 0.78 0.21999999999999997 0.71 0.29000000000000004 0.28 0.72 0.51 0.49 0.32 0.6799999999999999 0.58 0.42000000000000004 0.92 0.07999999999999996 0.67 0.32999999999999996 0.13 0.87 0.25 0.75 0.29 0.71 0.85 0.15000000000000002 0.26 0.74 0.19 0.81 0.38 0.62 0.44 0.56 0.51 0.49 0.13 0.87 0.22 0.78 0.72 0.28 0.48 0.52 0.36 0.64 0.53 0.47 0.1 0.9 0.67 0.32999999999999996 0.94 0.06000000000000005 0.42 0.5800000000000001 0.94 0.06000000000000005 0.15 0.85 0.07 0.9299999999999999 0.96 0.040000000000000036 0.43 0.5700000000000001 0.18 0.8200000000000001 0.93 0.06999999999999995 0.6 0.4 0.66 0.33999999999999997 0.44 0.56 0.79 0.20999999999999996 0.28 0.72 0.31 0.69 0.74 0.26 0.62 0.38 0.57 0.43000000000000005 0.21 0.79 0.71 0.29000000000000004 0.34 0.6599999999999999 0.19 0.81 0.93 0.06999999999999995 0.88 0.12 0.46 0.54 0.71 0.29000000000000004 0.8 0.19999999999999996 0.05 0.95 0.7 0.30000000000000004 0.08 0.92 0.44 0.56 0.47 0.53 0.59 0.41000000000000003 0.74 0.26 0.02 0.98 0.49 0.51 0.94 0.06000000000000005 0.55 0.44999999999999996 0.88 0.12 0.17 0.83 0.69 0.31000000000000005 0.28 0.72 0.76 0.24 0.39 0.61 0.49 0.51 0.61 0.39 0.98 0.020000000000000018 0.23 0.77 0.74 0.26 0.31 0.69 0.91 0.08999999999999997 0.44 0.56 0.32 0.6799999999999999 0.11 0.89 0.65 0.35 0.76 0.24 0.02 0.98 0.35 0.65 0.67 0.32999999999999996 0.59 0.41000000000000003 0.36 0.64 0.27 0.73 0.86 0.14 0.97 0.030000000000000027 0.91 0.08999999999999997 0.21 0.79 0.24 0.76 0.93 0.06999999999999995 0.15 0.85 0.25 0.75 0.8 0.19999999999999996 0.76 0.24 0.75 0.25 0.69 0.31000000000000005 0.46 0.54 0.19 0.81 0.51 0.49 0.58 0.42000000000000004 0.76 0.24 0.5 0.5 0.22 0.78 0.85 0.15000000000000002 0.8 0.19999999999999996 0.14 0.86 0.31 0.69 0.26 0.74 0.87 0.13 0.1 0.9 0.6 0.4 0.6 0.4 0.33 0.6699999999999999 0.42 0.5800000000000001 0.83 0.17000000000000004 0.04 0.96 0.71 0.29000000000000004 0.35 0.65 0.44 0.56 0.29 0.71 0.67 0.32999999999999996 0.05 0.95 0.32 0.6799999999999999 0.3 0.7 0.35 0.65 0.03 0.97 0.75 0.25 0.38 0.62 0.81 0.18999999999999995 0.41 0.5900000000000001 0.96 0.040000000000000036 0.3 0.7 0.07 0.9299999999999999 0.31 0.69 0.46 0.54 0.8 0.19999999999999996 0.44 0.56 0.71 0.29000000000000004 0.33 0.6699999999999999 0.91 0.08999999999999997 0.38 0.62 0.04 0.96 0.68 0.31999999999999995 0.79 0.20999999999999996 0.22 0.78 0.55 0.44999999999999996 0.54 0.45999999999999996 0.94 0.06000000000000005 0.32 0.6799999999999999 0.55 0.44999999999999996 0.89 0.10999999999999999 0.55 0.44999999999999996 0.22 0.78 0.95 0.050000000000000044 0.9 0.09999999999999998 0.42 0.5800000000000001 0.34 0.6599999999999999 0.48 0.52 0.21 0.79 0.24 0.76 0.94 0.06000000000000005 0.33 0.6699999999999999 0.09 0.91 0.77 0.22999999999999998 0.76 0.24 0.27 0.73 0.89 0.10999999999999999 0.51 0.49 0.02 0.98 0.11 0.89 0.79 0.20999999999999996 0.35 0.65 0.89 0.10999999999999999 0.86 0.14 0.56 0.43999999999999995 0.9 0.09999999999999998 0.55 0.44999999999999996 0.91 0.08999999999999997 0.17 0.83 0.28 0.72</TABLE></DEFINITION><DEFINITION><FOR>N9</FOR><GIVEN>N0</GIVEN><GIVEN>N1</GIVEN><GIVEN>N2</GIVEN><GIVEN>N3</GIVEN><GIVEN>N4</GIVEN><GIVEN>N5</GIVEN><GIVEN>N6</GIVEN><GIVEN>N7</GIVEN><GIVEN>N8</GIVEN><TABLE>0.75 0.25 0.03 0.97 0.88 0.12 0.66 0.33999999999999997 0.49 0.51 0.31 0.69 0.55 0.44999999999999996 0.13 0.87 0.68 0.31999999999999995 0.97 0.030000000000000027 0.96 0.040000000000000036 0.31 0.69 0.68 0.31999999999999995 0.4 0.6 0.74 0.26 0.27 0.73 0.64 0.36 0.22 0.78 0.04 0.96 0.37 0.63 0.49 0.51 0.68 0.31999999999999995 0.05 0.95 0.1 0.9 0.6 0.4 0.5 0.5 0.04 0.96 0.27 0.73 0.41 0.5900000000000001 0.83 0.17000000000000004 0.08 0.92 0.61 0.39 0.15 0.85 0.84 0.16000000000000003 0.78 0.21999999999999997 0.01 0.99 0.32 0.6799999999999999 0.93 0.06999999999999995 0.68 0.31999999999999995 0.6 0.4 0.09 0.91 0.6 0.4 0.12 0.88 0.02 0.98 0.46 0.54 0.29 0.71 0.75 0.25 0.03 0.97 0.72 0.28 0.91 0.08999999999999997 0.94 0.06000000000000005 0.6 0.4 0.93 0.06999999999999995 0.66 0.33999999999999997 0.99 0.010000000000000009 0.6 0.4 0.19 0.81 0.18 0.8200000000000001 0.53 0.47 0.9 0.09999999999999998 0.57 0.43000000000000005 0.98 0.020000000000000018 0.91 0.08999999999999997 0.27 0.73 0.99 0.010000000000000009 0.27 0.73 0.43 0.5700000000000001 0.88 0.12 0.81 0.18999999999999995 0.71 0.29000000000000004 0.86 0.14 0.91 0.08999999999999997 0.04 0.96 0.39 0.61 0.99 0.010000000000000009 0.33 0.6699999999999999 0.84 0.16000000000000003 0.43 0.5700000000000001 0.12 0.88 0.72 0.28 0.6 0.4 0.35 0.65 0.46 0.54 0.14 0.86 0.22 0.78 0.68 0.31999999999999995 0.84 0.16000000000000003 0.56 0.43999999999999995 0.35 0.65 0.03 0.97 0.98 0.020000000000000018 0.33 0.6699999999999999 0.76 0.24 0.59 0.41000000000000003 0.3 0.7 0.44 0.56 0.74 0.26 0.22 0.78 0.76 0.24 0.88 0.12 0.04 0.96 0.48 0.52 0.62 0.38 0.3 0.7 0.1 0.9 0.92 0.07999999999999996 0.61 0.39 0.52 0.48 0.02 0.98 0.82 0.18000000000000005 0.9 0.09999999999999998 0.78 0.21999999999999997 0.59 0.41000000000000003 0.37 0.63 0.62 0.38 0.84 0.16000000000000003 0.93 0.06999999999999995 0.04 0.96 0.54 0.45999999999999996 0.35 0.65 0.87 0.13 0.28 0.72 0.49 0.51 0.94 0.06000000000000005 0.34 0.6599999999999999 0.2 0.8 0.11 0.89 0.6 0.4 0.21 0.79 0.21 0.79 0.59 0.41000000000000003 0.2 0.8 0.43 0.5700000000000001 0.83 0.17000000000000004 0.59 0.41000000000000003 0.69 0.31000000000000005 0.01 0.99 0.7 0.30000000000000004 0.01 0.99 0.99 0.010000000000000009 0.34 0.6599999999999999 0.61 0.39 0.53 0.47 0.09 0.91 0.15 0.85 0.36 0.64 0.66 0.33999999999999997 0.33 0.6699999999999999 0.83 0.17000000000000004 0.95 0.050000000000000044 0.6 0.4 0.01 0.99 0.43 0.5700000000000001 0.33 0.6699999999999999 0.24 0.76 0.66 0.33999999999999997 0.05 0.95 0.25 0.75 0.13 0.87 0.89 0.10999999999999999 0.86 0.14 0.77 0.22999999999999998 0.34 0.6599999999999999 0.23 0.77 0.51 0.49 0.31 0.69 0.22 0.78 0.08 0.92 0.03 0.97 0.76 0.24 0.66 0.33999999999999997 0.09 0.91 0.67 0.32999999999999996 0.33 0.6699999999999999 0.6 0.4 0.49 0.51 0.56 0.43999999999999995 0.27 0.73 0.25 0.75 0.26 0.74 0.61 0.39 0.13 0.87 0.16 0.84 0.04 0.96 0.33 0.6699999999999999 0.78 0.21999999999999997 0.57 0.43000000000000005 0.42 0.5800000000000001 0.92 0.07999999999999996 0.03 0.97 0.92 0.07999999999999996 0.5 0.5 0.53 0.47 0.06 0.94 0.12 0.88 0.66 0.33999999999999997 0.06 0.94 0.3 0.7 0.14 0.86 0.07 0.9299999999999999 0.15 0.85 0.32 0.6799999999999999 0.26 0.74 0.56 0.43999999999999995 0.33 0.6699999999999999 0.65 0.35 0.58 0.42000000000000004 0.59 0.41000000000000003 0.37 0.63 0.34 0.6599999999999999 0.43 0.5700000000000001 0.77 0.22999999999999998 0.91 0.08999999999999997 0.4 0.6 0.67 0.32999999999999996 0.88 0.12 0.23 0.77 0.23 0.77 0.66 0.33999999999999997 0.23 0.77 0.89 0.10999999999999999 0.94 0.06000000000000005 0.73 0.27 0.56 0.43999999999999995 0.96 0.040000000000000036 0.51 0.49 0.95 0.050000000000000044 0.06 0.94 0.66 0.33999999999999997 0.16 0.84 0.78 0.21999999999999997 0.82 0.18000000000000005 0.91 0.08999999999999997 0.08 0.92 0.07 0.9299999999999999 0.76 0.24 0.05 0.95 0.19 0.81 0.39 0.61 0.32 0.6799999999999999 0.14 0.86 0.64 0.36 0.59 0.41000000000000003 0.32 0.6799999999999999 0.11 0.89 0.65 0.35 0.35 0.65 0.93 0.06999999999999995 0.78 0.21999999999999997 0.94 0.06000000000000005 0.81 0.18999999999999995 0.58 0.42000000000000004 0.58 0.42000000000000004 0.17 0.83 0.95 0.050000000000000044 0.21 0.79 0.02 0.98 0.5 0.5 0.09 0.91 0.67 0.32999999999999996 0.02 0.98 0.27 0.73 0.82 0.18000000000000005 0.4 0.6 0.08 0.92 0.38 0.62 0.19 0.81 0.39 0.61 0.06 0.94 0.34 0.6599999999999999 0.82 0.18000000000000005 0.08 0.92 0.55 0.44999999999999996 0.38 0.62 0.27 0.73 0.33 0.6699999999999999 0.15 0.85 0.15 0.85 0.11 0.89 0.01 0.99 0.61 0.39 0.29 0.71 0.82 0.18000000000000005 0.95 0.050000000000000044 0.59 0.41000000000000003 0.65 0.35 0.92 0.07999999999999996 0.09 0.91 0.75 0.25 0.69 0.31000000000000005 0.01 0.99 0.93 0.06999999999999995 0.82 0.18000000000000005 0.4 0.6 0.99 0.010000000000000009 0.83 0.17000000000000004 0.65 0.35 0.13 0.87 0.27 0.73 0.81 0.18999999999999995 0.03 0.97 0.98 0.020000000000000018 0.23 0.77 0.8 0.19999999999999996 0.37 0.63 0.7 0.30000000000000004 0.26 0.74 0.51 0.49 0.65 0.35 0.39 0.61 0.13 0.87 0.52 0.48 0.73 0.27 0.95 0.050000000000000044 0.59 0.41000000000000003 0.6 0.4 0.16 0.84 0.51 0.49 0.99 0.010000000000000009 0.03 0.97 0.37 0.63 0.65 0.35 0.82 0.18000000000000005 0.36 0.64 0.73 0.27 0.49 0.51 0.63 0.37 0.5 0.5 0.18 0.8200000000000001 0.07 0.9299999999999999 0.48 0.52 0.11 0.89 0.38 0.62 0.02 0.98 0.35 0.65 0.83 0.17000000000000004 0.52 0.48 0.42 0.5800000000000001 0.99 0.010000000000000009 0.56 0.43999999999999995 0.93 0.06999999999999995 0.43 0.5700000000000001 0.49 0.51 0.37 0.63 0.28 0.72 0.66 0.33999999999999997 0.69 0.31000000000000005 0.97 0.030000000000000027 0.88 0.12 0.81 0.18999999999999995 0.35 0.65 0.26 0.74 0.97 0.030000000000000027 0.04 0.96 0.68 0.31999999999999995 0.72 0.28 0.39 0.61 0.43 0.5700000000000001 0.67 0.32999999999999996 0.77 0.22999999999999998 0.85 0.15000000000000002 0.89 0.10999999999999999 0.24 0.76 0.56 0.43999999999999995 0.19 0.81 0.86 0.14 0.81 0.18999999999999995 0.65 0.35 0.35 0.65 0.28 0.72 0.48 0.52 0.03 0.97 0.37 0.63 0.44 0.56 0.26 0.74 0.18 0.8200000000000001 0.42 0.5800000000000001 0.66 0.33999999999999997 0.62 0.38 0.11 0.89 0.68 0.31999999999999995 0.46 0.54 0.82 0.18000000000000005 0.86 0.14 0.67 0.32999999999999996 0.97 0.030000000000000027 0.74 0.26 0.66 0.33999999999999997 0.74 0.26 0.14 0.86 0.65 0.35 0.74 0.26 0.51 0.49 0.05 0.95 0.62 0.38 0.6 0.4 0.28 0.72 0.77 0.22999999999999998 0.35 0.65 0.05 0.95 0.39 0.61 0.1 0.9 0.38 0.62 0.07 0.9299999999999999 0.39 0.61 0.47 0.53 0.49 0.51 0.27 0.73 0.73 0.27 0.43 0.5700000000000001 0.73 0.27 0.21 0.79 0.87 0.13 0.04 0.96 0.73 0.27 0.32 0.6799999999999999 0.92 0.07999999999999996 0.59 0.41000000000000003 0.53 0.47 0.59 0.41000000000000003 0.9 0.09999999999999998 0.98 0.020000000000000018 0.27 0.73 0.7 0.30000000000000004 0.97 0.030000000000000027 0.2 0.8 0.58 0.42000000000000004 0.87 0.13 0.81 0.18999999999999995 0.69 0.31000000000000005 0.1 0.9 0.15 0.85 0.13 0.87 0.89 0.10999999999999999 0.1 0.9 0.98 0.020000000000000018 0.5 0.5 0.21 0.79 0.66 0.33999999999999997 0.73 0.27 0.87 0.13 0.77 0.22999999999999998 0.67 0.32999999999999996 0.65 0.35 0.95 0.050000000000000044 0.28 0.72 0.13 0.87 0.63 0.37 0.81 0.18999999999999995 0.84 0.16000000000000003 0.36 0.64 0.26 0.74 0.98 0.020000000000000018 0.96 0.040000000000000036 0.77 0.22999999999999998 0.4 0.6 0.08 0.92 0.06 0.94 0.16 0.84 0.36 0.64 0.21 0.79 0.05 0.95 0.82 0.18000000000000005 0.27 0.73 0.38 0.62 0.8 0.19999999999999996 0.36 0.64 0.09 0.91 0.99 0.010000000000000009 0.56 0.43999999999999995 0.63 0.37 0.01 0.99 0.06 0.94 0.87 0.13 0.93 0.06999999999999995 0.36 0.64 0.62 0.38 0.96 0.040000000000000036 0.52 0.48 0.12 0.88 0.45 0.55 0.23 0.77 0.08 0.92 0.52 0.48 0.97 0.030000000000000027 0.51 0.49 0.63 0.37 0.12 0.88 0.43 0.5700000000000001 0.03 0.97 0.18 0.8200000000000001 0.37 0.63 0.13 0.87 0.69 0.31000000000000005 0.49 0.51 0.7 0.30000000000000004 0.63 0.37 0.73 0.27 0.38 0.62 0.77 0.22999999999999998 0.23 0.77 0.7 0.30000000000000004 0.83 0.17000000000000004 0.37 0.63 0.51 0.49 0.31 0.69 0.47 0.53 0.87 0.13 0.65 0.35 0.02 0.98 0.53 0.47 0.11 0.89</TABLE></DEFINITION></NETWORK></BIF>