<BIF VERSION="0.3"><NETWORK><NAME>Test10NFNTE</NAME><VARIABLE TYPE="nature"><NAME>N0</NAME><OUTCOME>True</OUTCOME><OUTCOME>False</OUTCOME></VARIABLE><VARIABLE TYPE="nature"><NAME>N1</NAME><OUTCOME>True</OUTCOME><OUTCOME>False</OUTCOME></VARIABLE><VARIABLE TYPE="nature"><NAME>N2</NAME><OUTCOME>True</OUTCOME><OUTCOME>False</OUTCOME></VARIABLE><VARIABLE TYPE="nature"><NAME>N3</NAME><OUTCOME>True</OUTCOME><OUTCOME>False</OUTCOME></VARIABLE><VARIABLE TYPE="nature"><NAME>N4</NAME><OUTCOME>True</OUTCOME><OUTCOME>False</OUTCOME></VARIABLE><VARIABLE TYPE="nature"><NAME>N5</NAME><OUTCOME>True</OUTCOME><OUTCOME>False</OUTCOME></VARIABLE><VARIABLE TYPE="nature"><NAME>N6</NAME><OUTCOME>True</OUTCOME><OUTCOME>False</OUTCOME></VARIABLE><VARIABLE TYPE="nature"><NAME>N7</NAME><OUTCOME>True</OUTCOME><OUTCOME>False</OUTCOME></VARIABLE><VARIABLE TYPE="nature"><NAME>N8</NAME><OUTCOME>True</OUTCOME><OUTCOME>False</OUTCOME></VARIABLE><VARIABLE TYPE="nature"><NAME>N9</NAME><OUTCOME>True</OUTCOME><OUTCOME>False</OUTCOME></VARIABLE><DEFINITION><FOR>N0</FOR><TABLE>0.69 0.31000000000000005</TABLE></DEFINITION><DEFINITION><FOR>N1</FOR><GIVEN>N0</GIVEN><TABLE>0.32 0.6799999999999999 0.86 0.14</TABLE></DEFINITION><DEFINITION><FOR>N2</FOR><GIVEN>N0</GIVEN><GIVEN>N1</GIVEN><TABLE>0.9 0.09999999999999998 0.36 0.64 0.24 0.76 0.58 0.42000000000000004</TABLE></DEFINITION><DEFINITION><FOR>N3</FOR><GIVEN>N0</GIVEN><GIVEN>N1</GIVEN><GIVEN>N2</GIVEN><TABLE>0.01 0.99 0.69 0.31000000000000005 0.81 0.18999999999999995 0.78 0.21999999999999997 0.88 0.12 0.83 0.17000000000000004 0.95 0.050000000000000044 0.9 0.09999999999999998</TABLE></DEFINITION><DEFINITION><FOR>N4</FOR><GIVEN>N0</GIVEN><GIVEN>N1</GIVEN><GIVEN>N2</GIVEN><GIVEN>N3</GIVEN><TABLE>0.96 0.040000000000000036 0.08 0.92 0.56 0.43999999999999995 0.25 0.75 0.41 0.5900000000000001 0.43 0.5700000000000001 0.8 0.19999999999999996 0.96 0.040000000000000036 0.93 0.06999999999999995 0.39 0.61 0.56 0.43999999999999995 0.99 0.010000000000000009 0.16 0.84 0.69 0.31000000000000005 0.89 0.10999999999999999 0.97 0.030000000000000027</TABLE></DEFINITION><DEFINITION><FOR>N5</FOR><GIVEN>N0</GIVEN><GIVEN>N1</GIVEN><GIVEN>N2</GIVEN><GIVEN>N3</GIVEN><GIVEN>N4</GIVEN><TABLE>0.22 0.78 0.18 0.8200000000000001 0.99 0.010000000000000009 0.61 0.39 0.09 0.91 0.69 0.31000000000000005 0.85 0.15000000000000002 0.86 0.14 0.22 0.78 0.49 0.51 0.86 0.14 0.7 0.30000000000000004 0.57 0.43000000000000005 0.19 0.81 0.3 0.7 0.68 0.31999999999999995 0.98 0.020000000000000018 0.08 0.92 0.34 0.6599999999999999 0.73 0.27 0.25 0.75 0.94 0.06000000000000005 0.92 0.07999999999999996 0.71 0.29000000000000004 0.13 0.87 0.14 0.86 0.93 0.06999999999999995 0.11 0.89 0.32 0.6799999999999999 0.21 0.79 0.35 0.65 0.23 0.77</TABLE></DEFINITION><DEFINITION><FOR>N6</FOR><GIVEN>N0</GIVEN><GIVEN>N1</GIVEN><GIVEN>N2</GIVEN><GIVEN>N3</GIVEN><GIVEN>N4</GIVEN><GIVEN>N5</GIVEN><TABLE>0.82 0.18000000000000005 0.83 0.17000000000000004 0.7 0.30000000000000004 0.46 0.54 0.3 0.7 0.12 0.88 0.13 0.87 0.48 0.52 0.57 0.43000000000000005 0.41 0.5900000000000001 0.48 0.52 0.12 0.88 0.43 0.5700000000000001 0.63 0.37 0.34 0.6599999999999999 0.74 0.26 0.75 0.25 0.65 0.35 0.42 0.5800000000000001 0.55 0.44999999999999996 0.9 0.09999999999999998 0.18 0.8200000000000001 0.73 0.27 0.79 0.20999999999999996 0.35 0.65 0.8 0.19999999999999996 0.15 0.85 0.5 0.5 0.26 0.74 0.65 0.35 0.76 0.24 0.14 0.86 0.96 0.040000000000000036 0.41 0.5900000000000001 0.93 0.06999999999999995 0.59 0.41000000000000003 0.75 0.25 0.74 0.26 0.28 0.72 0.83 0.17000000000000004 0.36 0.64 0.77 0.22999999999999998 0.19 0.81 0.44 0.56 0.58 0.42000000000000004 0.81 0.18999999999999995 0.23 0.77 0.82 0.18000000000000005 0.89 0.10999999999999999 0.9 0.09999999999999998 0.11 0.89 0.53 0.47 0.54 0.45999999999999996 0.45 0.55 0.73 0.27 0.39 0.61 0.84 0.16000000000000003 0.41 0.5900000000000001 0.5 0.5 0.02 0.98 0.84 0.16000000000000003 0.17 0.83 0.82 0.18000000000000005 0.58 0.42000000000000004</TABLE></DEFINITION><DEFINITION><FOR>N7</FOR><GIVEN>N0</GIVEN><GIVEN>N1</GIVEN><GIVEN>N2</GIVEN><GIVEN>N3</GIVEN><GIVEN>N4</GIVEN><GIVEN>N5</GIVEN><GIVEN>N6</GIVEN><TABLE>0.96 0.040000000000000036 0.89 0.10999999999999999 0.92 0.07999999999999996 0.63 0.37 0.68 0.31999999999999995 0.54 0.45999999999999996 0.33 0.6699999999999999 0.89 0.10999999999999999 0.63 0.37 0.77 0.22999999999999998 0.02 0.98 0.55 0.44999999999999996 0.97 0.030000000000000027 0.81 0.18999999999999995 0.8 0.19999999999999996 0.66 0.33999999999999997 0.16 0.84 0.88 0.12 0.53 0.47 0.79 0.20999999999999996 0.21 0.79 0.93 0.06999999999999995 0.71 0.29000000000000004 0.06 0.94 0.32 0.6799999999999999 0.06 0.94 0.98 0.020000000000000018 0.57 0.43000000000000005 0.88 0.12 0.22 0.78 0.6 0.4 0.25 0.75 0.34 0.6599999999999999 0.76 0.24 0.92 0.07999999999999996 0.33 0.6699999999999999 0.41 0.5900000000000001 0.57 0.43000000000000005 0.76 0.24 0.59 0.41000000000000003 0.06 0.94 0.82 0.18000000000000005 0.49 0.51 0.66 0.33999999999999997 0.45 0.55 0.54 0.45999999999999996 0.2 0.8 0.5 0.5 0.87 0.13 0.46 0.54 0.28 0.72 0.22 0.78 0.51 0.49 0.71 0.29000000000000004 0.27 0.73 0.83 0.17000000000000004 0.05 0.95 0.9 0.09999999999999998 0.79 0.20999999999999996 0.46 0.54 0.99 0.010000000000000009 0.9 0.09999999999999998 0.96 0.040000000000000036 0.26 0.74 0.44 0.56 0.91 0.08999999999999997 0.71 0.29000000000000004 0.7 0.30000000000000004 0.72 0.28 0.78 0.21999999999999997 0.18 0.8200000000000001 0.25 0.75 0.58 0.42000000000000004 0.56 0.43999999999999995 0.5 0.5 0.03 0.97 0.46 0.54 0.64 0.36 0.95 0.050000000000000044 0.58 0.42000000000000004 0.76 0.24 0.28 0.72 0.85 0.15000000000000002 0.69 0.31000000000000005 0.29 0.71 0.95 0.050000000000000044 0.48 0.52 0.06 0.94 0.08 0.92 0.48 0.52 0.95 0.050000000000000044 0.08 0.92 0.75 0.25 0.37 0.63 0.17 0.83 0.97 0.030000000000000027 0.83 0.17000000000000004 0.64 0.36 0.82 0.18000000000000005 0.97 0.030000000000000027 0.61 0.39 0.68 0.31999999999999995 0.28 0.72 0.86 0.14 0.63 0.37 0.97 0.030000000000000027 0.48 0.52 0.82 0.18000000000000005 0.11 0.89 0.99 0.010000000000000009 0.79 0.20999999999999996 0.68 0.31999999999999995 0.67 0.32999999999999996 0.06 0.94 0.36 0.64 0.02 0.98 0.43 0.5700000000000001 0.16 0.84 0.31 0.69 0.71 0.29000000000000004 0.28 0.72 0.1 0.9 0.07 0.9299999999999999 0.64 0.36 0.84 0.16000000000000003 0.3 0.7 0.71 0.29000000000000004 0.21 0.79</TABLE></DEFINITION><DEFINITION><FOR>N8</FOR><GIVEN>N0</GIVEN><GIVEN>N1</GIVEN><GIVEN>N2</GIVEN><GIVEN>N3</GIVEN><GIVEN>N4</GIVEN><GIVEN>N5</GIVEN><GIVEN>N6</GIVEN><GIVEN>N7</GIVEN><TABLE>0.22 0.78 0.06 0.94 0.13 0.87 0.41 0.5900000000000001 0.17 0.83 0.14 0.86 0.27 0.73 0.69 0.31000000000000005 0.84 0.16000000000000003 0.59 0.41000000000000003 0.44 0.56 0.05 0.95 0.74 0.26 0.89 0.10999999999999999 0.88 0.12 0.36 0.64 0.65 0.35 0.58 0.42000000000000004 0.07 0.9299999999999999 0.3 0.7 0.69 0.31000000000000005 0.86 0.14 0.88 0.12 0.12 0.88 0.07 0.9299999999999999 0.44 0.56 0.9 0.09999999999999998 0.09 0.91 0.33 0.6699999999999999 0.11 0.89 0.34 0.6599999999999999 0.97 0.030000000000000027 0.2 0.8 0.32 0.6799999999999999 0.35 0.65 0.77 0.22999999999999998 0.6 0.4 0.95 0.050000000000000044 0.92 0.07999999999999996 0.5 0.5 0.8 0.19999999999999996 0.55 0.44999999999999996 0.28 0.72 0.74 0.26 0.81 0.18999999999999995 0.32 0.6799999999999999 0.14 0.86 0.24 0.76 0.15 0.85 0.7 0.30000000000000004 0.46 0.54 0.19 0.81 0.91 0.08999999999999997 0.86 0.14 0.11 0.89 0.29 0.71 0.57 0.43000000000000005 0.83 0.17000000000000004 0.84 0.16000000000000003 0.13 0.87 0.91 0.08999999999999997 0.58 0.42000000000000004 0.86 0.14 0.05 0.95 0.44 0.56 0.27 0.73 0.27 0.73 0.48 0.52 0.03 0.97 0.47 0.53 0.13 0.87 0.06 0.94 0.76 0.24 0.87 0.13 0.19 0.81 0.5 0.5 0.17 0.83 0.79 0.20999999999999996 0.26 0.74 0.82 0.18000000000000005 0.92 0.07999999999999996 0.36 0.64 0.45 0.55 0.97 0.030000000000000027 0.22 0.78 0.42 0.5800000000000001 0.91 0.08999999999999997 0.91 0.08999999999999997 0.18 0.8200000000000001 0.31 0.69 0.31 0.69 0.74 0.26 0.57 0.43000000000000005 0.04 0.96 0.67 0.32999999999999996 0.49 0.51 0.64 0.36 0.02 0.98 0.94 0.06000000000000005 0.7 0.30000000000000004 0.63 0.37 0.83 0.17000000000000004 0.29 0.71 0.13 0.87 0.94 0.06000000000000005 0.43 0.5700000000000001 0.06 0.94 0.08 0.92 0.97 0.030000000000000027 0.13 0.87 0.61 0.39 0.61 0.39 0.07 0.9299999999999999 0.74 0.26 0.52 0.48 0.26 0.74 0.65 0.35 0.27 0.73 0.83 0.17000000000000004 0.66 0.33999999999999997 0.59 0.41000000000000003 0.02 0.98 0.76 0.24 0.28 0.72 0.62 0.38 0.39 0.61 0.9 0.09999999999999998 0.82 0.18000000000000005 0.53 0.47 0.23 0.77 0.55 0.44999999999999996 0.86 0.14 0.07 0.9299999999999999 0.28 0.72 0.38 0.62 0.16 0.84 0.21 0.79 0.03 0.97 0.51 0.49 0.2 0.8 0.3 0.7 0.97 0.030000000000000027 0.57 0.43000000000000005 0.26 0.74 0.09 0.91 0.52 0.48 0.75 0.25 0.06 0.94 0.46 0.54 0.9 0.09999999999999998 0.81 0.18999999999999995 0.77 0.22999999999999998 0.7 0.30000000000000004 0.19 0.81 0.26 0.74 0.47 0.53 0.8 0.19999999999999996 0.69 0.31000000000000005 0.41 0.5900000000000001 0.76 0.24 0.38 0.62 0.75 0.25 0.65 0.35 0.33 0.6699999999999999 0.44 0.56 0.16 0.84 0.22 0.78 0.77 0.22999999999999998 0.15 0.85 0.09 0.91 0.53 0.47 0.41 0.5900000000000001 0.06 0.94 0.27 0.73 0.78 0.21999999999999997 0.34 0.6599999999999999 0.78 0.21999999999999997 0.08 0.92 0.2 0.8 0.46 0.54 0.86 0.14 0.72 0.28 0.52 0.48 0.09 0.91 0.65 0.35 0.43 0.5700000000000001 0.06 0.94 0.85 0.15000000000000002 0.13 0.87 0.67 0.32999999999999996 0.18 0.8200000000000001 0.97 0.030000000000000027 0.76 0.24 0.06 0.94 0.49 0.51 0.36 0.64 0.06 0.94 0.17 0.83 0.9 0.09999999999999998 0.99 0.010000000000000009 0.29 0.71 0.71 0.29000000000000004 0.6 0.4 0.58 0.42000000000000004 0.14 0.86 0.65 0.35 0.45 0.55 0.16 0.84 0.89 0.10999999999999999 0.33 0.6699999999999999 0.69 0.31000000000000005 0.21 0.79 0.12 0.88 0.05 0.95 0.07 0.9299999999999999 0.49 0.51 0.29 0.71 0.67 0.32999999999999996 0.45 0.55 0.72 0.28 0.02 0.98 0.38 0.62 0.91 0.08999999999999997 0.2 0.8 0.43 0.5700000000000001 0.13 0.87 0.79 0.20999999999999996 0.12 0.88 0.25 0.75 0.83 0.17000000000000004 0.01 0.99 0.78 0.21999999999999997 0.97 0.030000000000000027 0.18 0.8200000000000001 0.53 0.47 0.27 0.73 0.11 0.89 0.44 0.56 0.94 0.06000000000000005 0.78 0.21999999999999997 0.98 0.020000000000000018 0.18 0.8200000000000001 0.8 0.19999999999999996 0.83 0.17000000000000004 0.09 0.91 0.91 0.08999999999999997 0.13 0.87 0.72 0.28 0.31 0.69 0.66 0.33999999999999997 0.38 0.62 0.9 0.09999999999999998 0.97 0.030000000000000027 0.29 0.71 0.03 0.97 0.73 0.27</TABLE></DEFINITION><DEFINITION><FOR>N9</FOR><GIVEN>N0</GIVEN><GIVEN>N1</GIVEN><GIVEN>N2</GIVEN><GIVEN>N3</GIVEN><GIVEN>N4</GIVEN><GIVEN>N5</GIVEN><GIVEN>N6</GIVEN><GIVEN>N7</GIVEN><GIVEN>N8</GIVEN><TABLE>0.68 0.31999999999999995 0.67 0.32999999999999996 0.14 0.86 0.82 0.18000000000000005 0.84 0.16000000000000003 0.9 0.09999999999999998 0.59 0.41000000000000003 0.28 0.72 0.87 0.13 0.26 0.74 0.8 0.19999999999999996 0.28 0.72 0.93 0.06999999999999995 0.58 0.42000000000000004 0.83 0.17000000000000004 0.75 0.25 0.82 0.18000000000000005 0.01 0.99 0.81 0.18999999999999995 0.61 0.39 0.05 0.95 0.97 0.030000000000000027 0.35 0.65 0.63 0.37 0.65 0.35 0.92 0.07999999999999996 0.88 0.12 0.26 0.74 0.02 0.98 0.88 0.12 0.97 0.030000000000000027 0.44 0.56 0.84 0.16000000000000003 0.11 0.89 0.58 0.42000000000000004 0.19 0.81 0.84 0.16000000000000003 0.3 0.7 0.14 0.86 0.09 0.91 0.82 0.18000000000000005 0.02 0.98 0.96 0.040000000000000036 0.39 0.61 0.57 0.43000000000000005 0.12 0.88 0.86 0.14 0.7 0.30000000000000004 0.07 0.9299999999999999 0.15 0.85 0.93 0.06999999999999995 0.84 0.16000000000000003 0.14 0.86 0.82 0.18000000000000005 0.46 0.54 0.71 0.29000000000000004 0.45 0.55 0.69 0.31000000000000005 0.44 0.56 0.82 0.18000000000000005 0.78 0.21999999999999997 0.89 0.10999999999999999 0.79 0.20999999999999996 0.96 0.040000000000000036 0.53 0.47 0.23 0.77 0.64 0.36 0.89 0.10999999999999999 0.45 0.55 0.23 0.77 0.42 0.5800000000000001 0.45 0.55 0.42 0.5800000000000001 0.9 0.09999999999999998 0.26 0.74 0.52 0.48 0.53 0.47 0.63 0.37 0.39 0.61 0.48 0.52 0.49 0.51 0.64 0.36 0.99 0.010000000000000009 0.04 0.96 0.29 0.71 0.23 0.77 0.72 0.28 0.27 0.73 0.2 0.8 0.43 0.5700000000000001 0.37 0.63 0.3 0.7 0.36 0.64 0.79 0.20999999999999996 0.58 0.42000000000000004 0.91 0.08999999999999997 0.13 0.87 0.01 0.99 0.28 0.72 0.82 0.18000000000000005 0.45 0.55 0.38 0.62 0.95 0.050000000000000044 0.71 0.29000000000000004 0.45 0.55 0.76 0.24 0.37 0.63 0.41 0.5900000000000001 0.4 0.6 0.97 0.030000000000000027 0.25 0.75 0.77 0.22999999999999998 0.17 0.83 0.75 0.25 0.42 0.5800000000000001 0.81 0.18999999999999995 0.25 0.75 0.49 0.51 0.32 0.6799999999999999 0.38 0.62 0.19 0.81 0.18 0.8200000000000001 0.61 0.39 0.31 0.69 0.11 0.89 0.83 0.17000000000000004 0.5 0.5 0.37 0.63 0.23 0.77 0.62 0.38 0.65 0.35 0.55 0.44999999999999996 0.52 0.48 0.89 0.10999999999999999 0.52 0.48 0.9 0.09999999999999998 0.16 0.84 0.23 0.77 0.24 0.76 0.06 0.94 0.41 0.5900000000000001 0.9 0.09999999999999998 0.79 0.20999999999999996 0.67 0.32999999999999996 0.67 0.32999999999999996 0.99 0.010000000000000009 0.02 0.98 0.69 0.31000000000000005 0.89 0.10999999999999999 0.64 0.36 0.16 0.84 0.39 0.61 0.14 0.86 0.9 0.09999999999999998 0.7 0.30000000000000004 0.85 0.15000000000000002 0.1 0.9 0.11 0.89 0.64 0.36 0.06 0.94 0.86 0.14 0.75 0.25 0.09 0.91 0.85 0.15000000000000002 0.65 0.35 0.91 0.08999999999999997 0.46 0.54 0.33 0.6699999999999999 0.32 0.6799999999999999 0.17 0.83 0.44 0.56 0.3 0.7 0.57 0.43000000000000005 0.58 0.42000000000000004 0.16 0.84 0.55 0.44999999999999996 0.33 0.6699999999999999 0.5 0.5 0.86 0.14 0.8 0.19999999999999996 0.26 0.74 0.9 0.09999999999999998 0.82 0.18000000000000005 0.67 0.32999999999999996 0.89 0.10999999999999999 0.75 0.25 0.37 0.63 0.43 0.5700000000000001 0.66 0.33999999999999997 0.43 0.5700000000000001 0.64 0.36 0.74 0.26 0.55 0.44999999999999996 0.95 0.050000000000000044 0.13 0.87 0.94 0.06000000000000005 0.16 0.84 0.2 0.8 0.58 0.42000000000000004 0.55 0.44999999999999996 0.12 0.88 0.99 0.010000000000000009 0.61 0.39 0.38 0.62 0.98 0.020000000000000018 0.43 0.5700000000000001 0.92 0.07999999999999996 0.93 0.06999999999999995 0.95 0.050000000000000044 0.73 0.27 0.2 0.8 0.81 0.18999999999999995 0.24 0.76 0.17 0.83 0.95 0.050000000000000044 0.82 0.18000000000000005 0.59 0.41000000000000003 0.66 0.33999999999999997 0.68 0.31999999999999995 0.35 0.65 0.22 0.78 0.87 0.13 0.73 0.27 0.88 0.12 0.46 0.54 0.01 0.99 0.89 0.10999999999999999 0.22 0.78 0.42 0.5800000000000001 0.02 0.98 0.29 0.71 0.2 0.8 0.19 0.81 0.83 0.17000000000000004 0.93 0.06999999999999995 0.99 0.010000000000000009 0.63 0.37 0.59 0.41000000000000003 0.12 0.88 0.08 0.92 0.06 0.94 0.08 0.92 0.79 0.20999999999999996 0.47 0.53 0.07 0.9299999999999999 0.85 0.15000000000000002 0.85 0.15000000000000002 0.48 0.52 0.37 0.63 0.31 0.69 0.9 0.09999999999999998 0.68 0.31999999999999995 0.29 0.71 0.83 0.17000000000000004 0.73 0.27 0.38 0.62 0.38 0.62 0.79 0.20999999999999996 0.68 0.31999999999999995 0.87 0.13 0.78 0.21999999999999997 0.5 0.5 0.71 0.29000000000000004 0.84 0.16000000000000003 0.08 0.92 0.16 0.84 0.3 0.7 0.96 0.040000000000000036 0.93 0.06999999999999995 0.39 0.61 0.19 0.81 0.4 0.6 0.8 0.19999999999999996 0.53 0.47 0.93 0.06999999999999995 0.89 0.10999999999999999 0.22 0.78 0.26 0.74 0.42 0.5800000000000001 0.25 0.75 0.63 0.37 0.48 0.52 0.53 0.47 0.89 0.10999999999999999 0.86 0.14 0.5 0.5 0.05 0.95 0.13 0.87 0.68 0.31999999999999995 0.34 0.6599999999999999 0.08 0.92 0.84 0.16000000000000003 0.41 0.5900000000000001 0.09 0.91 0.53 0.47 0.84 0.16000000000000003 0.42 0.5800000000000001 0.69 0.31000000000000005 0.45 0.55 0.74 0.26 0.28 0.72 0.98 0.020000000000000018 0.01 0.99 0.99 0.010000000000000009 0.27 0.73 0.36 0.64 0.62 0.38 0.33 0.6699999999999999 0.29 0.71 0.65 0.35 0.32 0.6799999999999999 0.62 0.38 0.21 0.79 0.12 0.88 0.36 0.64 0.92 0.07999999999999996 0.9 0.09999999999999998 0.32 0.6799999999999999 0.72 0.28 0.13 0.87 0.19 0.81 0.53 0.47 0.68 0.31999999999999995 0.55 0.44999999999999996 0.05 0.95 0.38 0.62 0.33 0.6699999999999999 0.8 0.19999999999999996 0.02 0.98 0.01 0.99 0.16 0.84 0.02 0.98 0.12 0.88 0.75 0.25 0.89 0.10999999999999999 0.89 0.10999999999999999 0.1 0.9 0.14 0.86 0.93 0.06999999999999995 0.39 0.61 0.21 0.79 0.21 0.79 0.26 0.74 0.75 0.25 0.95 0.050000000000000044 0.87 0.13 0.54 0.45999999999999996 0.15 0.85 0.88 0.12 0.23 0.77 0.16 0.84 0.2 0.8 0.43 0.5700000000000001 0.57 0.43000000000000005 0.88 0.12 0.28 0.72 0.03 0.97 0.25 0.75 0.68 0.31999999999999995 0.24 0.76 0.67 0.32999999999999996 0.41 0.5900000000000001 0.18 0.8200000000000001 0.44 0.56 0.04 0.96 0.09 0.91 0.44 0.56 0.74 0.26 0.39 0.61 0.42 0.5800000000000001 0.69 0.31000000000000005 0.68 0.31999999999999995 0.44 0.56 0.29 0.71 0.49 0.51 0.32 0.6799999999999999 0.84 0.16000000000000003 0.49 0.51 0.99 0.010000000000000009 0.18 0.8200000000000001 0.46 0.54 0.9 0.09999999999999998 0.54 0.45999999999999996 0.1 0.9 0.92 0.07999999999999996 0.47 0.53 0.2 0.8 0.08 0.92 0.54 0.45999999999999996 0.15 0.85 0.34 0.6599999999999999 0.48 0.52 0.69 0.31000000000000005 0.07 0.9299999999999999 0.36 0.64 0.82 0.18000000000000005 0.72 0.28 0.75 0.25 0.33 0.6699999999999999 0.25 0.75 0.43 0.5700000000000001 0.82 0.18000000000000005 0.28 0.72 0.92 0.07999999999999996 0.1 0.9 0.37 0.63 0.03 0.97 0.61 0.39 0.49 0.51 0.17 0.83 0.44 0.56 0.7 0.30000000000000004 0.67 0.32999999999999996 0.1 0.9 0.82 0.18000000000000005 0.63 0.37 0.22 0.78 0.37 0.63 0.1 0.9 0.09 0.91 0.89 0.10999999999999999 0.1 0.9 0.44 0.56 0.87 0.13 0.49 0.51 0.72 0.28 0.82 0.18000000000000005 0.03 0.97 0.89 0.10999999999999999 0.25 0.75 0.22 0.78 0.45 0.55 0.73 0.27 0.45 0.55 0.09 0.91 0.92 0.07999999999999996 0.61 0.39 0.1 0.9 0.36 0.64 0.49 0.51 0.4 0.6 0.6 0.4 0.29 0.71 0.46 0.54 0.52 0.48 0.71 0.29000000000000004 0.02 0.98 0.23 0.77 0.91 0.08999999999999997 0.88 0.12 0.94 0.06000000000000005 0.69 0.31000000000000005 0.03 0.97 0.88 0.12 0.83 0.17000000000000004 0.89 0.10999999999999999 0.39 0.61 0.43 0.5700000000000001 0.17 0.83 0.95 0.050000000000000044 0.12 0.88 0.59 0.41000000000000003 0.51 0.49 0.18 0.8200000000000001 0.48 0.52 0.78 0.21999999999999997 0.49 0.51 0.59 0.41000000000000003 0.86 0.14 0.81 0.18999999999999995 0.61 0.39 0.74 0.26 0.68 0.31999999999999995 0.29 0.71 0.52 0.48 0.26 0.74 0.96 0.040000000000000036 0.62 0.38 0.74 0.26 0.38 0.62 0.2 0.8 0.05 0.95 0.11 0.89 0.64 0.36 0.27 0.73 0.56 0.43999999999999995 0.85 0.15000000000000002 0.23 0.77 0.41 0.5900000000000001 0.95 0.050000000000000044 0.11 0.89 0.49 0.51 0.43 0.5700000000000001 0.35 0.65 0.15 0.85 0.77 0.22999999999999998 0.74 0.26 0.11 0.89 0.2 0.8 0.87 0.13 0.74 0.26 0.66 0.33999999999999997 0.2 0.8 0.5 0.5 0.92 0.07999999999999996 0.85 0.15000000000000002 0.11 0.89 0.95 0.050000000000000044 0.33 0.6699999999999999 0.38 0.62 0.87 0.13 0.55 0.44999999999999996</TABLE></DEFINITION></NETWORK></BIF>