<BIF VERSION="0.3"><NETWORK><NAME>Test10NTNTE</NAME><VARIABLE TYPE="nature"><NAME>N0</NAME><OUTCOME>True</OUTCOME><OUTCOME>False</OUTCOME></VARIABLE><VARIABLE TYPE="nature"><NAME>N1</NAME><OUTCOME>True</OUTCOME><OUTCOME>False</OUTCOME></VARIABLE><VARIABLE TYPE="nature"><NAME>N2</NAME><OUTCOME>True</OUTCOME><OUTCOME>False</OUTCOME></VARIABLE><VARIABLE TYPE="nature"><NAME>N3</NAME><OUTCOME>True</OUTCOME><OUTCOME>False</OUTCOME></VARIABLE><VARIABLE TYPE="nature"><NAME>N4</NAME><OUTCOME>True</OUTCOME><OUTCOME>False</OUTCOME></VARIABLE><VARIABLE TYPE="nature"><NAME>N5</NAME><OUTCOME>True</OUTCOME><OUTCOME>False</OUTCOME></VARIABLE><VARIABLE TYPE="nature"><NAME>N6</NAME><OUTCOME>True</OUTCOME><OUTCOME>False</OUTCOME></VARIABLE><VARIABLE TYPE="nature"><NAME>N7</NAME><OUTCOME>True</OUTCOME><OUTCOME>False</OUTCOME></VARIABLE><VARIABLE TYPE="nature"><NAME>N8</NAME><OUTCOME>True</OUTCOME><OUTCOME>False</OUTCOME></VARIABLE><VARIABLE TYPE="nature"><NAME>N9</NAME><OUTCOME>True</OUTCOME><OUTCOME>False</OUTCOME></VARIABLE><DEFINITION><FOR>N0</FOR><TABLE>0.94 0.06000000000000005</TABLE></DEFINITION><DEFINITION><FOR>N1</FOR><GIVEN>N0</GIVEN><TABLE>0.59 0.41000000000000003 0.85 0.15000000000000002</TABLE></DEFINITION><DEFINITION><FOR>N2</FOR><GIVEN>N0</GIVEN><GIVEN>N1</GIVEN><TABLE>0.08 0.92 0.86 0.14 0.22 0.78 0.92 0.07999999999999996</TABLE></DEFINITION><DEFINITION><FOR>N3</FOR><GIVEN>N0</GIVEN><GIVEN>N1</GIVEN><GIVEN>N2</GIVEN><TABLE>0.02 0.98 0.89 0.10999999999999999 0.45 0.55 0.78 0.21999999999999997 0.76 0.24 0.82 0.18000000000000005 0.41 0.5900000000000001 0.5 0.5</TABLE></DEFINITION><DEFINITION><FOR>N4</FOR><GIVEN>N0</GIVEN><GIVEN>N1</GIVEN><GIVEN>N2</GIVEN><GIVEN>N3</GIVEN><TABLE>0.37 0.63 0.25 0.75 0.72 0.28 0.15 0.85 0.24 0.76 0.37 0.63 0.33 0.6699999999999999 0.43 0.5700000000000001 0.22 0.78 0.43 0.5700000000000001 0.98 0.020000000000000018 0.97 0.030000000000000027 0.84 0.16000000000000003 0.79 0.20999999999999996 0.72 0.28 0.81 0.18999999999999995</TABLE></DEFINITION><DEFINITION><FOR>N5</FOR><GIVEN>N0</GIVEN><GIVEN>N1</GIVEN><GIVEN>N2</GIVEN><GIVEN>N3</GIVEN><GIVEN>N4</GIVEN><TABLE>0.28 0.72 0.83 0.17000000000000004 0.9 0.09999999999999998 0.78 0.21999999999999997 0.34 0.6599999999999999 0.77 0.22999999999999998 0.4 0.6 0.9 0.09999999999999998 0.23 0.77 0.65 0.35 0.39 0.61 0.01 0.99 0.02 0.98 0.38 0.62 0.23 0.77 0.48 0.52 0.19 0.81 0.44 0.56 0.17 0.83 0.14 0.86 0.75 0.25 0.04 0.96 0.25 0.75 0.2 0.8 0.31 0.69 0.76 0.24 0.64 0.36 0.48 0.52 0.34 0.6599999999999999 0.2 0.8 0.56 0.43999999999999995 0.48 0.52</TABLE></DEFINITION><DEFINITION><FOR>N6</FOR><GIVEN>N0</GIVEN><GIVEN>N1</GIVEN><GIVEN>N2</GIVEN><GIVEN>N3</GIVEN><GIVEN>N4</GIVEN><GIVEN>N5</GIVEN><TABLE>0.57 0.43000000000000005 0.5 0.5 0.15 0.85 0.33 0.6699999999999999 0.11 0.89 0.62 0.38 0.65 0.35 0.21 0.79 0.35 0.65 0.83 0.17000000000000004 0.87 0.13 0.64 0.36 0.45 0.55 0.22 0.78 0.6 0.4 0.9 0.09999999999999998 0.01 0.99 0.91 0.08999999999999997 0.01 0.99 0.42 0.5800000000000001 0.25 0.75 0.71 0.29000000000000004 0.42 0.5800000000000001 0.94 0.06000000000000005 0.46 0.54 0.21 0.79 0.19 0.81 0.9 0.09999999999999998 0.31 0.69 0.68 0.31999999999999995 0.97 0.030000000000000027 0.93 0.06999999999999995 0.46 0.54 0.22 0.78 0.58 0.42000000000000004 0.76 0.24 0.74 0.26 0.39 0.61 0.12 0.88 0.99 0.010000000000000009 0.02 0.98 0.48 0.52 0.17 0.83 0.71 0.29000000000000004 0.2 0.8 0.68 0.31999999999999995 0.8 0.19999999999999996 0.76 0.24 0.54 0.45999999999999996 0.23 0.77 0.84 0.16000000000000003 0.05 0.95 0.83 0.17000000000000004 0.32 0.6799999999999999 0.94 0.06000000000000005 0.65 0.35 0.37 0.63 0.2 0.8 0.21 0.79 0.8 0.19999999999999996 0.81 0.18999999999999995 0.5 0.5 0.84 0.16000000000000003 0.09 0.91</TABLE></DEFINITION><DEFINITION><FOR>N7</FOR><GIVEN>N0</GIVEN><GIVEN>N1</GIVEN><GIVEN>N2</GIVEN><GIVEN>N3</GIVEN><GIVEN>N4</GIVEN><GIVEN>N5</GIVEN><GIVEN>N6</GIVEN><TABLE>0.77 0.22999999999999998 0.88 0.12 0.03 0.97 0.78 0.21999999999999997 0.71 0.29000000000000004 0.77 0.22999999999999998 0.65 0.35 0.75 0.25 0.41 0.5900000000000001 0.83 0.17000000000000004 0.72 0.28 0.05 0.95 0.28 0.72 0.27 0.73 0.03 0.97 0.91 0.08999999999999997 0.39 0.61 0.16 0.84 0.81 0.18999999999999995 0.95 0.050000000000000044 0.92 0.07999999999999996 0.93 0.06999999999999995 0.91 0.08999999999999997 0.54 0.45999999999999996 0.66 0.33999999999999997 0.9 0.09999999999999998 0.71 0.29000000000000004 0.82 0.18000000000000005 0.22 0.78 0.01 0.99 0.34 0.6599999999999999 0.49 0.51 0.9 0.09999999999999998 0.24 0.76 0.62 0.38 0.61 0.39 0.23 0.77 0.89 0.10999999999999999 0.51 0.49 0.87 0.13 0.46 0.54 0.42 0.5800000000000001 0.49 0.51 0.24 0.76 0.51 0.49 0.85 0.15000000000000002 0.81 0.18999999999999995 0.01 0.99 0.99 0.010000000000000009 0.25 0.75 0.44 0.56 0.08 0.92 0.3 0.7 0.57 0.43000000000000005 0.69 0.31000000000000005 0.79 0.20999999999999996 0.88 0.12 0.2 0.8 0.07 0.9299999999999999 0.14 0.86 0.95 0.050000000000000044 0.96 0.040000000000000036 0.87 0.13 0.14 0.86 0.03 0.97 0.45 0.55 0.95 0.050000000000000044 0.19 0.81 0.07 0.9299999999999999 0.13 0.87 0.37 0.63 0.58 0.42000000000000004 0.99 0.010000000000000009 0.08 0.92 0.9 0.09999999999999998 0.83 0.17000000000000004 0.35 0.65 0.28 0.72 0.49 0.51 0.5 0.5 0.51 0.49 0.31 0.69 0.25 0.75 0.02 0.98 0.76 0.24 0.17 0.83 0.74 0.26 0.22 0.78 0.69 0.31000000000000005 0.05 0.95 0.63 0.37 0.26 0.74 0.01 0.99 0.05 0.95 0.06 0.94 0.79 0.20999999999999996 0.61 0.39 0.84 0.16000000000000003 0.11 0.89 0.86 0.14 0.65 0.35 0.06 0.94 0.54 0.45999999999999996 0.51 0.49 0.9 0.09999999999999998 0.85 0.15000000000000002 0.81 0.18999999999999995 0.65 0.35 0.98 0.020000000000000018 0.33 0.6699999999999999 0.58 0.42000000000000004 0.02 0.98 0.06 0.94 0.96 0.040000000000000036 0.67 0.32999999999999996 0.35 0.65 0.27 0.73 0.54 0.45999999999999996 0.66 0.33999999999999997 0.59 0.41000000000000003 0.35 0.65 0.2 0.8 0.8 0.19999999999999996 0.18 0.8200000000000001 0.54 0.45999999999999996 0.66 0.33999999999999997 0.39 0.61 0.05 0.95</TABLE></DEFINITION><DEFINITION><FOR>N8</FOR><GIVEN>N0</GIVEN><GIVEN>N1</GIVEN><GIVEN>N2</GIVEN><GIVEN>N3</GIVEN><GIVEN>N4</GIVEN><GIVEN>N5</GIVEN><GIVEN>N6</GIVEN><GIVEN>N7</GIVEN><TABLE>0.1 0.9 0.39 0.61 0.2 0.8 0.27 0.73 0.79 0.20999999999999996 0.94 0.06000000000000005 0.5 0.5 0.03 0.97 0.58 0.42000000000000004 0.55 0.44999999999999996 0.79 0.20999999999999996 0.53 0.47 0.98 0.020000000000000018 0.97 0.030000000000000027 0.71 0.29000000000000004 0.95 0.050000000000000044 0.19 0.81 0.77 0.22999999999999998 0.95 0.050000000000000044 0.72 0.28 0.61 0.39 0.17 0.83 0.13 0.87 0.19 0.81 0.56 0.43999999999999995 0.58 0.42000000000000004 0.72 0.28 0.06 0.94 0.4 0.6 0.11 0.89 0.23 0.77 0.87 0.13 0.69 0.31000000000000005 0.32 0.6799999999999999 0.16 0.84 0.76 0.24 0.1 0.9 0.32 0.6799999999999999 0.42 0.5800000000000001 0.28 0.72 0.63 0.37 0.22 0.78 0.12 0.88 0.19 0.81 0.38 0.62 0.88 0.12 0.25 0.75 0.07 0.9299999999999999 0.85 0.15000000000000002 0.43 0.5700000000000001 0.91 0.08999999999999997 0.57 0.43000000000000005 0.31 0.69 0.6 0.4 0.36 0.64 0.1 0.9 0.3 0.7 0.5 0.5 0.75 0.25 0.71 0.29000000000000004 0.52 0.48 0.31 0.69 0.66 0.33999999999999997 0.04 0.96 0.9 0.09999999999999998 0.15 0.85 0.15 0.85 0.3 0.7 0.14 0.86 0.39 0.61 0.87 0.13 0.38 0.62 0.62 0.38 0.38 0.62 0.8 0.19999999999999996 0.23 0.77 0.81 0.18999999999999995 0.43 0.5700000000000001 0.93 0.06999999999999995 0.49 0.51 0.04 0.96 0.24 0.76 0.83 0.17000000000000004 0.79 0.20999999999999996 0.94 0.06000000000000005 0.96 0.040000000000000036 0.75 0.25 0.43 0.5700000000000001 0.65 0.35 0.49 0.51 0.36 0.64 0.3 0.7 0.41 0.5900000000000001 0.69 0.31000000000000005 0.76 0.24 0.15 0.85 0.7 0.30000000000000004 0.3 0.7 0.1 0.9 0.85 0.15000000000000002 0.34 0.6599999999999999 0.78 0.21999999999999997 0.17 0.83 0.81 0.18999999999999995 0.53 0.47 0.45 0.55 0.2 0.8 0.81 0.18999999999999995 0.7 0.30000000000000004 0.15 0.85 0.41 0.5900000000000001 0.2 0.8 0.74 0.26 0.51 0.49 0.77 0.22999999999999998 0.29 0.71 0.94 0.06000000000000005 0.98 0.020000000000000018 0.32 0.6799999999999999 0.2 0.8 0.27 0.73 0.42 0.5800000000000001 0.42 0.5800000000000001 0.96 0.040000000000000036 0.92 0.07999999999999996 0.6 0.4 0.63 0.37 0.54 0.45999999999999996 0.9 0.09999999999999998 0.62 0.38 0.12 0.88 0.16 0.84 0.55 0.44999999999999996 0.91 0.08999999999999997 0.83 0.17000000000000004 0.39 0.61 0.46 0.54 0.76 0.24 0.13 0.87 0.07 0.9299999999999999 0.87 0.13 0.06 0.94 0.02 0.98 0.91 0.08999999999999997 0.64 0.36 0.54 0.45999999999999996 0.42 0.5800000000000001 0.25 0.75 0.96 0.040000000000000036 0.7 0.30000000000000004 0.57 0.43000000000000005 0.36 0.64 0.86 0.14 0.7 0.30000000000000004 0.42 0.5800000000000001 0.84 0.16000000000000003 0.87 0.13 0.82 0.18000000000000005 0.28 0.72 0.34 0.6599999999999999 0.95 0.050000000000000044 0.68 0.31999999999999995 0.6 0.4 0.28 0.72 0.1 0.9 0.61 0.39 0.32 0.6799999999999999 0.89 0.10999999999999999 0.02 0.98 0.71 0.29000000000000004 0.13 0.87 0.59 0.41000000000000003 0.53 0.47 0.53 0.47 0.35 0.65 0.13 0.87 0.55 0.44999999999999996 0.29 0.71 0.07 0.9299999999999999 0.85 0.15000000000000002 0.91 0.08999999999999997 0.5 0.5 0.64 0.36 0.03 0.97 0.01 0.99 0.47 0.53 0.53 0.47 0.21 0.79 0.95 0.050000000000000044 0.05 0.95 0.43 0.5700000000000001 0.8 0.19999999999999996 0.23 0.77 0.11 0.89 0.88 0.12 0.54 0.45999999999999996 0.03 0.97 0.7 0.30000000000000004 0.58 0.42000000000000004 0.53 0.47 0.77 0.22999999999999998 0.14 0.86 0.23 0.77 0.94 0.06000000000000005 0.42 0.5800000000000001 0.8 0.19999999999999996 0.27 0.73 0.68 0.31999999999999995 0.28 0.72 0.5 0.5 0.36 0.64 0.45 0.55 0.09 0.91 0.52 0.48 0.3 0.7 0.41 0.5900000000000001 0.34 0.6599999999999999 0.69 0.31000000000000005 0.98 0.020000000000000018 0.98 0.020000000000000018 0.96 0.040000000000000036 0.92 0.07999999999999996 0.11 0.89 0.79 0.20999999999999996 0.88 0.12 0.36 0.64 0.8 0.19999999999999996 0.42 0.5800000000000001 0.38 0.62 0.73 0.27 0.05 0.95 0.61 0.39 0.04 0.96 0.13 0.87 0.28 0.72 0.89 0.10999999999999999 0.34 0.6599999999999999 0.47 0.53 0.78 0.21999999999999997 0.8 0.19999999999999996 0.48 0.52 0.72 0.28 0.05 0.95 0.66 0.33999999999999997 0.19 0.81 0.54 0.45999999999999996 0.16 0.84 0.97 0.030000000000000027 0.79 0.20999999999999996 0.05 0.95 0.09 0.91 0.77 0.22999999999999998 0.46 0.54 0.48 0.52 0.65 0.35 0.32 0.6799999999999999</TABLE></DEFINITION><DEFINITION><FOR>N9</FOR><GIVEN>N0</GIVEN><GIVEN>N1</GIVEN><GIVEN>N2</GIVEN><GIVEN>N3</GIVEN><GIVEN>N4</GIVEN><GIVEN>N5</GIVEN><GIVEN>N6</GIVEN><GIVEN>N7</GIVEN><GIVEN>N8</GIVEN><TABLE>0.71 0.29000000000000004 0.89 0.10999999999999999 0.96 0.040000000000000036 0.7 0.30000000000000004 0.28 0.72 0.21 0.79 0.68 0.31999999999999995 0.57 0.43000000000000005 0.72 0.28 0.06 0.94 0.29 0.71 0.79 0.20999999999999996 0.91 0.08999999999999997 0.74 0.26 0.56 0.43999999999999995 0.16 0.84 0.6 0.4 0.17 0.83 0.4 0.6 0.33 0.6699999999999999 0.85 0.15000000000000002 0.93 0.06999999999999995 0.15 0.85 0.01 0.99 0.4 0.6 0.71 0.29000000000000004 0.47 0.53 0.7 0.30000000000000004 0.84 0.16000000000000003 0.89 0.10999999999999999 0.18 0.8200000000000001 0.64 0.36 0.63 0.37 0.07 0.9299999999999999 0.57 0.43000000000000005 0.95 0.050000000000000044 0.99 0.010000000000000009 0.92 0.07999999999999996 0.39 0.61 0.25 0.75 0.44 0.56 0.98 0.020000000000000018 0.16 0.84 0.16 0.84 0.45 0.55 0.09 0.91 0.37 0.63 0.55 0.44999999999999996 0.01 0.99 0.02 0.98 0.79 0.20999999999999996 0.38 0.62 0.07 0.9299999999999999 0.25 0.75 0.41 0.5900000000000001 0.46 0.54 0.94 0.06000000000000005 0.46 0.54 0.48 0.52 0.71 0.29000000000000004 0.1 0.9 0.78 0.21999999999999997 0.23 0.77 0.17 0.83 0.31 0.69 0.6 0.4 0.94 0.06000000000000005 0.08 0.92 0.9 0.09999999999999998 0.94 0.06000000000000005 0.76 0.24 0.05 0.95 0.8 0.19999999999999996 0.81 0.18999999999999995 0.05 0.95 0.49 0.51 0.27 0.73 0.42 0.5800000000000001 0.12 0.88 0.25 0.75 0.33 0.6699999999999999 0.96 0.040000000000000036 0.02 0.98 0.89 0.10999999999999999 0.85 0.15000000000000002 0.51 0.49 0.81 0.18999999999999995 0.91 0.08999999999999997 0.76 0.24 0.33 0.6699999999999999 0.94 0.06000000000000005 0.52 0.48 0.09 0.91 0.37 0.63 0.2 0.8 0.35 0.65 0.39 0.61 0.04 0.96 0.56 0.43999999999999995 0.47 0.53 0.4 0.6 0.74 0.26 0.88 0.12 0.78 0.21999999999999997 0.04 0.96 0.88 0.12 0.74 0.26 0.29 0.71 0.31 0.69 0.7 0.30000000000000004 0.16 0.84 0.23 0.77 0.87 0.13 0.18 0.8200000000000001 0.21 0.79 0.46 0.54 0.54 0.45999999999999996 0.45 0.55 0.82 0.18000000000000005 0.21 0.79 0.53 0.47 0.69 0.31000000000000005 0.75 0.25 0.01 0.99 0.07 0.9299999999999999 0.97 0.030000000000000027 0.37 0.63 0.87 0.13 0.48 0.52 0.59 0.41000000000000003 0.28 0.72 0.92 0.07999999999999996 0.38 0.62 0.31 0.69 0.42 0.5800000000000001 0.12 0.88 0.6 0.4 0.31 0.69 0.12 0.88 0.58 0.42000000000000004 0.18 0.8200000000000001 0.48 0.52 0.34 0.6599999999999999 0.19 0.81 0.18 0.8200000000000001 0.89 0.10999999999999999 0.54 0.45999999999999996 0.14 0.86 0.29 0.71 0.05 0.95 0.44 0.56 0.26 0.74 0.52 0.48 0.15 0.85 0.54 0.45999999999999996 0.03 0.97 0.65 0.35 0.71 0.29000000000000004 0.1 0.9 0.24 0.76 0.32 0.6799999999999999 0.82 0.18000000000000005 0.2 0.8 0.73 0.27 0.39 0.61 0.92 0.07999999999999996 0.95 0.050000000000000044 0.4 0.6 0.86 0.14 0.53 0.47 0.79 0.20999999999999996 0.66 0.33999999999999997 0.81 0.18999999999999995 0.22 0.78 0.28 0.72 0.56 0.43999999999999995 0.09 0.91 0.45 0.55 0.31 0.69 0.07 0.9299999999999999 0.95 0.050000000000000044 0.15 0.85 0.6 0.4 0.97 0.030000000000000027 0.66 0.33999999999999997 0.48 0.52 0.77 0.22999999999999998 0.82 0.18000000000000005 0.28 0.72 0.35 0.65 0.88 0.12 0.47 0.53 0.45 0.55 0.18 0.8200000000000001 0.43 0.5700000000000001 0.31 0.69 0.77 0.22999999999999998 0.23 0.77 0.53 0.47 0.52 0.48 0.23 0.77 0.99 0.010000000000000009 0.77 0.22999999999999998 0.02 0.98 0.58 0.42000000000000004 0.79 0.20999999999999996 0.15 0.85 0.71 0.29000000000000004 0.1 0.9 0.57 0.43000000000000005 0.26 0.74 0.95 0.050000000000000044 0.28 0.72 0.66 0.33999999999999997 0.16 0.84 0.78 0.21999999999999997 0.95 0.050000000000000044 0.72 0.28 0.4 0.6 0.46 0.54 0.92 0.07999999999999996 0.56 0.43999999999999995 0.22 0.78 0.56 0.43999999999999995 0.55 0.44999999999999996 0.42 0.5800000000000001 0.11 0.89 0.38 0.62 0.32 0.6799999999999999 0.35 0.65 0.28 0.72 0.99 0.010000000000000009 0.57 0.43000000000000005 0.09 0.91 0.56 0.43999999999999995 0.01 0.99 0.8 0.19999999999999996 0.77 0.22999999999999998 0.35 0.65 0.5 0.5 0.31 0.69 0.03 0.97 0.81 0.18999999999999995 0.53 0.47 0.52 0.48 0.82 0.18000000000000005 0.27 0.73 0.23 0.77 0.45 0.55 0.75 0.25 0.65 0.35 0.68 0.31999999999999995 0.35 0.65 0.81 0.18999999999999995 0.21 0.79 0.83 0.17000000000000004 0.1 0.9 0.73 0.27 0.42 0.5800000000000001 0.23 0.77 0.43 0.5700000000000001 0.54 0.45999999999999996 0.99 0.010000000000000009 0.36 0.64 0.86 0.14 0.05 0.95 0.51 0.49 0.01 0.99 0.07 0.9299999999999999 0.73 0.27 0.42 0.5800000000000001 0.07 0.9299999999999999 0.75 0.25 0.61 0.39 0.88 0.12 0.84 0.16000000000000003 0.22 0.78 0.79 0.20999999999999996 0.05 0.95 0.95 0.050000000000000044 0.47 0.53 0.88 0.12 0.11 0.89 0.42 0.5800000000000001 0.32 0.6799999999999999 0.84 0.16000000000000003 0.82 0.18000000000000005 0.72 0.28 0.05 0.95 0.72 0.28 0.47 0.53 0.51 0.49 0.32 0.6799999999999999 0.98 0.020000000000000018 0.77 0.22999999999999998 0.42 0.5800000000000001 0.37 0.63 0.43 0.5700000000000001 0.69 0.31000000000000005 0.16 0.84 0.67 0.32999999999999996 0.18 0.8200000000000001 0.64 0.36 0.06 0.94 0.75 0.25 0.51 0.49 0.27 0.73 0.39 0.61 0.81 0.18999999999999995 0.5 0.5 0.02 0.98 0.96 0.040000000000000036 0.23 0.77 0.68 0.31999999999999995 0.1 0.9 0.87 0.13 0.35 0.65 0.38 0.62 0.28 0.72 0.26 0.74 0.12 0.88 0.81 0.18999999999999995 0.51 0.49 0.99 0.010000000000000009 0.46 0.54 0.54 0.45999999999999996 0.59 0.41000000000000003 0.92 0.07999999999999996 0.37 0.63 0.7 0.30000000000000004 0.46 0.54 0.76 0.24 0.21 0.79 0.42 0.5800000000000001 0.12 0.88 0.02 0.98 0.18 0.8200000000000001 0.7 0.30000000000000004 0.67 0.32999999999999996 0.35 0.65 0.35 0.65 0.95 0.050000000000000044 0.1 0.9 0.61 0.39 0.16 0.84 0.84 0.16000000000000003 0.82 0.18000000000000005 0.81 0.18999999999999995 0.34 0.6599999999999999 0.95 0.050000000000000044 0.9 0.09999999999999998 0.9 0.09999999999999998 0.01 0.99 0.5 0.5 0.19 0.81 0.41 0.5900000000000001 0.63 0.37 0.4 0.6 0.34 0.6599999999999999 0.29 0.71 0.52 0.48 0.05 0.95 0.12 0.88 0.36 0.64 0.45 0.55 0.67 0.32999999999999996 0.37 0.63 0.68 0.31999999999999995 0.2 0.8 0.16 0.84 0.59 0.41000000000000003 0.61 0.39 0.9 0.09999999999999998 0.18 0.8200000000000001 0.23 0.77 0.54 0.45999999999999996 0.04 0.96 0.14 0.86 0.84 0.16000000000000003 0.78 0.21999999999999997 0.72 0.28 0.43 0.5700000000000001 0.26 0.74 0.65 0.35 0.03 0.97 0.32 0.6799999999999999 0.01 0.99 0.67 0.32999999999999996 0.88 0.12 0.36 0.64 0.9 0.09999999999999998 0.21 0.79 0.92 0.07999999999999996 0.96 0.040000000000000036 0.32 0.6799999999999999 0.27 0.73 0.02 0.98 0.41 0.5900000000000001 0.38 0.62 0.81 0.18999999999999995 0.43 0.5700000000000001 0.56 0.43999999999999995 0.07 0.9299999999999999 0.75 0.25 0.86 0.14 0.13 0.87 0.35 0.65 0.98 0.020000000000000018 0.46 0.54 0.27 0.73 0.91 0.08999999999999997 0.05 0.95 0.03 0.97 0.77 0.22999999999999998 0.31 0.69 0.76 0.24 0.8 0.19999999999999996 0.41 0.5900000000000001 0.1 0.9 0.45 0.55 0.64 0.36 0.85 0.15000000000000002 0.9 0.09999999999999998 0.56 0.43999999999999995 0.04 0.96 0.54 0.45999999999999996 0.56 0.43999999999999995 0.51 0.49 0.58 0.42000000000000004 0.15 0.85 0.04 0.96 0.36 0.64 0.31 0.69 0.16 0.84 0.01 0.99 0.57 0.43000000000000005 0.21 0.79 0.61 0.39 0.8 0.19999999999999996 0.38 0.62 0.12 0.88 0.2 0.8 0.68 0.31999999999999995 0.11 0.89 0.87 0.13 0.22 0.78 0.61 0.39 0.73 0.27 0.65 0.35 0.66 0.33999999999999997 0.09 0.91 0.16 0.84 0.72 0.28 0.13 0.87 0.03 0.97 0.31 0.69 0.03 0.97 0.94 0.06000000000000005 0.62 0.38 0.34 0.6599999999999999 0.94 0.06000000000000005 0.18 0.8200000000000001 0.28 0.72 0.61 0.39 0.59 0.41000000000000003 0.39 0.61 0.52 0.48 0.07 0.9299999999999999 0.89 0.10999999999999999 0.47 0.53 0.08 0.92 0.86 0.14 0.24 0.76 0.43 0.5700000000000001 0.43 0.5700000000000001 0.14 0.86 0.47 0.53 0.16 0.84 0.11 0.89 0.05 0.95 0.49 0.51 0.33 0.6699999999999999 0.03 0.97 0.14 0.86 0.57 0.43000000000000005 0.41 0.5900000000000001 0.26 0.74 0.76 0.24 0.46 0.54 0.19 0.81 0.34 0.6599999999999999 0.02 0.98 0.38 0.62 0.73 0.27 0.93 0.06999999999999995 0.44 0.56 0.53 0.47 0.87 0.13 0.36 0.64 0.48 0.52 0.3 0.7 0.7 0.30000000000000004 0.87 0.13 0.16 0.84 0.6 0.4 0.85 0.15000000000000002 0.41 0.5900000000000001 0.66 0.33999999999999997 0.74 0.26 0.85 0.15000000000000002 0.97 0.030000000000000027 0.86 0.14</TABLE></DEFINITION></NETWORK></BIF>