<BIF VERSION="0.3"><NETWORK><NAME>Test10NFNTE</NAME><VARIABLE TYPE="nature"><NAME>N0</NAME><OUTCOME>True</OUTCOME><OUTCOME>False</OUTCOME></VARIABLE><VARIABLE TYPE="nature"><NAME>N1</NAME><OUTCOME>True</OUTCOME><OUTCOME>False</OUTCOME></VARIABLE><VARIABLE TYPE="nature"><NAME>N2</NAME><OUTCOME>True</OUTCOME><OUTCOME>False</OUTCOME></VARIABLE><VARIABLE TYPE="nature"><NAME>N3</NAME><OUTCOME>True</OUTCOME><OUTCOME>False</OUTCOME></VARIABLE><VARIABLE TYPE="nature"><NAME>N4</NAME><OUTCOME>True</OUTCOME><OUTCOME>False</OUTCOME></VARIABLE><VARIABLE TYPE="nature"><NAME>N5</NAME><OUTCOME>True</OUTCOME><OUTCOME>False</OUTCOME></VARIABLE><VARIABLE TYPE="nature"><NAME>N6</NAME><OUTCOME>True</OUTCOME><OUTCOME>False</OUTCOME></VARIABLE><VARIABLE TYPE="nature"><NAME>N7</NAME><OUTCOME>True</OUTCOME><OUTCOME>False</OUTCOME></VARIABLE><VARIABLE TYPE="nature"><NAME>N8</NAME><OUTCOME>True</OUTCOME><OUTCOME>False</OUTCOME></VARIABLE><VARIABLE TYPE="nature"><NAME>N9</NAME><OUTCOME>True</OUTCOME><OUTCOME>False</OUTCOME></VARIABLE><DEFINITION><FOR>N0</FOR><TABLE>0.88 0.12</TABLE></DEFINITION><DEFINITION><FOR>N1</FOR><GIVEN>N0</GIVEN><TABLE>0.01 0.99 0.24 0.76</TABLE></DEFINITION><DEFINITION><FOR>N2</FOR><GIVEN>N0</GIVEN><GIVEN>N1</GIVEN><TABLE>0.72 0.28 0.86 0.14 0.6 0.4 0.96 0.040000000000000036</TABLE></DEFINITION><DEFINITION><FOR>N3</FOR><GIVEN>N0</GIVEN><GIVEN>N1</GIVEN><GIVEN>N2</GIVEN><TABLE>0.77 0.22999999999999998 0.45 0.55 0.34 0.6599999999999999 0.51 0.49 0.64 0.36 0.54 0.45999999999999996 0.02 0.98 0.02 0.98</TABLE></DEFINITION><DEFINITION><FOR>N4</FOR><GIVEN>N0</GIVEN><GIVEN>N1</GIVEN><GIVEN>N2</GIVEN><GIVEN>N3</GIVEN><TABLE>0.65 0.35 0.81 0.18999999999999995 0.27 0.73 0.09 0.91 0.35 0.65 0.37 0.63 0.34 0.6599999999999999 0.88 0.12 0.97 0.030000000000000027 0.23 0.77 0.45 0.55 0.68 0.31999999999999995 0.97 0.030000000000000027 0.77 0.22999999999999998 0.33 0.6699999999999999 0.27 0.73</TABLE></DEFINITION><DEFINITION><FOR>N5</FOR><GIVEN>N0</GIVEN><GIVEN>N1</GIVEN><GIVEN>N2</GIVEN><GIVEN>N3</GIVEN><GIVEN>N4</GIVEN><TABLE>0.59 0.41000000000000003 0.57 0.43000000000000005 0.61 0.39 0.81 0.18999999999999995 0.99 0.010000000000000009 0.7 0.30000000000000004 0.28 0.72 0.7 0.30000000000000004 0.11 0.89 0.86 0.14 0.68 0.31999999999999995 0.44 0.56 0.68 0.31999999999999995 0.66 0.33999999999999997 0.03 0.97 0.38 0.62 0.82 0.18000000000000005 0.57 0.43000000000000005 0.98 0.020000000000000018 0.59 0.41000000000000003 0.49 0.51 0.1 0.9 0.2 0.8 0.99 0.010000000000000009 0.28 0.72 0.37 0.63 0.12 0.88 0.55 0.44999999999999996 0.3 0.7 0.38 0.62 0.48 0.52 0.99 0.010000000000000009</TABLE></DEFINITION><DEFINITION><FOR>N6</FOR><GIVEN>N0</GIVEN><GIVEN>N1</GIVEN><GIVEN>N2</GIVEN><GIVEN>N3</GIVEN><GIVEN>N4</GIVEN><GIVEN>N5</GIVEN><TABLE>0.96 0.040000000000000036 0.97 0.030000000000000027 0.06 0.94 0.25 0.75 0.07 0.9299999999999999 0.33 0.6699999999999999 0.18 0.8200000000000001 0.82 0.18000000000000005 0.24 0.76 0.58 0.42000000000000004 0.4 0.6 0.16 0.84 0.4 0.6 0.23 0.77 0.48 0.52 0.03 0.97 0.16 0.84 0.47 0.53 0.38 0.62 0.94 0.06000000000000005 0.31 0.69 0.6 0.4 0.03 0.97 0.3 0.7 0.92 0.07999999999999996 0.99 0.010000000000000009 0.27 0.73 0.13 0.87 0.11 0.89 0.35 0.65 0.46 0.54 0.16 0.84 0.54 0.45999999999999996 0.89 0.10999999999999999 0.5 0.5 0.3 0.7 0.92 0.07999999999999996 0.26 0.74 0.26 0.74 0.02 0.98 0.94 0.06000000000000005 0.32 0.6799999999999999 0.14 0.86 0.48 0.52 0.26 0.74 0.33 0.6699999999999999 0.27 0.73 0.65 0.35 0.39 0.61 0.4 0.6 0.69 0.31000000000000005 0.73 0.27 0.43 0.5700000000000001 0.25 0.75 0.37 0.63 0.72 0.28 0.64 0.36 0.8 0.19999999999999996 0.77 0.22999999999999998 0.56 0.43999999999999995 0.15 0.85 0.63 0.37 0.24 0.76 0.57 0.43000000000000005</TABLE></DEFINITION><DEFINITION><FOR>N7</FOR><GIVEN>N0</GIVEN><GIVEN>N1</GIVEN><GIVEN>N2</GIVEN><GIVEN>N3</GIVEN><GIVEN>N4</GIVEN><GIVEN>N5</GIVEN><GIVEN>N6</GIVEN><TABLE>0.3 0.7 0.43 0.5700000000000001 0.28 0.72 0.04 0.96 0.62 0.38 0.97 0.030000000000000027 0.45 0.55 0.45 0.55 0.05 0.95 0.82 0.18000000000000005 0.94 0.06000000000000005 0.3 0.7 0.29 0.71 0.53 0.47 0.32 0.6799999999999999 0.43 0.5700000000000001 0.41 0.5900000000000001 0.2 0.8 0.87 0.13 0.38 0.62 0.14 0.86 0.47 0.53 0.19 0.81 0.74 0.26 0.19 0.81 0.87 0.13 0.7 0.30000000000000004 0.66 0.33999999999999997 0.4 0.6 0.11 0.89 0.53 0.47 0.09 0.91 0.84 0.16000000000000003 0.31 0.69 0.63 0.37 0.65 0.35 0.02 0.98 0.29 0.71 0.72 0.28 0.29 0.71 0.15 0.85 0.48 0.52 0.57 0.43000000000000005 0.35 0.65 0.52 0.48 0.83 0.17000000000000004 0.66 0.33999999999999997 0.69 0.31000000000000005 0.02 0.98 0.41 0.5900000000000001 0.04 0.96 0.79 0.20999999999999996 0.13 0.87 0.76 0.24 0.47 0.53 0.9 0.09999999999999998 0.1 0.9 0.57 0.43000000000000005 0.52 0.48 0.73 0.27 0.02 0.98 0.1 0.9 0.52 0.48 0.74 0.26 0.47 0.53 0.89 0.10999999999999999 0.34 0.6599999999999999 0.62 0.38 0.9 0.09999999999999998 0.16 0.84 0.52 0.48 0.11 0.89 0.38 0.62 0.71 0.29000000000000004 0.96 0.040000000000000036 0.39 0.61 0.94 0.06000000000000005 0.89 0.10999999999999999 0.62 0.38 0.54 0.45999999999999996 0.35 0.65 0.55 0.44999999999999996 0.14 0.86 0.38 0.62 0.77 0.22999999999999998 0.12 0.88 0.5 0.5 0.61 0.39 0.42 0.5800000000000001 0.78 0.21999999999999997 0.01 0.99 0.98 0.020000000000000018 0.47 0.53 0.53 0.47 0.99 0.010000000000000009 0.38 0.62 0.93 0.06999999999999995 0.24 0.76 0.22 0.78 0.48 0.52 0.88 0.12 0.5 0.5 0.13 0.87 0.55 0.44999999999999996 0.27 0.73 0.92 0.07999999999999996 0.88 0.12 0.11 0.89 0.8 0.19999999999999996 0.62 0.38 0.05 0.95 0.97 0.030000000000000027 0.38 0.62 0.18 0.8200000000000001 0.25 0.75 0.23 0.77 0.92 0.07999999999999996 0.43 0.5700000000000001 0.49 0.51 0.82 0.18000000000000005 0.1 0.9 0.72 0.28 0.5 0.5 0.13 0.87 0.55 0.44999999999999996 0.64 0.36 0.07 0.9299999999999999 0.7 0.30000000000000004</TABLE></DEFINITION><DEFINITION><FOR>N8</FOR><GIVEN>N0</GIVEN><GIVEN>N1</GIVEN><GIVEN>N2</GIVEN><GIVEN>N3</GIVEN><GIVEN>N4</GIVEN><GIVEN>N5</GIVEN><GIVEN>N6</GIVEN><GIVEN>N7</GIVEN><TABLE>0.99 0.010000000000000009 0.54 0.45999999999999996 0.61 0.39 0.69 0.31000000000000005 0.13 0.87 0.3 0.7 0.74 0.26 0.12 0.88 0.62 0.38 0.94 0.06000000000000005 0.54 0.45999999999999996 0.66 0.33999999999999997 0.53 0.47 0.68 0.31999999999999995 0.82 0.18000000000000005 0.01 0.99 0.23 0.77 0.66 0.33999999999999997 0.97 0.030000000000000027 0.09 0.91 0.96 0.040000000000000036 0.33 0.6699999999999999 0.32 0.6799999999999999 0.07 0.9299999999999999 0.59 0.41000000000000003 0.09 0.91 0.41 0.5900000000000001 0.51 0.49 0.63 0.37 0.04 0.96 0.23 0.77 0.51 0.49 0.69 0.31000000000000005 0.32 0.6799999999999999 0.12 0.88 0.08 0.92 0.87 0.13 0.28 0.72 0.87 0.13 0.72 0.28 0.82 0.18000000000000005 0.59 0.41000000000000003 0.7 0.30000000000000004 0.96 0.040000000000000036 0.92 0.07999999999999996 0.09 0.91 0.41 0.5900000000000001 0.49 0.51 0.57 0.43000000000000005 0.06 0.94 0.47 0.53 0.11 0.89 0.16 0.84 0.04 0.96 0.16 0.84 0.86 0.14 0.5 0.5 0.86 0.14 0.39 0.61 0.39 0.61 0.37 0.63 0.67 0.32999999999999996 0.42 0.5800000000000001 0.1 0.9 0.58 0.42000000000000004 0.32 0.6799999999999999 0.23 0.77 0.94 0.06000000000000005 0.09 0.91 0.69 0.31000000000000005 0.2 0.8 0.87 0.13 0.94 0.06000000000000005 0.16 0.84 0.62 0.38 0.41 0.5900000000000001 0.23 0.77 0.63 0.37 0.66 0.33999999999999997 0.63 0.37 0.28 0.72 0.5 0.5 0.23 0.77 0.65 0.35 0.21 0.79 0.77 0.22999999999999998 0.96 0.040000000000000036 0.4 0.6 0.08 0.92 0.45 0.55 0.95 0.050000000000000044 0.27 0.73 0.79 0.20999999999999996 0.75 0.25 0.05 0.95 0.89 0.10999999999999999 0.73 0.27 0.72 0.28 0.76 0.24 0.11 0.89 0.46 0.54 0.21 0.79 0.32 0.6799999999999999 0.43 0.5700000000000001 0.18 0.8200000000000001 0.11 0.89 0.13 0.87 0.07 0.9299999999999999 0.34 0.6599999999999999 0.23 0.77 0.81 0.18999999999999995 0.9 0.09999999999999998 0.82 0.18000000000000005 0.61 0.39 0.21 0.79 0.99 0.010000000000000009 0.18 0.8200000000000001 0.68 0.31999999999999995 0.72 0.28 0.83 0.17000000000000004 0.36 0.64 0.03 0.97 0.96 0.040000000000000036 0.46 0.54 0.44 0.56 0.85 0.15000000000000002 0.97 0.030000000000000027 0.42 0.5800000000000001 0.66 0.33999999999999997 0.99 0.010000000000000009 0.37 0.63 0.48 0.52 0.06 0.94 0.49 0.51 0.64 0.36 0.22 0.78 0.45 0.55 0.51 0.49 0.64 0.36 0.85 0.15000000000000002 0.5 0.5 0.75 0.25 0.21 0.79 0.39 0.61 0.54 0.45999999999999996 0.99 0.010000000000000009 0.37 0.63 0.05 0.95 0.1 0.9 0.64 0.36 0.44 0.56 0.84 0.16000000000000003 0.91 0.08999999999999997 0.1 0.9 0.01 0.99 0.09 0.91 0.59 0.41000000000000003 0.4 0.6 0.26 0.74 0.8 0.19999999999999996 0.93 0.06999999999999995 0.78 0.21999999999999997 0.56 0.43999999999999995 0.01 0.99 0.48 0.52 0.87 0.13 0.61 0.39 0.56 0.43999999999999995 0.36 0.64 0.27 0.73 0.17 0.83 0.62 0.38 0.11 0.89 0.37 0.63 0.86 0.14 0.22 0.78 0.64 0.36 0.63 0.37 0.42 0.5800000000000001 0.55 0.44999999999999996 0.86 0.14 0.82 0.18000000000000005 0.93 0.06999999999999995 0.14 0.86 0.24 0.76 0.34 0.6599999999999999 0.83 0.17000000000000004 0.19 0.81 0.26 0.74 0.76 0.24 0.95 0.050000000000000044 0.4 0.6 0.29 0.71 0.4 0.6 0.39 0.61 0.17 0.83 0.41 0.5900000000000001 0.66 0.33999999999999997 0.42 0.5800000000000001 0.43 0.5700000000000001 0.75 0.25 0.96 0.040000000000000036 0.05 0.95 0.71 0.29000000000000004 0.34 0.6599999999999999 0.74 0.26 0.76 0.24 0.86 0.14 0.6 0.4 0.75 0.25 0.34 0.6599999999999999 0.11 0.89 0.11 0.89 0.31 0.69 0.42 0.5800000000000001 0.35 0.65 0.51 0.49 0.63 0.37 0.65 0.35 0.12 0.88 0.05 0.95 0.98 0.020000000000000018 0.51 0.49 0.09 0.91 0.97 0.030000000000000027 0.98 0.020000000000000018 0.01 0.99 0.3 0.7 0.56 0.43999999999999995 0.48 0.52 0.88 0.12 0.09 0.91 0.28 0.72 0.22 0.78 0.06 0.94 0.11 0.89 0.35 0.65 0.74 0.26 0.3 0.7 0.52 0.48 0.46 0.54 0.04 0.96 0.13 0.87 0.44 0.56 0.67 0.32999999999999996 0.23 0.77 0.72 0.28 0.03 0.97 0.75 0.25 0.15 0.85 0.24 0.76 0.31 0.69 0.59 0.41000000000000003 0.84 0.16000000000000003 0.87 0.13 0.34 0.6599999999999999</TABLE></DEFINITION><DEFINITION><FOR>N9</FOR><GIVEN>N0</GIVEN><GIVEN>N1</GIVEN><GIVEN>N2</GIVEN><GIVEN>N3</GIVEN><GIVEN>N4</GIVEN><GIVEN>N5</GIVEN><GIVEN>N6</GIVEN><GIVEN>N7</GIVEN><GIVEN>N8</GIVEN><TABLE>0.36 0.64 0.81 0.18999999999999995 0.18 0.8200000000000001 0.32 0.6799999999999999 0.58 0.42000000000000004 0.27 0.73 0.14 0.86 0.95 0.050000000000000044 0.54 0.45999999999999996 0.37 0.63 0.69 0.31000000000000005 0.77 0.22999999999999998 0.04 0.96 0.13 0.87 0.3 0.7 0.13 0.87 0.15 0.85 0.79 0.20999999999999996 0.65 0.35 0.93 0.06999999999999995 0.81 0.18999999999999995 0.62 0.38 0.71 0.29000000000000004 0.5 0.5 0.75 0.25 0.64 0.36 0.53 0.47 0.45 0.55 0.63 0.37 0.08 0.92 0.73 0.27 0.97 0.030000000000000027 0.27 0.73 0.66 0.33999999999999997 0.52 0.48 0.05 0.95 0.74 0.26 0.88 0.12 0.23 0.77 0.76 0.24 0.42 0.5800000000000001 0.03 0.97 0.5 0.5 0.58 0.42000000000000004 0.28 0.72 0.12 0.88 0.4 0.6 0.88 0.12 0.78 0.21999999999999997 0.89 0.10999999999999999 0.16 0.84 0.31 0.69 0.48 0.52 0.47 0.53 0.73 0.27 0.8 0.19999999999999996 0.72 0.28 0.44 0.56 0.67 0.32999999999999996 0.41 0.5900000000000001 0.17 0.83 0.19 0.81 0.04 0.96 0.26 0.74 0.76 0.24 0.7 0.30000000000000004 0.67 0.32999999999999996 0.06 0.94 0.23 0.77 0.16 0.84 0.85 0.15000000000000002 0.78 0.21999999999999997 0.98 0.020000000000000018 0.37 0.63 0.44 0.56 0.99 0.010000000000000009 0.4 0.6 0.3 0.7 0.9 0.09999999999999998 0.49 0.51 0.01 0.99 0.9 0.09999999999999998 0.82 0.18000000000000005 0.68 0.31999999999999995 0.35 0.65 0.67 0.32999999999999996 0.04 0.96 0.15 0.85 0.09 0.91 0.91 0.08999999999999997 0.32 0.6799999999999999 0.75 0.25 0.66 0.33999999999999997 0.28 0.72 0.6 0.4 0.13 0.87 0.79 0.20999999999999996 0.57 0.43000000000000005 0.84 0.16000000000000003 0.47 0.53 0.33 0.6699999999999999 0.73 0.27 0.24 0.76 0.93 0.06999999999999995 0.75 0.25 0.88 0.12 0.12 0.88 0.28 0.72 0.62 0.38 0.41 0.5900000000000001 0.44 0.56 0.04 0.96 0.96 0.040000000000000036 0.28 0.72 0.06 0.94 0.85 0.15000000000000002 0.91 0.08999999999999997 0.38 0.62 0.72 0.28 0.76 0.24 0.51 0.49 0.78 0.21999999999999997 0.57 0.43000000000000005 0.23 0.77 0.58 0.42000000000000004 0.53 0.47 0.34 0.6599999999999999 0.59 0.41000000000000003 0.93 0.06999999999999995 0.12 0.88 0.58 0.42000000000000004 0.07 0.9299999999999999 0.7 0.30000000000000004 0.26 0.74 0.65 0.35 0.32 0.6799999999999999 0.61 0.39 0.47 0.53 0.8 0.19999999999999996 0.29 0.71 0.72 0.28 0.65 0.35 0.38 0.62 0.63 0.37 0.25 0.75 0.28 0.72 0.1 0.9 0.62 0.38 0.18 0.8200000000000001 0.9 0.09999999999999998 0.69 0.31000000000000005 0.95 0.050000000000000044 0.48 0.52 0.01 0.99 0.49 0.51 0.5 0.5 0.2 0.8 0.02 0.98 0.87 0.13 0.77 0.22999999999999998 0.77 0.22999999999999998 0.54 0.45999999999999996 0.65 0.35 0.13 0.87 0.27 0.73 0.38 0.62 0.06 0.94 0.72 0.28 0.87 0.13 0.34 0.6599999999999999 0.12 0.88 0.1 0.9 0.33 0.6699999999999999 0.97 0.030000000000000027 0.58 0.42000000000000004 0.97 0.030000000000000027 0.73 0.27 0.86 0.14 0.73 0.27 0.28 0.72 0.66 0.33999999999999997 0.22 0.78 0.47 0.53 0.33 0.6699999999999999 0.95 0.050000000000000044 0.76 0.24 0.84 0.16000000000000003 0.23 0.77 0.5 0.5 0.92 0.07999999999999996 0.39 0.61 0.31 0.69 0.47 0.53 0.99 0.010000000000000009 0.08 0.92 0.72 0.28 0.2 0.8 0.31 0.69 0.19 0.81 0.02 0.98 0.02 0.98 0.63 0.37 0.15 0.85 0.59 0.41000000000000003 0.08 0.92 0.53 0.47 0.43 0.5700000000000001 0.71 0.29000000000000004 0.19 0.81 0.86 0.14 0.77 0.22999999999999998 0.54 0.45999999999999996 0.04 0.96 0.19 0.81 0.48 0.52 0.54 0.45999999999999996 0.72 0.28 0.68 0.31999999999999995 0.76 0.24 0.38 0.62 0.48 0.52 0.34 0.6599999999999999 0.25 0.75 0.89 0.10999999999999999 0.9 0.09999999999999998 0.44 0.56 0.82 0.18000000000000005 0.26 0.74 0.44 0.56 0.2 0.8 0.89 0.10999999999999999 0.36 0.64 0.1 0.9 0.84 0.16000000000000003 0.1 0.9 0.22 0.78 0.08 0.92 0.1 0.9 0.45 0.55 0.49 0.51 0.65 0.35 0.63 0.37 0.03 0.97 0.85 0.15000000000000002 0.29 0.71 0.87 0.13 0.53 0.47 0.51 0.49 0.97 0.030000000000000027 0.44 0.56 0.49 0.51 0.21 0.79 0.21 0.79 0.93 0.06999999999999995 0.85 0.15000000000000002 0.38 0.62 0.86 0.14 0.85 0.15000000000000002 0.86 0.14 0.9 0.09999999999999998 0.54 0.45999999999999996 0.54 0.45999999999999996 0.2 0.8 0.56 0.43999999999999995 0.52 0.48 0.13 0.87 0.67 0.32999999999999996 0.02 0.98 0.39 0.61 0.17 0.83 0.86 0.14 0.27 0.73 0.46 0.54 0.84 0.16000000000000003 0.7 0.30000000000000004 0.02 0.98 0.99 0.010000000000000009 0.78 0.21999999999999997 0.88 0.12 0.74 0.26 0.62 0.38 0.98 0.020000000000000018 0.05 0.95 0.13 0.87 0.02 0.98 0.13 0.87 0.02 0.98 0.8 0.19999999999999996 0.17 0.83 0.23 0.77 0.96 0.040000000000000036 0.6 0.4 0.63 0.37 0.12 0.88 0.44 0.56 0.36 0.64 0.47 0.53 0.04 0.96 0.26 0.74 0.18 0.8200000000000001 0.95 0.050000000000000044 0.5 0.5 0.93 0.06999999999999995 0.86 0.14 0.29 0.71 0.47 0.53 0.87 0.13 0.42 0.5800000000000001 0.41 0.5900000000000001 0.69 0.31000000000000005 0.63 0.37 0.55 0.44999999999999996 0.47 0.53 0.96 0.040000000000000036 0.13 0.87 0.95 0.050000000000000044 0.16 0.84 0.28 0.72 0.66 0.33999999999999997 0.01 0.99 0.81 0.18999999999999995 0.9 0.09999999999999998 0.95 0.050000000000000044 0.85 0.15000000000000002 0.69 0.31000000000000005 0.13 0.87 0.94 0.06000000000000005 0.52 0.48 0.7 0.30000000000000004 0.61 0.39 0.44 0.56 0.73 0.27 0.07 0.9299999999999999 0.6 0.4 0.97 0.030000000000000027 0.11 0.89 0.77 0.22999999999999998 0.57 0.43000000000000005 0.08 0.92 0.93 0.06999999999999995 0.4 0.6 0.84 0.16000000000000003 0.79 0.20999999999999996 0.02 0.98 0.53 0.47 0.3 0.7 0.76 0.24 0.01 0.99 0.88 0.12 0.93 0.06999999999999995 0.96 0.040000000000000036 0.38 0.62 0.58 0.42000000000000004 0.88 0.12 0.01 0.99 0.65 0.35 0.67 0.32999999999999996 0.28 0.72 0.69 0.31000000000000005 0.69 0.31000000000000005 0.38 0.62 0.81 0.18999999999999995 0.32 0.6799999999999999 0.23 0.77 0.15 0.85 0.42 0.5800000000000001 0.05 0.95 0.69 0.31000000000000005 0.63 0.37 0.12 0.88 0.1 0.9 0.95 0.050000000000000044 0.34 0.6599999999999999 0.53 0.47 0.35 0.65 0.07 0.9299999999999999 0.1 0.9 0.21 0.79 0.06 0.94 0.55 0.44999999999999996 0.8 0.19999999999999996 0.65 0.35 0.01 0.99 0.24 0.76 0.09 0.91 0.79 0.20999999999999996 0.13 0.87 0.41 0.5900000000000001 0.59 0.41000000000000003 0.73 0.27 0.17 0.83 0.06 0.94 0.17 0.83 0.58 0.42000000000000004 0.02 0.98 0.3 0.7 0.36 0.64 0.09 0.91 0.96 0.040000000000000036 0.27 0.73 0.47 0.53 0.96 0.040000000000000036 0.74 0.26 0.1 0.9 0.87 0.13 0.26 0.74 0.87 0.13 0.91 0.08999999999999997 0.25 0.75 0.42 0.5800000000000001 0.1 0.9 0.34 0.6599999999999999 0.57 0.43000000000000005 0.5 0.5 0.96 0.040000000000000036 0.82 0.18000000000000005 0.98 0.020000000000000018 0.88 0.12 0.32 0.6799999999999999 0.08 0.92 0.31 0.69 0.53 0.47 0.51 0.49 0.54 0.45999999999999996 0.28 0.72 0.8 0.19999999999999996 0.13 0.87 0.96 0.040000000000000036 0.04 0.96 0.33 0.6699999999999999 0.18 0.8200000000000001 0.09 0.91 0.97 0.030000000000000027 0.06 0.94 0.94 0.06000000000000005 0.92 0.07999999999999996 0.76 0.24 0.47 0.53 0.3 0.7 0.71 0.29000000000000004 0.68 0.31999999999999995 0.57 0.43000000000000005 0.84 0.16000000000000003 0.19 0.81 0.46 0.54 0.41 0.5900000000000001 0.96 0.040000000000000036 0.19 0.81 0.51 0.49 0.27 0.73 0.31 0.69 0.87 0.13 0.05 0.95 0.9 0.09999999999999998 0.76 0.24 0.75 0.25 0.95 0.050000000000000044 0.66 0.33999999999999997 0.54 0.45999999999999996 0.9 0.09999999999999998 0.44 0.56 0.67 0.32999999999999996 0.32 0.6799999999999999 0.91 0.08999999999999997 0.71 0.29000000000000004 0.79 0.20999999999999996 0.43 0.5700000000000001 0.19 0.81 0.78 0.21999999999999997 0.62 0.38 0.67 0.32999999999999996 0.99 0.010000000000000009 0.78 0.21999999999999997 0.01 0.99 0.7 0.30000000000000004 0.18 0.8200000000000001 0.3 0.7 0.62 0.38 0.89 0.10999999999999999 0.22 0.78 0.03 0.97 0.53 0.47 0.47 0.53 0.94 0.06000000000000005 0.62 0.38 0.34 0.6599999999999999 0.81 0.18999999999999995 0.22 0.78 0.89 0.10999999999999999 0.2 0.8 0.43 0.5700000000000001 0.88 0.12 0.2 0.8 0.15 0.85 0.79 0.20999999999999996 0.57 0.43000000000000005 0.79 0.20999999999999996 0.38 0.62 0.42 0.5800000000000001 0.79 0.20999999999999996 0.07 0.9299999999999999 0.37 0.63 0.72 0.28 0.71 0.29000000000000004 0.14 0.86 0.86 0.14 0.37 0.63 0.99 0.010000000000000009 0.86 0.14 0.21 0.79 0.73 0.27 0.72 0.28</TABLE></DEFINITION></NETWORK></BIF>