<BIF VERSION="0.3"><NETWORK><NAME>Test11NFNTE</NAME><VARIABLE TYPE="nature"><NAME>N0</NAME><OUTCOME>True</OUTCOME><OUTCOME>False</OUTCOME></VARIABLE><VARIABLE TYPE="nature"><NAME>N1</NAME><OUTCOME>True</OUTCOME><OUTCOME>False</OUTCOME></VARIABLE><VARIABLE TYPE="nature"><NAME>N2</NAME><OUTCOME>True</OUTCOME><OUTCOME>False</OUTCOME></VARIABLE><VARIABLE TYPE="nature"><NAME>N3</NAME><OUTCOME>True</OUTCOME><OUTCOME>False</OUTCOME></VARIABLE><VARIABLE TYPE="nature"><NAME>N4</NAME><OUTCOME>True</OUTCOME><OUTCOME>False</OUTCOME></VARIABLE><VARIABLE TYPE="nature"><NAME>N5</NAME><OUTCOME>True</OUTCOME><OUTCOME>False</OUTCOME></VARIABLE><VARIABLE TYPE="nature"><NAME>N6</NAME><OUTCOME>True</OUTCOME><OUTCOME>False</OUTCOME></VARIABLE><VARIABLE TYPE="nature"><NAME>N7</NAME><OUTCOME>True</OUTCOME><OUTCOME>False</OUTCOME></VARIABLE><VARIABLE TYPE="nature"><NAME>N8</NAME><OUTCOME>True</OUTCOME><OUTCOME>False</OUTCOME></VARIABLE><VARIABLE TYPE="nature"><NAME>N9</NAME><OUTCOME>True</OUTCOME><OUTCOME>False</OUTCOME></VARIABLE><VARIABLE TYPE="nature"><NAME>N10</NAME><OUTCOME>True</OUTCOME><OUTCOME>False</OUTCOME></VARIABLE><DEFINITION><FOR>N0</FOR><TABLE>0.67 0.32999999999999996</TABLE></DEFINITION><DEFINITION><FOR>N1</FOR><GIVEN>N0</GIVEN><TABLE>0.07 0.9299999999999999 0.66 0.33999999999999997</TABLE></DEFINITION><DEFINITION><FOR>N2</FOR><GIVEN>N1</GIVEN><TABLE>0.7 0.30000000000000004 0.24 0.76</TABLE></DEFINITION><DEFINITION><FOR>N3</FOR><GIVEN>N2</GIVEN><TABLE>0.14 0.86 0.12 0.88</TABLE></DEFINITION><DEFINITION><FOR>N4</FOR><GIVEN>N3</GIVEN><TABLE>0.87 0.13 0.66 0.33999999999999997</TABLE></DEFINITION><DEFINITION><FOR>N5</FOR><GIVEN>N4</GIVEN><TABLE>0.67 0.32999999999999996 0.99 0.010000000000000009</TABLE></DEFINITION><DEFINITION><FOR>N6</FOR><GIVEN>N5</GIVEN><TABLE>0.36 0.64 0.65 0.35</TABLE></DEFINITION><DEFINITION><FOR>N7</FOR><GIVEN>N6</GIVEN><TABLE>0.18 0.8200000000000001 0.07 0.9299999999999999</TABLE></DEFINITION><DEFINITION><FOR>N8</FOR><GIVEN>N7</GIVEN><TABLE>0.49 0.51 0.16 0.84</TABLE></DEFINITION><DEFINITION><FOR>N9</FOR><GIVEN>N8</GIVEN><TABLE>0.81 0.18999999999999995 0.1 0.9</TABLE></DEFINITION><DEFINITION><FOR>N10</FOR><GIVEN>N9</GIVEN><TABLE>0.4 0.6 0.22 0.78</TABLE></DEFINITION></NETWORK></BIF>