<BIF VERSION="0.3"><NETWORK><NAME>Test12NFNTE</NAME><VARIABLE TYPE="nature"><NAME>N0</NAME><OUTCOME>True</OUTCOME><OUTCOME>False</OUTCOME></VARIABLE><VARIABLE TYPE="nature"><NAME>N1</NAME><OUTCOME>True</OUTCOME><OUTCOME>False</OUTCOME></VARIABLE><VARIABLE TYPE="nature"><NAME>N2</NAME><OUTCOME>True</OUTCOME><OUTCOME>False</OUTCOME></VARIABLE><VARIABLE TYPE="nature"><NAME>N3</NAME><OUTCOME>True</OUTCOME><OUTCOME>False</OUTCOME></VARIABLE><VARIABLE TYPE="nature"><NAME>N4</NAME><OUTCOME>True</OUTCOME><OUTCOME>False</OUTCOME></VARIABLE><VARIABLE TYPE="nature"><NAME>N5</NAME><OUTCOME>True</OUTCOME><OUTCOME>False</OUTCOME></VARIABLE><VARIABLE TYPE="nature"><NAME>N6</NAME><OUTCOME>True</OUTCOME><OUTCOME>False</OUTCOME></VARIABLE><VARIABLE TYPE="nature"><NAME>N7</NAME><OUTCOME>True</OUTCOME><OUTCOME>False</OUTCOME></VARIABLE><VARIABLE TYPE="nature"><NAME>N8</NAME><OUTCOME>True</OUTCOME><OUTCOME>False</OUTCOME></VARIABLE><VARIABLE TYPE="nature"><NAME>N9</NAME><OUTCOME>True</OUTCOME><OUTCOME>False</OUTCOME></VARIABLE><VARIABLE TYPE="nature"><NAME>N10</NAME><OUTCOME>True</OUTCOME><OUTCOME>False</OUTCOME></VARIABLE><VARIABLE TYPE="nature"><NAME>N11</NAME><OUTCOME>True</OUTCOME><OUTCOME>False</OUTCOME></VARIABLE><DEFINITION><FOR>N0</FOR><GIVEN>N1</GIVEN><TABLE>0.32 0.6799999999999999 0.4 0.6</TABLE></DEFINITION><DEFINITION><FOR>N1</FOR><GIVEN>N2</GIVEN><TABLE>0.03 0.97 0.92 0.07999999999999996</TABLE></DEFINITION><DEFINITION><FOR>N2</FOR><GIVEN>N3</GIVEN><TABLE>0.83 0.17000000000000004 0.91 0.08999999999999997</TABLE></DEFINITION><DEFINITION><FOR>N3</FOR><GIVEN>N4</GIVEN><TABLE>0.14 0.86 0.74 0.26</TABLE></DEFINITION><DEFINITION><FOR>N4</FOR><GIVEN>N5</GIVEN><TABLE>0.02 0.98 0.41 0.5900000000000001</TABLE></DEFINITION><DEFINITION><FOR>N5</FOR><GIVEN>N6</GIVEN><TABLE>0.73 0.27 0.54 0.45999999999999996</TABLE></DEFINITION><DEFINITION><FOR>N6</FOR><GIVEN>N7</GIVEN><TABLE>0.66 0.33999999999999997 0.16 0.84</TABLE></DEFINITION><DEFINITION><FOR>N7</FOR><GIVEN>N8</GIVEN><TABLE>0.84 0.16000000000000003 0.38 0.62</TABLE></DEFINITION><DEFINITION><FOR>N8</FOR><GIVEN>N9</GIVEN><TABLE>0.4 0.6 0.64 0.36</TABLE></DEFINITION><DEFINITION><FOR>N9</FOR><GIVEN>N10</GIVEN><TABLE>0.78 0.21999999999999997 0.09 0.91</TABLE></DEFINITION><DEFINITION><FOR>N10</FOR><TABLE>0.67 0.32999999999999996</TABLE></DEFINITION><DEFINITION><FOR>N11</FOR><TABLE>0.92 0.07999999999999996</TABLE></DEFINITION></NETWORK></BIF>