<BIF VERSION="0.3"><NETWORK><NAME>Test13NFNTE</NAME><VARIABLE TYPE="nature"><NAME>N0</NAME><OUTCOME>True</OUTCOME><OUTCOME>False</OUTCOME></VARIABLE><VARIABLE TYPE="nature"><NAME>N1</NAME><OUTCOME>True</OUTCOME><OUTCOME>False</OUTCOME></VARIABLE><VARIABLE TYPE="nature"><NAME>N2</NAME><OUTCOME>True</OUTCOME><OUTCOME>False</OUTCOME></VARIABLE><VARIABLE TYPE="nature"><NAME>N3</NAME><OUTCOME>True</OUTCOME><OUTCOME>False</OUTCOME></VARIABLE><VARIABLE TYPE="nature"><NAME>N4</NAME><OUTCOME>True</OUTCOME><OUTCOME>False</OUTCOME></VARIABLE><VARIABLE TYPE="nature"><NAME>N5</NAME><OUTCOME>True</OUTCOME><OUTCOME>False</OUTCOME></VARIABLE><VARIABLE TYPE="nature"><NAME>N6</NAME><OUTCOME>True</OUTCOME><OUTCOME>False</OUTCOME></VARIABLE><VARIABLE TYPE="nature"><NAME>N7</NAME><OUTCOME>True</OUTCOME><OUTCOME>False</OUTCOME></VARIABLE><VARIABLE TYPE="nature"><NAME>N8</NAME><OUTCOME>True</OUTCOME><OUTCOME>False</OUTCOME></VARIABLE><VARIABLE TYPE="nature"><NAME>N9</NAME><OUTCOME>True</OUTCOME><OUTCOME>False</OUTCOME></VARIABLE><VARIABLE TYPE="nature"><NAME>N10</NAME><OUTCOME>True</OUTCOME><OUTCOME>False</OUTCOME></VARIABLE><VARIABLE TYPE="nature"><NAME>N11</NAME><OUTCOME>True</OUTCOME><OUTCOME>False</OUTCOME></VARIABLE><VARIABLE TYPE="nature"><NAME>N12</NAME><OUTCOME>True</OUTCOME><OUTCOME>False</OUTCOME></VARIABLE><DEFINITION><FOR>N3</FOR><GIVEN>N0</GIVEN><TABLE>0.47 0.53 0.33 0.6699999999999999</TABLE></DEFINITION><DEFINITION><FOR>N4</FOR><GIVEN>N1</GIVEN><TABLE>0.61 0.39 0.89 0.10999999999999999</TABLE></DEFINITION><DEFINITION><FOR>N5</FOR><GIVEN>N2</GIVEN><TABLE>0.91 0.08999999999999997 0.68 0.31999999999999995</TABLE></DEFINITION><DEFINITION><FOR>N6</FOR><GIVEN>N3</GIVEN><TABLE>0.01 0.99 0.89 0.10999999999999999</TABLE></DEFINITION><DEFINITION><FOR>N7</FOR><GIVEN>N4</GIVEN><TABLE>0.23 0.77 0.59 0.41000000000000003</TABLE></DEFINITION><DEFINITION><FOR>N8</FOR><GIVEN>N5</GIVEN><TABLE>0.81 0.18999999999999995 0.29 0.71</TABLE></DEFINITION><DEFINITION><FOR>N9</FOR><GIVEN>N6</GIVEN><TABLE>0.61 0.39 0.29 0.71</TABLE></DEFINITION><DEFINITION><FOR>N10</FOR><GIVEN>N7</GIVEN><TABLE>0.13 0.87 0.11 0.89</TABLE></DEFINITION><DEFINITION><FOR>N11</FOR><GIVEN>N8</GIVEN><TABLE>0.42 0.5800000000000001 0.68 0.31999999999999995</TABLE></DEFINITION><DEFINITION><FOR>N12</FOR><GIVEN>N9</GIVEN><TABLE>0.93 0.06999999999999995 0.57 0.43000000000000005</TABLE></DEFINITION></NETWORK></BIF>