<BIF VERSION="0.3"><NETWORK><NAME>Test13NFNTE</NAME><VARIABLE TYPE="nature"><NAME>N0</NAME><OUTCOME>True</OUTCOME><OUTCOME>False</OUTCOME></VARIABLE><VARIABLE TYPE="nature"><NAME>N1</NAME><OUTCOME>True</OUTCOME><OUTCOME>False</OUTCOME></VARIABLE><VARIABLE TYPE="nature"><NAME>N2</NAME><OUTCOME>True</OUTCOME><OUTCOME>False</OUTCOME></VARIABLE><VARIABLE TYPE="nature"><NAME>N3</NAME><OUTCOME>True</OUTCOME><OUTCOME>False</OUTCOME></VARIABLE><VARIABLE TYPE="nature"><NAME>N4</NAME><OUTCOME>True</OUTCOME><OUTCOME>False</OUTCOME></VARIABLE><VARIABLE TYPE="nature"><NAME>N5</NAME><OUTCOME>True</OUTCOME><OUTCOME>False</OUTCOME></VARIABLE><VARIABLE TYPE="nature"><NAME>N6</NAME><OUTCOME>True</OUTCOME><OUTCOME>False</OUTCOME></VARIABLE><VARIABLE TYPE="nature"><NAME>N7</NAME><OUTCOME>True</OUTCOME><OUTCOME>False</OUTCOME></VARIABLE><VARIABLE TYPE="nature"><NAME>N8</NAME><OUTCOME>True</OUTCOME><OUTCOME>False</OUTCOME></VARIABLE><VARIABLE TYPE="nature"><NAME>N9</NAME><OUTCOME>True</OUTCOME><OUTCOME>False</OUTCOME></VARIABLE><VARIABLE TYPE="nature"><NAME>N10</NAME><OUTCOME>True</OUTCOME><OUTCOME>False</OUTCOME></VARIABLE><VARIABLE TYPE="nature"><NAME>N11</NAME><OUTCOME>True</OUTCOME><OUTCOME>False</OUTCOME></VARIABLE><VARIABLE TYPE="nature"><NAME>N12</NAME><OUTCOME>True</OUTCOME><OUTCOME>False</OUTCOME></VARIABLE><DEFINITION><FOR>N2</FOR><GIVEN>N0</GIVEN><TABLE>0.02 0.98 0.73 0.27</TABLE></DEFINITION><DEFINITION><FOR>N3</FOR><GIVEN>N1</GIVEN><TABLE>0.76 0.24 0.32 0.6799999999999999</TABLE></DEFINITION><DEFINITION><FOR>N4</FOR><GIVEN>N2</GIVEN><TABLE>0.74 0.26 0.13 0.87</TABLE></DEFINITION><DEFINITION><FOR>N5</FOR><GIVEN>N3</GIVEN><TABLE>0.98 0.020000000000000018 0.85 0.15000000000000002</TABLE></DEFINITION><DEFINITION><FOR>N6</FOR><GIVEN>N4</GIVEN><TABLE>0.17 0.83 0.33 0.6699999999999999</TABLE></DEFINITION><DEFINITION><FOR>N7</FOR><GIVEN>N5</GIVEN><TABLE>0.52 0.48 0.82 0.18000000000000005</TABLE></DEFINITION><DEFINITION><FOR>N8</FOR><GIVEN>N6</GIVEN><TABLE>0.84 0.16000000000000003 0.85 0.15000000000000002</TABLE></DEFINITION><DEFINITION><FOR>N9</FOR><GIVEN>N7</GIVEN><TABLE>0.82 0.18000000000000005 0.16 0.84</TABLE></DEFINITION><DEFINITION><FOR>N10</FOR><GIVEN>N8</GIVEN><TABLE>0.44 0.56 0.95 0.050000000000000044</TABLE></DEFINITION><DEFINITION><FOR>N11</FOR><GIVEN>N9</GIVEN><TABLE>0.41 0.5900000000000001 0.79 0.20999999999999996</TABLE></DEFINITION><DEFINITION><FOR>N12</FOR><GIVEN>N10</GIVEN><TABLE>0.55 0.44999999999999996 0.01 0.99</TABLE></DEFINITION></NETWORK></BIF>