<BIF VERSION="0.3"><NETWORK><NAME>Test14NFNTE</NAME><VARIABLE TYPE="nature"><NAME>N0</NAME><OUTCOME>True</OUTCOME><OUTCOME>False</OUTCOME></VARIABLE><VARIABLE TYPE="nature"><NAME>N1</NAME><OUTCOME>True</OUTCOME><OUTCOME>False</OUTCOME></VARIABLE><VARIABLE TYPE="nature"><NAME>N2</NAME><OUTCOME>True</OUTCOME><OUTCOME>False</OUTCOME></VARIABLE><VARIABLE TYPE="nature"><NAME>N3</NAME><OUTCOME>True</OUTCOME><OUTCOME>False</OUTCOME></VARIABLE><VARIABLE TYPE="nature"><NAME>N4</NAME><OUTCOME>True</OUTCOME><OUTCOME>False</OUTCOME></VARIABLE><VARIABLE TYPE="nature"><NAME>N5</NAME><OUTCOME>True</OUTCOME><OUTCOME>False</OUTCOME></VARIABLE><VARIABLE TYPE="nature"><NAME>N6</NAME><OUTCOME>True</OUTCOME><OUTCOME>False</OUTCOME></VARIABLE><VARIABLE TYPE="nature"><NAME>N7</NAME><OUTCOME>True</OUTCOME><OUTCOME>False</OUTCOME></VARIABLE><VARIABLE TYPE="nature"><NAME>N8</NAME><OUTCOME>True</OUTCOME><OUTCOME>False</OUTCOME></VARIABLE><VARIABLE TYPE="nature"><NAME>N9</NAME><OUTCOME>True</OUTCOME><OUTCOME>False</OUTCOME></VARIABLE><VARIABLE TYPE="nature"><NAME>N10</NAME><OUTCOME>True</OUTCOME><OUTCOME>False</OUTCOME></VARIABLE><VARIABLE TYPE="nature"><NAME>N11</NAME><OUTCOME>True</OUTCOME><OUTCOME>False</OUTCOME></VARIABLE><VARIABLE TYPE="nature"><NAME>N12</NAME><OUTCOME>True</OUTCOME><OUTCOME>False</OUTCOME></VARIABLE><VARIABLE TYPE="nature"><NAME>N13</NAME><OUTCOME>True</OUTCOME><OUTCOME>False</OUTCOME></VARIABLE><DEFINITION><FOR>N3</FOR><GIVEN>N0</GIVEN><TABLE>0.04 0.96 0.25 0.75</TABLE></DEFINITION><DEFINITION><FOR>N4</FOR><GIVEN>N1</GIVEN><TABLE>0.51 0.49 0.54 0.45999999999999996</TABLE></DEFINITION><DEFINITION><FOR>N5</FOR><GIVEN>N2</GIVEN><TABLE>0.09 0.91 0.3 0.7</TABLE></DEFINITION><DEFINITION><FOR>N6</FOR><GIVEN>N3</GIVEN><TABLE>0.47 0.53 0.41 0.5900000000000001</TABLE></DEFINITION><DEFINITION><FOR>N7</FOR><GIVEN>N4</GIVEN><TABLE>0.81 0.18999999999999995 0.33 0.6699999999999999</TABLE></DEFINITION><DEFINITION><FOR>N8</FOR><GIVEN>N5</GIVEN><TABLE>0.31 0.69 0.66 0.33999999999999997</TABLE></DEFINITION><DEFINITION><FOR>N9</FOR><GIVEN>N6</GIVEN><TABLE>0.8 0.19999999999999996 0.66 0.33999999999999997</TABLE></DEFINITION><DEFINITION><FOR>N10</FOR><GIVEN>N7</GIVEN><TABLE>0.72 0.28 0.59 0.41000000000000003</TABLE></DEFINITION><DEFINITION><FOR>N11</FOR><GIVEN>N8</GIVEN><TABLE>0.24 0.76 0.77 0.22999999999999998</TABLE></DEFINITION><DEFINITION><FOR>N12</FOR><GIVEN>N9</GIVEN><TABLE>0.95 0.050000000000000044 0.73 0.27</TABLE></DEFINITION><DEFINITION><FOR>N13</FOR><GIVEN>N10</GIVEN><TABLE>0.12 0.88 0.25 0.75</TABLE></DEFINITION></NETWORK></BIF>