<BIF VERSION="0.3"><NETWORK><NAME>Test14NFNTE</NAME><VARIABLE TYPE="nature"><NAME>N0</NAME><OUTCOME>True</OUTCOME><OUTCOME>False</OUTCOME></VARIABLE><VARIABLE TYPE="nature"><NAME>N1</NAME><OUTCOME>True</OUTCOME><OUTCOME>False</OUTCOME></VARIABLE><VARIABLE TYPE="nature"><NAME>N2</NAME><OUTCOME>True</OUTCOME><OUTCOME>False</OUTCOME></VARIABLE><VARIABLE TYPE="nature"><NAME>N3</NAME><OUTCOME>True</OUTCOME><OUTCOME>False</OUTCOME></VARIABLE><VARIABLE TYPE="nature"><NAME>N4</NAME><OUTCOME>True</OUTCOME><OUTCOME>False</OUTCOME></VARIABLE><VARIABLE TYPE="nature"><NAME>N5</NAME><OUTCOME>True</OUTCOME><OUTCOME>False</OUTCOME></VARIABLE><VARIABLE TYPE="nature"><NAME>N6</NAME><OUTCOME>True</OUTCOME><OUTCOME>False</OUTCOME></VARIABLE><VARIABLE TYPE="nature"><NAME>N7</NAME><OUTCOME>True</OUTCOME><OUTCOME>False</OUTCOME></VARIABLE><VARIABLE TYPE="nature"><NAME>N8</NAME><OUTCOME>True</OUTCOME><OUTCOME>False</OUTCOME></VARIABLE><VARIABLE TYPE="nature"><NAME>N9</NAME><OUTCOME>True</OUTCOME><OUTCOME>False</OUTCOME></VARIABLE><VARIABLE TYPE="nature"><NAME>N10</NAME><OUTCOME>True</OUTCOME><OUTCOME>False</OUTCOME></VARIABLE><VARIABLE TYPE="nature"><NAME>N11</NAME><OUTCOME>True</OUTCOME><OUTCOME>False</OUTCOME></VARIABLE><VARIABLE TYPE="nature"><NAME>N12</NAME><OUTCOME>True</OUTCOME><OUTCOME>False</OUTCOME></VARIABLE><VARIABLE TYPE="nature"><NAME>N13</NAME><OUTCOME>True</OUTCOME><OUTCOME>False</OUTCOME></VARIABLE><DEFINITION><FOR>N2</FOR><GIVEN>N0</GIVEN><TABLE>0.63 0.37 0.33 0.6699999999999999</TABLE></DEFINITION><DEFINITION><FOR>N3</FOR><GIVEN>N1</GIVEN><TABLE>0.02 0.98 0.06 0.94</TABLE></DEFINITION><DEFINITION><FOR>N4</FOR><GIVEN>N2</GIVEN><TABLE>0.7 0.30000000000000004 0.35 0.65</TABLE></DEFINITION><DEFINITION><FOR>N5</FOR><GIVEN>N3</GIVEN><TABLE>0.7 0.30000000000000004 0.78 0.21999999999999997</TABLE></DEFINITION><DEFINITION><FOR>N6</FOR><GIVEN>N4</GIVEN><TABLE>0.85 0.15000000000000002 0.21 0.79</TABLE></DEFINITION><DEFINITION><FOR>N7</FOR><GIVEN>N5</GIVEN><TABLE>0.64 0.36 0.74 0.26</TABLE></DEFINITION><DEFINITION><FOR>N8</FOR><GIVEN>N6</GIVEN><TABLE>0.66 0.33999999999999997 0.61 0.39</TABLE></DEFINITION><DEFINITION><FOR>N9</FOR><GIVEN>N7</GIVEN><TABLE>0.59 0.41000000000000003 0.09 0.91</TABLE></DEFINITION><DEFINITION><FOR>N10</FOR><GIVEN>N8</GIVEN><TABLE>0.47 0.53 0.57 0.43000000000000005</TABLE></DEFINITION><DEFINITION><FOR>N11</FOR><GIVEN>N9</GIVEN><TABLE>0.61 0.39 0.75 0.25</TABLE></DEFINITION><DEFINITION><FOR>N12</FOR><GIVEN>N10</GIVEN><TABLE>0.19 0.81 0.15 0.85</TABLE></DEFINITION><DEFINITION><FOR>N13</FOR><GIVEN>N11</GIVEN><TABLE>0.56 0.43999999999999995 0.85 0.15000000000000002</TABLE></DEFINITION></NETWORK></BIF>