<BIF VERSION="0.3"><NETWORK><NAME>Test14NFNTE</NAME><VARIABLE TYPE="nature"><NAME>N0</NAME><OUTCOME>True</OUTCOME><OUTCOME>False</OUTCOME></VARIABLE><VARIABLE TYPE="nature"><NAME>N1</NAME><OUTCOME>True</OUTCOME><OUTCOME>False</OUTCOME></VARIABLE><VARIABLE TYPE="nature"><NAME>N2</NAME><OUTCOME>True</OUTCOME><OUTCOME>False</OUTCOME></VARIABLE><VARIABLE TYPE="nature"><NAME>N3</NAME><OUTCOME>True</OUTCOME><OUTCOME>False</OUTCOME></VARIABLE><VARIABLE TYPE="nature"><NAME>N4</NAME><OUTCOME>True</OUTCOME><OUTCOME>False</OUTCOME></VARIABLE><VARIABLE TYPE="nature"><NAME>N5</NAME><OUTCOME>True</OUTCOME><OUTCOME>False</OUTCOME></VARIABLE><VARIABLE TYPE="nature"><NAME>N6</NAME><OUTCOME>True</OUTCOME><OUTCOME>False</OUTCOME></VARIABLE><VARIABLE TYPE="nature"><NAME>N7</NAME><OUTCOME>True</OUTCOME><OUTCOME>False</OUTCOME></VARIABLE><VARIABLE TYPE="nature"><NAME>N8</NAME><OUTCOME>True</OUTCOME><OUTCOME>False</OUTCOME></VARIABLE><VARIABLE TYPE="nature"><NAME>N9</NAME><OUTCOME>True</OUTCOME><OUTCOME>False</OUTCOME></VARIABLE><VARIABLE TYPE="nature"><NAME>N10</NAME><OUTCOME>True</OUTCOME><OUTCOME>False</OUTCOME></VARIABLE><VARIABLE TYPE="nature"><NAME>N11</NAME><OUTCOME>True</OUTCOME><OUTCOME>False</OUTCOME></VARIABLE><VARIABLE TYPE="nature"><NAME>N12</NAME><OUTCOME>True</OUTCOME><OUTCOME>False</OUTCOME></VARIABLE><VARIABLE TYPE="nature"><NAME>N13</NAME><OUTCOME>True</OUTCOME><OUTCOME>False</OUTCOME></VARIABLE><DEFINITION><FOR>N1</FOR><GIVEN>N1</GIVEN><TABLE>0.11 0.89 0.1 0.9</TABLE></DEFINITION><DEFINITION><FOR>N2</FOR><GIVEN>N2</GIVEN><TABLE>0.49 0.51 0.5 0.5</TABLE></DEFINITION><DEFINITION><FOR>N3</FOR><GIVEN>N3</GIVEN><TABLE>0.71 0.29000000000000004 0.21 0.79</TABLE></DEFINITION><DEFINITION><FOR>N4</FOR><GIVEN>N4</GIVEN><TABLE>0.89 0.10999999999999999 0.27 0.73</TABLE></DEFINITION><DEFINITION><FOR>N5</FOR><GIVEN>N5</GIVEN><TABLE>0.69 0.31000000000000005 0.69 0.31000000000000005</TABLE></DEFINITION><DEFINITION><FOR>N6</FOR><GIVEN>N6</GIVEN><TABLE>0.51 0.49 0.28 0.72</TABLE></DEFINITION><DEFINITION><FOR>N7</FOR><GIVEN>N7</GIVEN><TABLE>0.74 0.26 0.14 0.86</TABLE></DEFINITION><DEFINITION><FOR>N8</FOR><GIVEN>N8</GIVEN><TABLE>0.53 0.47 0.24 0.76</TABLE></DEFINITION><DEFINITION><FOR>N9</FOR><GIVEN>N9</GIVEN><TABLE>0.47 0.53 0.92 0.07999999999999996</TABLE></DEFINITION><DEFINITION><FOR>N10</FOR><GIVEN>N10</GIVEN><TABLE>0.18 0.8200000000000001 0.45 0.55</TABLE></DEFINITION><DEFINITION><FOR>N11</FOR><GIVEN>N11</GIVEN><TABLE>0.04 0.96 0.32 0.6799999999999999</TABLE></DEFINITION><DEFINITION><FOR>N12</FOR><GIVEN>N12</GIVEN><TABLE>0.97 0.030000000000000027 0.78 0.21999999999999997</TABLE></DEFINITION><DEFINITION><FOR>N13</FOR><GIVEN>N13</GIVEN><TABLE>0.92 0.07999999999999996 0.87 0.13</TABLE></DEFINITION></NETWORK></BIF>