<BIF VERSION="0.3"><NETWORK><NAME>Test14NFNTE</NAME><VARIABLE TYPE="nature"><NAME>N0</NAME><OUTCOME>True</OUTCOME><OUTCOME>False</OUTCOME></VARIABLE><VARIABLE TYPE="nature"><NAME>N1</NAME><OUTCOME>True</OUTCOME><OUTCOME>False</OUTCOME></VARIABLE><VARIABLE TYPE="nature"><NAME>N2</NAME><OUTCOME>True</OUTCOME><OUTCOME>False</OUTCOME></VARIABLE><VARIABLE TYPE="nature"><NAME>N3</NAME><OUTCOME>True</OUTCOME><OUTCOME>False</OUTCOME></VARIABLE><VARIABLE TYPE="nature"><NAME>N4</NAME><OUTCOME>True</OUTCOME><OUTCOME>False</OUTCOME></VARIABLE><VARIABLE TYPE="nature"><NAME>N5</NAME><OUTCOME>True</OUTCOME><OUTCOME>False</OUTCOME></VARIABLE><VARIABLE TYPE="nature"><NAME>N6</NAME><OUTCOME>True</OUTCOME><OUTCOME>False</OUTCOME></VARIABLE><VARIABLE TYPE="nature"><NAME>N7</NAME><OUTCOME>True</OUTCOME><OUTCOME>False</OUTCOME></VARIABLE><VARIABLE TYPE="nature"><NAME>N8</NAME><OUTCOME>True</OUTCOME><OUTCOME>False</OUTCOME></VARIABLE><VARIABLE TYPE="nature"><NAME>N9</NAME><OUTCOME>True</OUTCOME><OUTCOME>False</OUTCOME></VARIABLE><VARIABLE TYPE="nature"><NAME>N10</NAME><OUTCOME>True</OUTCOME><OUTCOME>False</OUTCOME></VARIABLE><VARIABLE TYPE="nature"><NAME>N11</NAME><OUTCOME>True</OUTCOME><OUTCOME>False</OUTCOME></VARIABLE><VARIABLE TYPE="nature"><NAME>N12</NAME><OUTCOME>True</OUTCOME><OUTCOME>False</OUTCOME></VARIABLE><VARIABLE TYPE="nature"><NAME>N13</NAME><OUTCOME>True</OUTCOME><OUTCOME>False</OUTCOME></VARIABLE><DEFINITION><FOR>N1</FOR><GIVEN>N0</GIVEN><TABLE>0.27 0.73 0.88 0.12</TABLE></DEFINITION><DEFINITION><FOR>N2</FOR><GIVEN>N1</GIVEN><TABLE>0.42 0.5800000000000001 0.98 0.020000000000000018</TABLE></DEFINITION><DEFINITION><FOR>N3</FOR><GIVEN>N2</GIVEN><TABLE>0.72 0.28 0.22 0.78</TABLE></DEFINITION><DEFINITION><FOR>N4</FOR><GIVEN>N3</GIVEN><TABLE>0.75 0.25 0.44 0.56</TABLE></DEFINITION><DEFINITION><FOR>N5</FOR><GIVEN>N4</GIVEN><TABLE>0.33 0.6699999999999999 0.26 0.74</TABLE></DEFINITION><DEFINITION><FOR>N6</FOR><GIVEN>N5</GIVEN><TABLE>0.57 0.43000000000000005 0.64 0.36</TABLE></DEFINITION><DEFINITION><FOR>N7</FOR><GIVEN>N6</GIVEN><TABLE>0.51 0.49 0.1 0.9</TABLE></DEFINITION><DEFINITION><FOR>N8</FOR><GIVEN>N7</GIVEN><TABLE>0.99 0.010000000000000009 0.66 0.33999999999999997</TABLE></DEFINITION><DEFINITION><FOR>N9</FOR><GIVEN>N8</GIVEN><TABLE>0.58 0.42000000000000004 0.04 0.96</TABLE></DEFINITION><DEFINITION><FOR>N10</FOR><GIVEN>N9</GIVEN><TABLE>0.01 0.99 0.92 0.07999999999999996</TABLE></DEFINITION><DEFINITION><FOR>N11</FOR><GIVEN>N10</GIVEN><TABLE>0.03 0.97 0.97 0.030000000000000027</TABLE></DEFINITION><DEFINITION><FOR>N12</FOR><GIVEN>N11</GIVEN><TABLE>0.3 0.7 0.69 0.31000000000000005</TABLE></DEFINITION><DEFINITION><FOR>N13</FOR><TABLE>0.74 0.26</TABLE></DEFINITION></NETWORK></BIF>