<BIF VERSION="0.3"><NETWORK><NAME>Test14NFNTE</NAME><VARIABLE TYPE="nature"><NAME>N0</NAME><OUTCOME>True</OUTCOME><OUTCOME>False</OUTCOME></VARIABLE><VARIABLE TYPE="nature"><NAME>N1</NAME><OUTCOME>True</OUTCOME><OUTCOME>False</OUTCOME></VARIABLE><VARIABLE TYPE="nature"><NAME>N2</NAME><OUTCOME>True</OUTCOME><OUTCOME>False</OUTCOME></VARIABLE><VARIABLE TYPE="nature"><NAME>N3</NAME><OUTCOME>True</OUTCOME><OUTCOME>False</OUTCOME></VARIABLE><VARIABLE TYPE="nature"><NAME>N4</NAME><OUTCOME>True</OUTCOME><OUTCOME>False</OUTCOME></VARIABLE><VARIABLE TYPE="nature"><NAME>N5</NAME><OUTCOME>True</OUTCOME><OUTCOME>False</OUTCOME></VARIABLE><VARIABLE TYPE="nature"><NAME>N6</NAME><OUTCOME>True</OUTCOME><OUTCOME>False</OUTCOME></VARIABLE><VARIABLE TYPE="nature"><NAME>N7</NAME><OUTCOME>True</OUTCOME><OUTCOME>False</OUTCOME></VARIABLE><VARIABLE TYPE="nature"><NAME>N8</NAME><OUTCOME>True</OUTCOME><OUTCOME>False</OUTCOME></VARIABLE><VARIABLE TYPE="nature"><NAME>N9</NAME><OUTCOME>True</OUTCOME><OUTCOME>False</OUTCOME></VARIABLE><VARIABLE TYPE="nature"><NAME>N10</NAME><OUTCOME>True</OUTCOME><OUTCOME>False</OUTCOME></VARIABLE><VARIABLE TYPE="nature"><NAME>N11</NAME><OUTCOME>True</OUTCOME><OUTCOME>False</OUTCOME></VARIABLE><VARIABLE TYPE="nature"><NAME>N12</NAME><OUTCOME>True</OUTCOME><OUTCOME>False</OUTCOME></VARIABLE><VARIABLE TYPE="nature"><NAME>N13</NAME><OUTCOME>True</OUTCOME><OUTCOME>False</OUTCOME></VARIABLE><DEFINITION><FOR>N0</FOR><GIVEN>N1</GIVEN><TABLE>0.47 0.53 0.67 0.32999999999999996</TABLE></DEFINITION><DEFINITION><FOR>N1</FOR><GIVEN>N2</GIVEN><TABLE>0.89 0.10999999999999999 0.06 0.94</TABLE></DEFINITION><DEFINITION><FOR>N2</FOR><GIVEN>N3</GIVEN><TABLE>0.93 0.06999999999999995 0.72 0.28</TABLE></DEFINITION><DEFINITION><FOR>N3</FOR><GIVEN>N4</GIVEN><TABLE>0.72 0.28 0.69 0.31000000000000005</TABLE></DEFINITION><DEFINITION><FOR>N4</FOR><GIVEN>N5</GIVEN><TABLE>0.63 0.37 0.84 0.16000000000000003</TABLE></DEFINITION><DEFINITION><FOR>N5</FOR><GIVEN>N6</GIVEN><TABLE>0.58 0.42000000000000004 0.27 0.73</TABLE></DEFINITION><DEFINITION><FOR>N6</FOR><GIVEN>N7</GIVEN><TABLE>0.94 0.06000000000000005 0.2 0.8</TABLE></DEFINITION><DEFINITION><FOR>N7</FOR><GIVEN>N8</GIVEN><TABLE>0.4 0.6 0.15 0.85</TABLE></DEFINITION><DEFINITION><FOR>N8</FOR><GIVEN>N9</GIVEN><TABLE>0.91 0.08999999999999997 0.74 0.26</TABLE></DEFINITION><DEFINITION><FOR>N9</FOR><GIVEN>N10</GIVEN><TABLE>0.77 0.22999999999999998 0.26 0.74</TABLE></DEFINITION><DEFINITION><FOR>N10</FOR><GIVEN>N11</GIVEN><TABLE>0.62 0.38 0.47 0.53</TABLE></DEFINITION><DEFINITION><FOR>N11</FOR><GIVEN>N12</GIVEN><TABLE>0.9 0.09999999999999998 0.01 0.99</TABLE></DEFINITION><DEFINITION><FOR>N12</FOR><GIVEN>N13</GIVEN><TABLE>0.69 0.31000000000000005 0.84 0.16000000000000003</TABLE></DEFINITION><DEFINITION><FOR>N13</FOR><TABLE>0.8 0.19999999999999996</TABLE></DEFINITION></NETWORK></BIF>