<BIF VERSION="0.3"><NETWORK><NAME>Test14NFNTE</NAME><VARIABLE TYPE="nature"><NAME>N0</NAME><OUTCOME>True</OUTCOME><OUTCOME>False</OUTCOME></VARIABLE><VARIABLE TYPE="nature"><NAME>N1</NAME><OUTCOME>True</OUTCOME><OUTCOME>False</OUTCOME></VARIABLE><VARIABLE TYPE="nature"><NAME>N2</NAME><OUTCOME>True</OUTCOME><OUTCOME>False</OUTCOME></VARIABLE><VARIABLE TYPE="nature"><NAME>N3</NAME><OUTCOME>True</OUTCOME><OUTCOME>False</OUTCOME></VARIABLE><VARIABLE TYPE="nature"><NAME>N4</NAME><OUTCOME>True</OUTCOME><OUTCOME>False</OUTCOME></VARIABLE><VARIABLE TYPE="nature"><NAME>N5</NAME><OUTCOME>True</OUTCOME><OUTCOME>False</OUTCOME></VARIABLE><VARIABLE TYPE="nature"><NAME>N6</NAME><OUTCOME>True</OUTCOME><OUTCOME>False</OUTCOME></VARIABLE><VARIABLE TYPE="nature"><NAME>N7</NAME><OUTCOME>True</OUTCOME><OUTCOME>False</OUTCOME></VARIABLE><VARIABLE TYPE="nature"><NAME>N8</NAME><OUTCOME>True</OUTCOME><OUTCOME>False</OUTCOME></VARIABLE><VARIABLE TYPE="nature"><NAME>N9</NAME><OUTCOME>True</OUTCOME><OUTCOME>False</OUTCOME></VARIABLE><VARIABLE TYPE="nature"><NAME>N10</NAME><OUTCOME>True</OUTCOME><OUTCOME>False</OUTCOME></VARIABLE><VARIABLE TYPE="nature"><NAME>N11</NAME><OUTCOME>True</OUTCOME><OUTCOME>False</OUTCOME></VARIABLE><VARIABLE TYPE="nature"><NAME>N12</NAME><OUTCOME>True</OUTCOME><OUTCOME>False</OUTCOME></VARIABLE><VARIABLE TYPE="nature"><NAME>N13</NAME><OUTCOME>True</OUTCOME><OUTCOME>False</OUTCOME></VARIABLE><DEFINITION><FOR>N0</FOR><GIVEN>N1</GIVEN><TABLE>0.22 0.78 0.18 0.8200000000000001</TABLE></DEFINITION><DEFINITION><FOR>N1</FOR><GIVEN>N2</GIVEN><TABLE>0.65 0.35 0.16 0.84</TABLE></DEFINITION><DEFINITION><FOR>N2</FOR><GIVEN>N3</GIVEN><TABLE>0.79 0.20999999999999996 0.56 0.43999999999999995</TABLE></DEFINITION><DEFINITION><FOR>N3</FOR><GIVEN>N4</GIVEN><TABLE>0.23 0.77 0.87 0.13</TABLE></DEFINITION><DEFINITION><FOR>N4</FOR><GIVEN>N5</GIVEN><TABLE>0.75 0.25 0.72 0.28</TABLE></DEFINITION><DEFINITION><FOR>N5</FOR><GIVEN>N6</GIVEN><TABLE>0.09 0.91 0.93 0.06999999999999995</TABLE></DEFINITION><DEFINITION><FOR>N6</FOR><GIVEN>N7</GIVEN><TABLE>0.14 0.86 0.87 0.13</TABLE></DEFINITION><DEFINITION><FOR>N7</FOR><GIVEN>N8</GIVEN><TABLE>0.86 0.14 0.9 0.09999999999999998</TABLE></DEFINITION><DEFINITION><FOR>N8</FOR><GIVEN>N9</GIVEN><TABLE>0.42 0.5800000000000001 0.71 0.29000000000000004</TABLE></DEFINITION><DEFINITION><FOR>N9</FOR><GIVEN>N10</GIVEN><TABLE>0.89 0.10999999999999999 0.39 0.61</TABLE></DEFINITION><DEFINITION><FOR>N10</FOR><GIVEN>N11</GIVEN><TABLE>0.09 0.91 0.87 0.13</TABLE></DEFINITION><DEFINITION><FOR>N11</FOR><GIVEN>N12</GIVEN><TABLE>0.17 0.83 0.27 0.73</TABLE></DEFINITION><DEFINITION><FOR>N12</FOR><TABLE>0.43 0.5700000000000001</TABLE></DEFINITION><DEFINITION><FOR>N13</FOR><TABLE>0.42 0.5800000000000001</TABLE></DEFINITION></NETWORK></BIF>