<BIF VERSION="0.3"><NETWORK><NAME>Test14NFNTE</NAME><VARIABLE TYPE="nature"><NAME>N0</NAME><OUTCOME>True</OUTCOME><OUTCOME>False</OUTCOME></VARIABLE><VARIABLE TYPE="nature"><NAME>N1</NAME><OUTCOME>True</OUTCOME><OUTCOME>False</OUTCOME></VARIABLE><VARIABLE TYPE="nature"><NAME>N2</NAME><OUTCOME>True</OUTCOME><OUTCOME>False</OUTCOME></VARIABLE><VARIABLE TYPE="nature"><NAME>N3</NAME><OUTCOME>True</OUTCOME><OUTCOME>False</OUTCOME></VARIABLE><VARIABLE TYPE="nature"><NAME>N4</NAME><OUTCOME>True</OUTCOME><OUTCOME>False</OUTCOME></VARIABLE><VARIABLE TYPE="nature"><NAME>N5</NAME><OUTCOME>True</OUTCOME><OUTCOME>False</OUTCOME></VARIABLE><VARIABLE TYPE="nature"><NAME>N6</NAME><OUTCOME>True</OUTCOME><OUTCOME>False</OUTCOME></VARIABLE><VARIABLE TYPE="nature"><NAME>N7</NAME><OUTCOME>True</OUTCOME><OUTCOME>False</OUTCOME></VARIABLE><VARIABLE TYPE="nature"><NAME>N8</NAME><OUTCOME>True</OUTCOME><OUTCOME>False</OUTCOME></VARIABLE><VARIABLE TYPE="nature"><NAME>N9</NAME><OUTCOME>True</OUTCOME><OUTCOME>False</OUTCOME></VARIABLE><VARIABLE TYPE="nature"><NAME>N10</NAME><OUTCOME>True</OUTCOME><OUTCOME>False</OUTCOME></VARIABLE><VARIABLE TYPE="nature"><NAME>N11</NAME><OUTCOME>True</OUTCOME><OUTCOME>False</OUTCOME></VARIABLE><VARIABLE TYPE="nature"><NAME>N12</NAME><OUTCOME>True</OUTCOME><OUTCOME>False</OUTCOME></VARIABLE><VARIABLE TYPE="nature"><NAME>N13</NAME><OUTCOME>True</OUTCOME><OUTCOME>False</OUTCOME></VARIABLE><DEFINITION><FOR>N0</FOR><TABLE>0.48 0.52</TABLE></DEFINITION><DEFINITION><FOR>N1</FOR><GIVEN>N0</GIVEN><TABLE>0.5 0.5 0.07 0.9299999999999999</TABLE></DEFINITION><DEFINITION><FOR>N2</FOR><GIVEN>N1</GIVEN><TABLE>0.44 0.56 0.79 0.20999999999999996</TABLE></DEFINITION><DEFINITION><FOR>N3</FOR><GIVEN>N2</GIVEN><TABLE>0.69 0.31000000000000005 0.51 0.49</TABLE></DEFINITION><DEFINITION><FOR>N4</FOR><GIVEN>N3</GIVEN><TABLE>0.66 0.33999999999999997 0.73 0.27</TABLE></DEFINITION><DEFINITION><FOR>N5</FOR><GIVEN>N4</GIVEN><TABLE>0.67 0.32999999999999996 0.05 0.95</TABLE></DEFINITION><DEFINITION><FOR>N6</FOR><GIVEN>N5</GIVEN><TABLE>0.8 0.19999999999999996 0.25 0.75</TABLE></DEFINITION><DEFINITION><FOR>N7</FOR><GIVEN>N6</GIVEN><TABLE>0.59 0.41000000000000003 0.27 0.73</TABLE></DEFINITION><DEFINITION><FOR>N8</FOR><GIVEN>N7</GIVEN><TABLE>0.55 0.44999999999999996 0.06 0.94</TABLE></DEFINITION><DEFINITION><FOR>N9</FOR><GIVEN>N8</GIVEN><TABLE>0.39 0.61 0.43 0.5700000000000001</TABLE></DEFINITION><DEFINITION><FOR>N10</FOR><GIVEN>N9</GIVEN><TABLE>0.59 0.41000000000000003 0.27 0.73</TABLE></DEFINITION><DEFINITION><FOR>N11</FOR><GIVEN>N10</GIVEN><TABLE>0.75 0.25 0.04 0.96</TABLE></DEFINITION><DEFINITION><FOR>N12</FOR><GIVEN>N11</GIVEN><TABLE>0.96 0.040000000000000036 0.55 0.44999999999999996</TABLE></DEFINITION><DEFINITION><FOR>N13</FOR><GIVEN>N12</GIVEN><TABLE>0.6 0.4 0.47 0.53</TABLE></DEFINITION></NETWORK></BIF>