<BIF VERSION="0.3"><NETWORK><NAME>Test15NFNTE</NAME><VARIABLE TYPE="nature"><NAME>N0</NAME><OUTCOME>True</OUTCOME><OUTCOME>False</OUTCOME></VARIABLE><VARIABLE TYPE="nature"><NAME>N1</NAME><OUTCOME>True</OUTCOME><OUTCOME>False</OUTCOME></VARIABLE><VARIABLE TYPE="nature"><NAME>N2</NAME><OUTCOME>True</OUTCOME><OUTCOME>False</OUTCOME></VARIABLE><VARIABLE TYPE="nature"><NAME>N3</NAME><OUTCOME>True</OUTCOME><OUTCOME>False</OUTCOME></VARIABLE><VARIABLE TYPE="nature"><NAME>N4</NAME><OUTCOME>True</OUTCOME><OUTCOME>False</OUTCOME></VARIABLE><VARIABLE TYPE="nature"><NAME>N5</NAME><OUTCOME>True</OUTCOME><OUTCOME>False</OUTCOME></VARIABLE><VARIABLE TYPE="nature"><NAME>N6</NAME><OUTCOME>True</OUTCOME><OUTCOME>False</OUTCOME></VARIABLE><VARIABLE TYPE="nature"><NAME>N7</NAME><OUTCOME>True</OUTCOME><OUTCOME>False</OUTCOME></VARIABLE><VARIABLE TYPE="nature"><NAME>N8</NAME><OUTCOME>True</OUTCOME><OUTCOME>False</OUTCOME></VARIABLE><VARIABLE TYPE="nature"><NAME>N9</NAME><OUTCOME>True</OUTCOME><OUTCOME>False</OUTCOME></VARIABLE><VARIABLE TYPE="nature"><NAME>N10</NAME><OUTCOME>True</OUTCOME><OUTCOME>False</OUTCOME></VARIABLE><VARIABLE TYPE="nature"><NAME>N11</NAME><OUTCOME>True</OUTCOME><OUTCOME>False</OUTCOME></VARIABLE><VARIABLE TYPE="nature"><NAME>N12</NAME><OUTCOME>True</OUTCOME><OUTCOME>False</OUTCOME></VARIABLE><VARIABLE TYPE="nature"><NAME>N13</NAME><OUTCOME>True</OUTCOME><OUTCOME>False</OUTCOME></VARIABLE><VARIABLE TYPE="nature"><NAME>N14</NAME><OUTCOME>True</OUTCOME><OUTCOME>False</OUTCOME></VARIABLE><DEFINITION><FOR>N2</FOR><GIVEN>N0</GIVEN><TABLE>0.26 0.74 0.62 0.38</TABLE></DEFINITION><DEFINITION><FOR>N3</FOR><GIVEN>N1</GIVEN><TABLE>0.33 0.6699999999999999 0.86 0.14</TABLE></DEFINITION><DEFINITION><FOR>N4</FOR><GIVEN>N2</GIVEN><TABLE>0.99 0.010000000000000009 0.93 0.06999999999999995</TABLE></DEFINITION><DEFINITION><FOR>N5</FOR><GIVEN>N3</GIVEN><TABLE>0.48 0.52 0.33 0.6699999999999999</TABLE></DEFINITION><DEFINITION><FOR>N6</FOR><GIVEN>N4</GIVEN><TABLE>0.15 0.85 0.47 0.53</TABLE></DEFINITION><DEFINITION><FOR>N7</FOR><GIVEN>N5</GIVEN><TABLE>0.11 0.89 0.16 0.84</TABLE></DEFINITION><DEFINITION><FOR>N8</FOR><GIVEN>N6</GIVEN><TABLE>0.95 0.050000000000000044 0.43 0.5700000000000001</TABLE></DEFINITION><DEFINITION><FOR>N9</FOR><GIVEN>N7</GIVEN><TABLE>0.76 0.24 0.6 0.4</TABLE></DEFINITION><DEFINITION><FOR>N10</FOR><GIVEN>N8</GIVEN><TABLE>0.8 0.19999999999999996 0.39 0.61</TABLE></DEFINITION><DEFINITION><FOR>N11</FOR><GIVEN>N9</GIVEN><TABLE>0.1 0.9 0.52 0.48</TABLE></DEFINITION><DEFINITION><FOR>N12</FOR><GIVEN>N10</GIVEN><TABLE>0.4 0.6 0.17 0.83</TABLE></DEFINITION><DEFINITION><FOR>N13</FOR><GIVEN>N11</GIVEN><TABLE>0.69 0.31000000000000005 0.89 0.10999999999999999</TABLE></DEFINITION><DEFINITION><FOR>N14</FOR><GIVEN>N12</GIVEN><TABLE>0.14 0.86 0.34 0.6599999999999999</TABLE></DEFINITION></NETWORK></BIF>