<BIF VERSION="0.3"><NETWORK><NAME>Test15NFNTE</NAME><VARIABLE TYPE="nature"><NAME>N0</NAME><OUTCOME>True</OUTCOME><OUTCOME>False</OUTCOME></VARIABLE><VARIABLE TYPE="nature"><NAME>N1</NAME><OUTCOME>True</OUTCOME><OUTCOME>False</OUTCOME></VARIABLE><VARIABLE TYPE="nature"><NAME>N2</NAME><OUTCOME>True</OUTCOME><OUTCOME>False</OUTCOME></VARIABLE><VARIABLE TYPE="nature"><NAME>N3</NAME><OUTCOME>True</OUTCOME><OUTCOME>False</OUTCOME></VARIABLE><VARIABLE TYPE="nature"><NAME>N4</NAME><OUTCOME>True</OUTCOME><OUTCOME>False</OUTCOME></VARIABLE><VARIABLE TYPE="nature"><NAME>N5</NAME><OUTCOME>True</OUTCOME><OUTCOME>False</OUTCOME></VARIABLE><VARIABLE TYPE="nature"><NAME>N6</NAME><OUTCOME>True</OUTCOME><OUTCOME>False</OUTCOME></VARIABLE><VARIABLE TYPE="nature"><NAME>N7</NAME><OUTCOME>True</OUTCOME><OUTCOME>False</OUTCOME></VARIABLE><VARIABLE TYPE="nature"><NAME>N8</NAME><OUTCOME>True</OUTCOME><OUTCOME>False</OUTCOME></VARIABLE><VARIABLE TYPE="nature"><NAME>N9</NAME><OUTCOME>True</OUTCOME><OUTCOME>False</OUTCOME></VARIABLE><VARIABLE TYPE="nature"><NAME>N10</NAME><OUTCOME>True</OUTCOME><OUTCOME>False</OUTCOME></VARIABLE><VARIABLE TYPE="nature"><NAME>N11</NAME><OUTCOME>True</OUTCOME><OUTCOME>False</OUTCOME></VARIABLE><VARIABLE TYPE="nature"><NAME>N12</NAME><OUTCOME>True</OUTCOME><OUTCOME>False</OUTCOME></VARIABLE><VARIABLE TYPE="nature"><NAME>N13</NAME><OUTCOME>True</OUTCOME><OUTCOME>False</OUTCOME></VARIABLE><VARIABLE TYPE="nature"><NAME>N14</NAME><OUTCOME>True</OUTCOME><OUTCOME>False</OUTCOME></VARIABLE><DEFINITION><FOR>N0</FOR><TABLE>0.16 0.84</TABLE></DEFINITION><DEFINITION><FOR>N1</FOR><GIVEN>N0</GIVEN><TABLE>0.49 0.51 0.08 0.92</TABLE></DEFINITION><DEFINITION><FOR>N2</FOR><GIVEN>N1</GIVEN><TABLE>0.17 0.83 0.05 0.95</TABLE></DEFINITION><DEFINITION><FOR>N3</FOR><GIVEN>N2</GIVEN><TABLE>0.83 0.17000000000000004 0.49 0.51</TABLE></DEFINITION><DEFINITION><FOR>N4</FOR><GIVEN>N3</GIVEN><TABLE>0.95 0.050000000000000044 0.75 0.25</TABLE></DEFINITION><DEFINITION><FOR>N5</FOR><GIVEN>N4</GIVEN><TABLE>0.75 0.25 0.58 0.42000000000000004</TABLE></DEFINITION><DEFINITION><FOR>N6</FOR><GIVEN>N5</GIVEN><TABLE>0.31 0.69 0.47 0.53</TABLE></DEFINITION><DEFINITION><FOR>N7</FOR><GIVEN>N6</GIVEN><TABLE>0.42 0.5800000000000001 0.66 0.33999999999999997</TABLE></DEFINITION><DEFINITION><FOR>N8</FOR><GIVEN>N7</GIVEN><TABLE>0.18 0.8200000000000001 0.28 0.72</TABLE></DEFINITION><DEFINITION><FOR>N9</FOR><GIVEN>N8</GIVEN><TABLE>0.12 0.88 0.54 0.45999999999999996</TABLE></DEFINITION><DEFINITION><FOR>N10</FOR><GIVEN>N9</GIVEN><TABLE>0.16 0.84 0.57 0.43000000000000005</TABLE></DEFINITION><DEFINITION><FOR>N11</FOR><GIVEN>N10</GIVEN><TABLE>0.79 0.20999999999999996 0.43 0.5700000000000001</TABLE></DEFINITION><DEFINITION><FOR>N12</FOR><GIVEN>N11</GIVEN><TABLE>0.07 0.9299999999999999 0.18 0.8200000000000001</TABLE></DEFINITION><DEFINITION><FOR>N13</FOR><GIVEN>N12</GIVEN><TABLE>0.74 0.26 0.42 0.5800000000000001</TABLE></DEFINITION><DEFINITION><FOR>N14</FOR><GIVEN>N13</GIVEN><TABLE>0.3 0.7 0.01 0.99</TABLE></DEFINITION></NETWORK></BIF>