<BIF VERSION="0.3"><NETWORK><NAME>Test15NFNTE</NAME><VARIABLE TYPE="nature"><NAME>N0</NAME><OUTCOME>True</OUTCOME><OUTCOME>False</OUTCOME></VARIABLE><VARIABLE TYPE="nature"><NAME>N1</NAME><OUTCOME>True</OUTCOME><OUTCOME>False</OUTCOME></VARIABLE><VARIABLE TYPE="nature"><NAME>N2</NAME><OUTCOME>True</OUTCOME><OUTCOME>False</OUTCOME></VARIABLE><VARIABLE TYPE="nature"><NAME>N3</NAME><OUTCOME>True</OUTCOME><OUTCOME>False</OUTCOME></VARIABLE><VARIABLE TYPE="nature"><NAME>N4</NAME><OUTCOME>True</OUTCOME><OUTCOME>False</OUTCOME></VARIABLE><VARIABLE TYPE="nature"><NAME>N5</NAME><OUTCOME>True</OUTCOME><OUTCOME>False</OUTCOME></VARIABLE><VARIABLE TYPE="nature"><NAME>N6</NAME><OUTCOME>True</OUTCOME><OUTCOME>False</OUTCOME></VARIABLE><VARIABLE TYPE="nature"><NAME>N7</NAME><OUTCOME>True</OUTCOME><OUTCOME>False</OUTCOME></VARIABLE><VARIABLE TYPE="nature"><NAME>N8</NAME><OUTCOME>True</OUTCOME><OUTCOME>False</OUTCOME></VARIABLE><VARIABLE TYPE="nature"><NAME>N9</NAME><OUTCOME>True</OUTCOME><OUTCOME>False</OUTCOME></VARIABLE><VARIABLE TYPE="nature"><NAME>N10</NAME><OUTCOME>True</OUTCOME><OUTCOME>False</OUTCOME></VARIABLE><VARIABLE TYPE="nature"><NAME>N11</NAME><OUTCOME>True</OUTCOME><OUTCOME>False</OUTCOME></VARIABLE><VARIABLE TYPE="nature"><NAME>N12</NAME><OUTCOME>True</OUTCOME><OUTCOME>False</OUTCOME></VARIABLE><VARIABLE TYPE="nature"><NAME>N13</NAME><OUTCOME>True</OUTCOME><OUTCOME>False</OUTCOME></VARIABLE><VARIABLE TYPE="nature"><NAME>N14</NAME><OUTCOME>True</OUTCOME><OUTCOME>False</OUTCOME></VARIABLE><DEFINITION><FOR>N1</FOR><GIVEN>N1</GIVEN><TABLE>0.22 0.78 0.89 0.10999999999999999</TABLE></DEFINITION><DEFINITION><FOR>N2</FOR><GIVEN>N2</GIVEN><TABLE>0.05 0.95 0.81 0.18999999999999995</TABLE></DEFINITION><DEFINITION><FOR>N3</FOR><GIVEN>N3</GIVEN><TABLE>0.78 0.21999999999999997 0.35 0.65</TABLE></DEFINITION><DEFINITION><FOR>N4</FOR><GIVEN>N4</GIVEN><TABLE>0.29 0.71 0.52 0.48</TABLE></DEFINITION><DEFINITION><FOR>N5</FOR><GIVEN>N5</GIVEN><TABLE>0.66 0.33999999999999997 0.04 0.96</TABLE></DEFINITION><DEFINITION><FOR>N6</FOR><GIVEN>N6</GIVEN><TABLE>0.54 0.45999999999999996 0.48 0.52</TABLE></DEFINITION><DEFINITION><FOR>N7</FOR><GIVEN>N7</GIVEN><TABLE>0.85 0.15000000000000002 0.83 0.17000000000000004</TABLE></DEFINITION><DEFINITION><FOR>N8</FOR><GIVEN>N8</GIVEN><TABLE>0.13 0.87 0.15 0.85</TABLE></DEFINITION><DEFINITION><FOR>N9</FOR><GIVEN>N9</GIVEN><TABLE>0.81 0.18999999999999995 0.65 0.35</TABLE></DEFINITION><DEFINITION><FOR>N10</FOR><GIVEN>N10</GIVEN><TABLE>0.6 0.4 0.7 0.30000000000000004</TABLE></DEFINITION><DEFINITION><FOR>N11</FOR><GIVEN>N11</GIVEN><TABLE>0.46 0.54 0.02 0.98</TABLE></DEFINITION><DEFINITION><FOR>N12</FOR><GIVEN>N12</GIVEN><TABLE>0.82 0.18000000000000005 0.9 0.09999999999999998</TABLE></DEFINITION><DEFINITION><FOR>N13</FOR><GIVEN>N13</GIVEN><TABLE>0.91 0.08999999999999997 0.07 0.9299999999999999</TABLE></DEFINITION><DEFINITION><FOR>N14</FOR><TABLE>0.55 0.44999999999999996</TABLE></DEFINITION></NETWORK></BIF>