<BIF VERSION="0.3"><NETWORK><NAME>Test15NFNTE</NAME><VARIABLE TYPE="nature"><NAME>N0</NAME><OUTCOME>True</OUTCOME><OUTCOME>False</OUTCOME></VARIABLE><VARIABLE TYPE="nature"><NAME>N1</NAME><OUTCOME>True</OUTCOME><OUTCOME>False</OUTCOME></VARIABLE><VARIABLE TYPE="nature"><NAME>N2</NAME><OUTCOME>True</OUTCOME><OUTCOME>False</OUTCOME></VARIABLE><VARIABLE TYPE="nature"><NAME>N3</NAME><OUTCOME>True</OUTCOME><OUTCOME>False</OUTCOME></VARIABLE><VARIABLE TYPE="nature"><NAME>N4</NAME><OUTCOME>True</OUTCOME><OUTCOME>False</OUTCOME></VARIABLE><VARIABLE TYPE="nature"><NAME>N5</NAME><OUTCOME>True</OUTCOME><OUTCOME>False</OUTCOME></VARIABLE><VARIABLE TYPE="nature"><NAME>N6</NAME><OUTCOME>True</OUTCOME><OUTCOME>False</OUTCOME></VARIABLE><VARIABLE TYPE="nature"><NAME>N7</NAME><OUTCOME>True</OUTCOME><OUTCOME>False</OUTCOME></VARIABLE><VARIABLE TYPE="nature"><NAME>N8</NAME><OUTCOME>True</OUTCOME><OUTCOME>False</OUTCOME></VARIABLE><VARIABLE TYPE="nature"><NAME>N9</NAME><OUTCOME>True</OUTCOME><OUTCOME>False</OUTCOME></VARIABLE><VARIABLE TYPE="nature"><NAME>N10</NAME><OUTCOME>True</OUTCOME><OUTCOME>False</OUTCOME></VARIABLE><VARIABLE TYPE="nature"><NAME>N11</NAME><OUTCOME>True</OUTCOME><OUTCOME>False</OUTCOME></VARIABLE><VARIABLE TYPE="nature"><NAME>N12</NAME><OUTCOME>True</OUTCOME><OUTCOME>False</OUTCOME></VARIABLE><VARIABLE TYPE="nature"><NAME>N13</NAME><OUTCOME>True</OUTCOME><OUTCOME>False</OUTCOME></VARIABLE><VARIABLE TYPE="nature"><NAME>N14</NAME><OUTCOME>True</OUTCOME><OUTCOME>False</OUTCOME></VARIABLE><DEFINITION><FOR>N4</FOR><GIVEN>N0</GIVEN><TABLE>0.59 0.41000000000000003 0.59 0.41000000000000003</TABLE></DEFINITION><DEFINITION><FOR>N5</FOR><GIVEN>N1</GIVEN><TABLE>0.85 0.15000000000000002 0.49 0.51</TABLE></DEFINITION><DEFINITION><FOR>N6</FOR><GIVEN>N2</GIVEN><TABLE>0.08 0.92 0.78 0.21999999999999997</TABLE></DEFINITION><DEFINITION><FOR>N7</FOR><GIVEN>N3</GIVEN><TABLE>0.23 0.77 0.59 0.41000000000000003</TABLE></DEFINITION><DEFINITION><FOR>N8</FOR><GIVEN>N4</GIVEN><TABLE>0.55 0.44999999999999996 0.14 0.86</TABLE></DEFINITION><DEFINITION><FOR>N9</FOR><GIVEN>N5</GIVEN><TABLE>0.12 0.88 0.23 0.77</TABLE></DEFINITION><DEFINITION><FOR>N10</FOR><GIVEN>N6</GIVEN><TABLE>0.85 0.15000000000000002 0.34 0.6599999999999999</TABLE></DEFINITION><DEFINITION><FOR>N11</FOR><GIVEN>N7</GIVEN><TABLE>0.11 0.89 0.15 0.85</TABLE></DEFINITION><DEFINITION><FOR>N12</FOR><GIVEN>N8</GIVEN><TABLE>0.29 0.71 0.9 0.09999999999999998</TABLE></DEFINITION><DEFINITION><FOR>N13</FOR><GIVEN>N9</GIVEN><TABLE>0.21 0.79 0.99 0.010000000000000009</TABLE></DEFINITION><DEFINITION><FOR>N14</FOR><GIVEN>N10</GIVEN><TABLE>0.17 0.83 0.06 0.94</TABLE></DEFINITION></NETWORK></BIF>