<BIF VERSION="0.3"><NETWORK><NAME>Test15NFNTE</NAME><VARIABLE TYPE="nature"><NAME>N0</NAME><OUTCOME>True</OUTCOME><OUTCOME>False</OUTCOME></VARIABLE><VARIABLE TYPE="nature"><NAME>N1</NAME><OUTCOME>True</OUTCOME><OUTCOME>False</OUTCOME></VARIABLE><VARIABLE TYPE="nature"><NAME>N2</NAME><OUTCOME>True</OUTCOME><OUTCOME>False</OUTCOME></VARIABLE><VARIABLE TYPE="nature"><NAME>N3</NAME><OUTCOME>True</OUTCOME><OUTCOME>False</OUTCOME></VARIABLE><VARIABLE TYPE="nature"><NAME>N4</NAME><OUTCOME>True</OUTCOME><OUTCOME>False</OUTCOME></VARIABLE><VARIABLE TYPE="nature"><NAME>N5</NAME><OUTCOME>True</OUTCOME><OUTCOME>False</OUTCOME></VARIABLE><VARIABLE TYPE="nature"><NAME>N6</NAME><OUTCOME>True</OUTCOME><OUTCOME>False</OUTCOME></VARIABLE><VARIABLE TYPE="nature"><NAME>N7</NAME><OUTCOME>True</OUTCOME><OUTCOME>False</OUTCOME></VARIABLE><VARIABLE TYPE="nature"><NAME>N8</NAME><OUTCOME>True</OUTCOME><OUTCOME>False</OUTCOME></VARIABLE><VARIABLE TYPE="nature"><NAME>N9</NAME><OUTCOME>True</OUTCOME><OUTCOME>False</OUTCOME></VARIABLE><VARIABLE TYPE="nature"><NAME>N10</NAME><OUTCOME>True</OUTCOME><OUTCOME>False</OUTCOME></VARIABLE><VARIABLE TYPE="nature"><NAME>N11</NAME><OUTCOME>True</OUTCOME><OUTCOME>False</OUTCOME></VARIABLE><VARIABLE TYPE="nature"><NAME>N12</NAME><OUTCOME>True</OUTCOME><OUTCOME>False</OUTCOME></VARIABLE><VARIABLE TYPE="nature"><NAME>N13</NAME><OUTCOME>True</OUTCOME><OUTCOME>False</OUTCOME></VARIABLE><VARIABLE TYPE="nature"><NAME>N14</NAME><OUTCOME>True</OUTCOME><OUTCOME>False</OUTCOME></VARIABLE><DEFINITION><FOR>N3</FOR><GIVEN>N1</GIVEN><TABLE>0.17 0.83 0.71 0.29000000000000004</TABLE></DEFINITION><DEFINITION><FOR>N4</FOR><GIVEN>N2</GIVEN><TABLE>0.81 0.18999999999999995 0.86 0.14</TABLE></DEFINITION><DEFINITION><FOR>N5</FOR><GIVEN>N3</GIVEN><TABLE>0.56 0.43999999999999995 0.89 0.10999999999999999</TABLE></DEFINITION><DEFINITION><FOR>N6</FOR><GIVEN>N4</GIVEN><TABLE>0.36 0.64 0.6 0.4</TABLE></DEFINITION><DEFINITION><FOR>N7</FOR><GIVEN>N5</GIVEN><TABLE>0.2 0.8 0.59 0.41000000000000003</TABLE></DEFINITION><DEFINITION><FOR>N8</FOR><GIVEN>N6</GIVEN><TABLE>0.31 0.69 0.91 0.08999999999999997</TABLE></DEFINITION><DEFINITION><FOR>N9</FOR><GIVEN>N7</GIVEN><TABLE>0.12 0.88 0.58 0.42000000000000004</TABLE></DEFINITION><DEFINITION><FOR>N10</FOR><GIVEN>N8</GIVEN><TABLE>0.27 0.73 0.96 0.040000000000000036</TABLE></DEFINITION><DEFINITION><FOR>N11</FOR><GIVEN>N9</GIVEN><TABLE>0.69 0.31000000000000005 0.13 0.87</TABLE></DEFINITION><DEFINITION><FOR>N12</FOR><GIVEN>N10</GIVEN><TABLE>0.24 0.76 0.71 0.29000000000000004</TABLE></DEFINITION><DEFINITION><FOR>N13</FOR><GIVEN>N11</GIVEN><TABLE>0.44 0.56 0.07 0.9299999999999999</TABLE></DEFINITION><DEFINITION><FOR>N14</FOR><GIVEN>N12</GIVEN><TABLE>0.78 0.21999999999999997 0.78 0.21999999999999997</TABLE></DEFINITION></NETWORK></BIF>