<BIF VERSION="0.3"><NETWORK><NAME>Test21NTNFE</NAME><VARIABLE TYPE="nature"><NAME>N0</NAME><OUTCOME>True</OUTCOME><OUTCOME>False</OUTCOME></VARIABLE><VARIABLE TYPE="nature"><NAME>N1</NAME><OUTCOME>True</OUTCOME><OUTCOME>False</OUTCOME></VARIABLE><VARIABLE TYPE="nature"><NAME>N2</NAME><OUTCOME>True</OUTCOME><OUTCOME>False</OUTCOME></VARIABLE><VARIABLE TYPE="nature"><NAME>N3</NAME><OUTCOME>True</OUTCOME><OUTCOME>False</OUTCOME></VARIABLE><VARIABLE TYPE="nature"><NAME>N4</NAME><OUTCOME>True</OUTCOME><OUTCOME>False</OUTCOME></VARIABLE><VARIABLE TYPE="nature"><NAME>N5</NAME><OUTCOME>True</OUTCOME><OUTCOME>False</OUTCOME></VARIABLE><VARIABLE TYPE="nature"><NAME>N6</NAME><OUTCOME>True</OUTCOME><OUTCOME>False</OUTCOME></VARIABLE><VARIABLE TYPE="nature"><NAME>N7</NAME><OUTCOME>True</OUTCOME><OUTCOME>False</OUTCOME></VARIABLE><VARIABLE TYPE="nature"><NAME>N8</NAME><OUTCOME>True</OUTCOME><OUTCOME>False</OUTCOME></VARIABLE><VARIABLE TYPE="nature"><NAME>N9</NAME><OUTCOME>True</OUTCOME><OUTCOME>False</OUTCOME></VARIABLE><VARIABLE TYPE="nature"><NAME>N10</NAME><OUTCOME>True</OUTCOME><OUTCOME>False</OUTCOME></VARIABLE><VARIABLE TYPE="nature"><NAME>N11</NAME><OUTCOME>True</OUTCOME><OUTCOME>False</OUTCOME></VARIABLE><VARIABLE TYPE="nature"><NAME>N12</NAME><OUTCOME>True</OUTCOME><OUTCOME>False</OUTCOME></VARIABLE><VARIABLE TYPE="nature"><NAME>N13</NAME><OUTCOME>True</OUTCOME><OUTCOME>False</OUTCOME></VARIABLE><VARIABLE TYPE="nature"><NAME>N14</NAME><OUTCOME>True</OUTCOME><OUTCOME>False</OUTCOME></VARIABLE><VARIABLE TYPE="nature"><NAME>N15</NAME><OUTCOME>True</OUTCOME><OUTCOME>False</OUTCOME></VARIABLE><VARIABLE TYPE="nature"><NAME>N16</NAME><OUTCOME>True</OUTCOME><OUTCOME>False</OUTCOME></VARIABLE><VARIABLE TYPE="nature"><NAME>N17</NAME><OUTCOME>True</OUTCOME><OUTCOME>False</OUTCOME></VARIABLE><VARIABLE TYPE="nature"><NAME>N18</NAME><OUTCOME>True</OUTCOME><OUTCOME>False</OUTCOME></VARIABLE><VARIABLE TYPE="nature"><NAME>N19</NAME><OUTCOME>True</OUTCOME><OUTCOME>False</OUTCOME></VARIABLE><VARIABLE TYPE="nature"><NAME>N20</NAME><OUTCOME>True</OUTCOME><OUTCOME>False</OUTCOME></VARIABLE><DEFINITION><FOR>N0</FOR><TABLE>0.3 0.7</TABLE></DEFINITION><DEFINITION><FOR>N1</FOR><TABLE>0.5 0.5</TABLE></DEFINITION><DEFINITION><FOR>N2</FOR><TABLE>0.37 0.63</TABLE></DEFINITION><DEFINITION><FOR>N3</FOR><TABLE>0.02 0.98</TABLE></DEFINITION><DEFINITION><FOR>N4</FOR><TABLE>0.81 0.18999999999999995</TABLE></DEFINITION><DEFINITION><FOR>N5</FOR><TABLE>0.43 0.5700000000000001</TABLE></DEFINITION><DEFINITION><FOR>N6</FOR><TABLE>0.91 0.08999999999999997</TABLE></DEFINITION><DEFINITION><FOR>N7</FOR><TABLE>0.38 0.62</TABLE></DEFINITION><DEFINITION><FOR>N8</FOR><TABLE>0.92 0.07999999999999996</TABLE></DEFINITION><DEFINITION><FOR>N9</FOR><TABLE>0.42 0.5800000000000001</TABLE></DEFINITION><DEFINITION><FOR>N10</FOR><TABLE>0.61 0.39</TABLE></DEFINITION><DEFINITION><FOR>N11</FOR><TABLE>0.42 0.5800000000000001</TABLE></DEFINITION><DEFINITION><FOR>N12</FOR><TABLE>0.62 0.38</TABLE></DEFINITION><DEFINITION><FOR>N13</FOR><TABLE>0.72 0.28</TABLE></DEFINITION><DEFINITION><FOR>N14</FOR><TABLE>0.66 0.33999999999999997</TABLE></DEFINITION><DEFINITION><FOR>N15</FOR><TABLE>0.71 0.29000000000000004</TABLE></DEFINITION><DEFINITION><FOR>N16</FOR><TABLE>0.13 0.87</TABLE></DEFINITION><DEFINITION><FOR>N17</FOR><TABLE>0.86 0.14</TABLE></DEFINITION><DEFINITION><FOR>N18</FOR><TABLE>0.88 0.12</TABLE></DEFINITION><DEFINITION><FOR>N19</FOR><TABLE>0.07 0.9299999999999999</TABLE></DEFINITION><DEFINITION><FOR>N20</FOR><TABLE>0.42 0.5800000000000001</TABLE></DEFINITION></NETWORK></BIF>