<BIF VERSION="0.3"><NETWORK><NAME>Test24NTNFE</NAME><VARIABLE TYPE="nature"><NAME>N0</NAME><OUTCOME>True</OUTCOME><OUTCOME>False</OUTCOME></VARIABLE><VARIABLE TYPE="nature"><NAME>N1</NAME><OUTCOME>True</OUTCOME><OUTCOME>False</OUTCOME></VARIABLE><VARIABLE TYPE="nature"><NAME>N2</NAME><OUTCOME>True</OUTCOME><OUTCOME>False</OUTCOME></VARIABLE><VARIABLE TYPE="nature"><NAME>N3</NAME><OUTCOME>True</OUTCOME><OUTCOME>False</OUTCOME></VARIABLE><VARIABLE TYPE="nature"><NAME>N4</NAME><OUTCOME>True</OUTCOME><OUTCOME>False</OUTCOME></VARIABLE><VARIABLE TYPE="nature"><NAME>N5</NAME><OUTCOME>True</OUTCOME><OUTCOME>False</OUTCOME></VARIABLE><VARIABLE TYPE="nature"><NAME>N6</NAME><OUTCOME>True</OUTCOME><OUTCOME>False</OUTCOME></VARIABLE><VARIABLE TYPE="nature"><NAME>N7</NAME><OUTCOME>True</OUTCOME><OUTCOME>False</OUTCOME></VARIABLE><VARIABLE TYPE="nature"><NAME>N8</NAME><OUTCOME>True</OUTCOME><OUTCOME>False</OUTCOME></VARIABLE><VARIABLE TYPE="nature"><NAME>N9</NAME><OUTCOME>True</OUTCOME><OUTCOME>False</OUTCOME></VARIABLE><VARIABLE TYPE="nature"><NAME>N10</NAME><OUTCOME>True</OUTCOME><OUTCOME>False</OUTCOME></VARIABLE><VARIABLE TYPE="nature"><NAME>N11</NAME><OUTCOME>True</OUTCOME><OUTCOME>False</OUTCOME></VARIABLE><VARIABLE TYPE="nature"><NAME>N12</NAME><OUTCOME>True</OUTCOME><OUTCOME>False</OUTCOME></VARIABLE><VARIABLE TYPE="nature"><NAME>N13</NAME><OUTCOME>True</OUTCOME><OUTCOME>False</OUTCOME></VARIABLE><VARIABLE TYPE="nature"><NAME>N14</NAME><OUTCOME>True</OUTCOME><OUTCOME>False</OUTCOME></VARIABLE><VARIABLE TYPE="nature"><NAME>N15</NAME><OUTCOME>True</OUTCOME><OUTCOME>False</OUTCOME></VARIABLE><VARIABLE TYPE="nature"><NAME>N16</NAME><OUTCOME>True</OUTCOME><OUTCOME>False</OUTCOME></VARIABLE><VARIABLE TYPE="nature"><NAME>N17</NAME><OUTCOME>True</OUTCOME><OUTCOME>False</OUTCOME></VARIABLE><VARIABLE TYPE="nature"><NAME>N18</NAME><OUTCOME>True</OUTCOME><OUTCOME>False</OUTCOME></VARIABLE><VARIABLE TYPE="nature"><NAME>N19</NAME><OUTCOME>True</OUTCOME><OUTCOME>False</OUTCOME></VARIABLE><VARIABLE TYPE="nature"><NAME>N20</NAME><OUTCOME>True</OUTCOME><OUTCOME>False</OUTCOME></VARIABLE><VARIABLE TYPE="nature"><NAME>N21</NAME><OUTCOME>True</OUTCOME><OUTCOME>False</OUTCOME></VARIABLE><VARIABLE TYPE="nature"><NAME>N22</NAME><OUTCOME>True</OUTCOME><OUTCOME>False</OUTCOME></VARIABLE><VARIABLE TYPE="nature"><NAME>N23</NAME><OUTCOME>True</OUTCOME><OUTCOME>False</OUTCOME></VARIABLE><DEFINITION><FOR>N0</FOR><TABLE>0.35 0.65</TABLE></DEFINITION><DEFINITION><FOR>N1</FOR><TABLE>0.37 0.63</TABLE></DEFINITION><DEFINITION><FOR>N2</FOR><TABLE>0.68 0.31999999999999995</TABLE></DEFINITION><DEFINITION><FOR>N3</FOR><TABLE>0.12 0.88</TABLE></DEFINITION><DEFINITION><FOR>N4</FOR><TABLE>0.78 0.21999999999999997</TABLE></DEFINITION><DEFINITION><FOR>N5</FOR><TABLE>0.91 0.08999999999999997</TABLE></DEFINITION><DEFINITION><FOR>N6</FOR><TABLE>0.61 0.39</TABLE></DEFINITION><DEFINITION><FOR>N7</FOR><TABLE>0.2 0.8</TABLE></DEFINITION><DEFINITION><FOR>N8</FOR><TABLE>0.79 0.20999999999999996</TABLE></DEFINITION><DEFINITION><FOR>N9</FOR><TABLE>0.13 0.87</TABLE></DEFINITION><DEFINITION><FOR>N10</FOR><TABLE>0.2 0.8</TABLE></DEFINITION><DEFINITION><FOR>N11</FOR><TABLE>0.27 0.73</TABLE></DEFINITION><DEFINITION><FOR>N12</FOR><TABLE>0.84 0.16000000000000003</TABLE></DEFINITION><DEFINITION><FOR>N13</FOR><TABLE>0.4 0.6</TABLE></DEFINITION><DEFINITION><FOR>N14</FOR><TABLE>0.8 0.19999999999999996</TABLE></DEFINITION><DEFINITION><FOR>N15</FOR><TABLE>0.94 0.06000000000000005</TABLE></DEFINITION><DEFINITION><FOR>N16</FOR><TABLE>0.07 0.9299999999999999</TABLE></DEFINITION><DEFINITION><FOR>N17</FOR><TABLE>0.3 0.7</TABLE></DEFINITION><DEFINITION><FOR>N18</FOR><TABLE>0.32 0.6799999999999999</TABLE></DEFINITION><DEFINITION><FOR>N19</FOR><TABLE>0.38 0.62</TABLE></DEFINITION><DEFINITION><FOR>N20</FOR><TABLE>0.44 0.56</TABLE></DEFINITION><DEFINITION><FOR>N21</FOR><TABLE>0.78 0.21999999999999997</TABLE></DEFINITION><DEFINITION><FOR>N22</FOR><TABLE>0.67 0.32999999999999996</TABLE></DEFINITION><DEFINITION><FOR>N23</FOR><TABLE>0.47 0.53</TABLE></DEFINITION></NETWORK></BIF>