<BIF VERSION="0.3"><NETWORK><NAME>Test25NTNFE</NAME><VARIABLE TYPE="nature"><NAME>N0</NAME><OUTCOME>True</OUTCOME><OUTCOME>False</OUTCOME></VARIABLE><VARIABLE TYPE="nature"><NAME>N1</NAME><OUTCOME>True</OUTCOME><OUTCOME>False</OUTCOME></VARIABLE><VARIABLE TYPE="nature"><NAME>N2</NAME><OUTCOME>True</OUTCOME><OUTCOME>False</OUTCOME></VARIABLE><VARIABLE TYPE="nature"><NAME>N3</NAME><OUTCOME>True</OUTCOME><OUTCOME>False</OUTCOME></VARIABLE><VARIABLE TYPE="nature"><NAME>N4</NAME><OUTCOME>True</OUTCOME><OUTCOME>False</OUTCOME></VARIABLE><VARIABLE TYPE="nature"><NAME>N5</NAME><OUTCOME>True</OUTCOME><OUTCOME>False</OUTCOME></VARIABLE><VARIABLE TYPE="nature"><NAME>N6</NAME><OUTCOME>True</OUTCOME><OUTCOME>False</OUTCOME></VARIABLE><VARIABLE TYPE="nature"><NAME>N7</NAME><OUTCOME>True</OUTCOME><OUTCOME>False</OUTCOME></VARIABLE><VARIABLE TYPE="nature"><NAME>N8</NAME><OUTCOME>True</OUTCOME><OUTCOME>False</OUTCOME></VARIABLE><VARIABLE TYPE="nature"><NAME>N9</NAME><OUTCOME>True</OUTCOME><OUTCOME>False</OUTCOME></VARIABLE><VARIABLE TYPE="nature"><NAME>N10</NAME><OUTCOME>True</OUTCOME><OUTCOME>False</OUTCOME></VARIABLE><VARIABLE TYPE="nature"><NAME>N11</NAME><OUTCOME>True</OUTCOME><OUTCOME>False</OUTCOME></VARIABLE><VARIABLE TYPE="nature"><NAME>N12</NAME><OUTCOME>True</OUTCOME><OUTCOME>False</OUTCOME></VARIABLE><VARIABLE TYPE="nature"><NAME>N13</NAME><OUTCOME>True</OUTCOME><OUTCOME>False</OUTCOME></VARIABLE><VARIABLE TYPE="nature"><NAME>N14</NAME><OUTCOME>True</OUTCOME><OUTCOME>False</OUTCOME></VARIABLE><VARIABLE TYPE="nature"><NAME>N15</NAME><OUTCOME>True</OUTCOME><OUTCOME>False</OUTCOME></VARIABLE><VARIABLE TYPE="nature"><NAME>N16</NAME><OUTCOME>True</OUTCOME><OUTCOME>False</OUTCOME></VARIABLE><VARIABLE TYPE="nature"><NAME>N17</NAME><OUTCOME>True</OUTCOME><OUTCOME>False</OUTCOME></VARIABLE><VARIABLE TYPE="nature"><NAME>N18</NAME><OUTCOME>True</OUTCOME><OUTCOME>False</OUTCOME></VARIABLE><VARIABLE TYPE="nature"><NAME>N19</NAME><OUTCOME>True</OUTCOME><OUTCOME>False</OUTCOME></VARIABLE><VARIABLE TYPE="nature"><NAME>N20</NAME><OUTCOME>True</OUTCOME><OUTCOME>False</OUTCOME></VARIABLE><VARIABLE TYPE="nature"><NAME>N21</NAME><OUTCOME>True</OUTCOME><OUTCOME>False</OUTCOME></VARIABLE><VARIABLE TYPE="nature"><NAME>N22</NAME><OUTCOME>True</OUTCOME><OUTCOME>False</OUTCOME></VARIABLE><VARIABLE TYPE="nature"><NAME>N23</NAME><OUTCOME>True</OUTCOME><OUTCOME>False</OUTCOME></VARIABLE><VARIABLE TYPE="nature"><NAME>N24</NAME><OUTCOME>True</OUTCOME><OUTCOME>False</OUTCOME></VARIABLE><DEFINITION><FOR>N0</FOR><TABLE>0.53 0.47</TABLE></DEFINITION><DEFINITION><FOR>N1</FOR><TABLE>0.25 0.75</TABLE></DEFINITION><DEFINITION><FOR>N2</FOR><TABLE>0.02 0.98</TABLE></DEFINITION><DEFINITION><FOR>N3</FOR><TABLE>0.24 0.76</TABLE></DEFINITION><DEFINITION><FOR>N4</FOR><TABLE>0.18 0.8200000000000001</TABLE></DEFINITION><DEFINITION><FOR>N5</FOR><TABLE>0.8 0.19999999999999996</TABLE></DEFINITION><DEFINITION><FOR>N6</FOR><TABLE>0.28 0.72</TABLE></DEFINITION><DEFINITION><FOR>N7</FOR><TABLE>0.09 0.91</TABLE></DEFINITION><DEFINITION><FOR>N8</FOR><TABLE>0.9 0.09999999999999998</TABLE></DEFINITION><DEFINITION><FOR>N9</FOR><TABLE>0.65 0.35</TABLE></DEFINITION><DEFINITION><FOR>N10</FOR><TABLE>0.94 0.06000000000000005</TABLE></DEFINITION><DEFINITION><FOR>N11</FOR><TABLE>0.56 0.43999999999999995</TABLE></DEFINITION><DEFINITION><FOR>N12</FOR><TABLE>0.57 0.43000000000000005</TABLE></DEFINITION><DEFINITION><FOR>N13</FOR><TABLE>0.85 0.15000000000000002</TABLE></DEFINITION><DEFINITION><FOR>N14</FOR><TABLE>0.74 0.26</TABLE></DEFINITION><DEFINITION><FOR>N15</FOR><TABLE>0.54 0.45999999999999996</TABLE></DEFINITION><DEFINITION><FOR>N16</FOR><TABLE>0.71 0.29000000000000004</TABLE></DEFINITION><DEFINITION><FOR>N17</FOR><TABLE>0.79 0.20999999999999996</TABLE></DEFINITION><DEFINITION><FOR>N18</FOR><TABLE>0.74 0.26</TABLE></DEFINITION><DEFINITION><FOR>N19</FOR><TABLE>0.18 0.8200000000000001</TABLE></DEFINITION><DEFINITION><FOR>N20</FOR><TABLE>0.84 0.16000000000000003</TABLE></DEFINITION><DEFINITION><FOR>N21</FOR><TABLE>0.58 0.42000000000000004</TABLE></DEFINITION><DEFINITION><FOR>N22</FOR><TABLE>0.64 0.36</TABLE></DEFINITION><DEFINITION><FOR>N23</FOR><TABLE>0.33 0.6699999999999999</TABLE></DEFINITION><DEFINITION><FOR>N24</FOR><TABLE>0.28 0.72</TABLE></DEFINITION></NETWORK></BIF>