<BIF VERSION="0.3"><NETWORK><NAME>Test28NTNFE</NAME><VARIABLE TYPE="nature"><NAME>N0</NAME><OUTCOME>True</OUTCOME><OUTCOME>False</OUTCOME></VARIABLE><VARIABLE TYPE="nature"><NAME>N1</NAME><OUTCOME>True</OUTCOME><OUTCOME>False</OUTCOME></VARIABLE><VARIABLE TYPE="nature"><NAME>N2</NAME><OUTCOME>True</OUTCOME><OUTCOME>False</OUTCOME></VARIABLE><VARIABLE TYPE="nature"><NAME>N3</NAME><OUTCOME>True</OUTCOME><OUTCOME>False</OUTCOME></VARIABLE><VARIABLE TYPE="nature"><NAME>N4</NAME><OUTCOME>True</OUTCOME><OUTCOME>False</OUTCOME></VARIABLE><VARIABLE TYPE="nature"><NAME>N5</NAME><OUTCOME>True</OUTCOME><OUTCOME>False</OUTCOME></VARIABLE><VARIABLE TYPE="nature"><NAME>N6</NAME><OUTCOME>True</OUTCOME><OUTCOME>False</OUTCOME></VARIABLE><VARIABLE TYPE="nature"><NAME>N7</NAME><OUTCOME>True</OUTCOME><OUTCOME>False</OUTCOME></VARIABLE><VARIABLE TYPE="nature"><NAME>N8</NAME><OUTCOME>True</OUTCOME><OUTCOME>False</OUTCOME></VARIABLE><VARIABLE TYPE="nature"><NAME>N9</NAME><OUTCOME>True</OUTCOME><OUTCOME>False</OUTCOME></VARIABLE><VARIABLE TYPE="nature"><NAME>N10</NAME><OUTCOME>True</OUTCOME><OUTCOME>False</OUTCOME></VARIABLE><VARIABLE TYPE="nature"><NAME>N11</NAME><OUTCOME>True</OUTCOME><OUTCOME>False</OUTCOME></VARIABLE><VARIABLE TYPE="nature"><NAME>N12</NAME><OUTCOME>True</OUTCOME><OUTCOME>False</OUTCOME></VARIABLE><VARIABLE TYPE="nature"><NAME>N13</NAME><OUTCOME>True</OUTCOME><OUTCOME>False</OUTCOME></VARIABLE><VARIABLE TYPE="nature"><NAME>N14</NAME><OUTCOME>True</OUTCOME><OUTCOME>False</OUTCOME></VARIABLE><VARIABLE TYPE="nature"><NAME>N15</NAME><OUTCOME>True</OUTCOME><OUTCOME>False</OUTCOME></VARIABLE><VARIABLE TYPE="nature"><NAME>N16</NAME><OUTCOME>True</OUTCOME><OUTCOME>False</OUTCOME></VARIABLE><VARIABLE TYPE="nature"><NAME>N17</NAME><OUTCOME>True</OUTCOME><OUTCOME>False</OUTCOME></VARIABLE><VARIABLE TYPE="nature"><NAME>N18</NAME><OUTCOME>True</OUTCOME><OUTCOME>False</OUTCOME></VARIABLE><VARIABLE TYPE="nature"><NAME>N19</NAME><OUTCOME>True</OUTCOME><OUTCOME>False</OUTCOME></VARIABLE><VARIABLE TYPE="nature"><NAME>N20</NAME><OUTCOME>True</OUTCOME><OUTCOME>False</OUTCOME></VARIABLE><VARIABLE TYPE="nature"><NAME>N21</NAME><OUTCOME>True</OUTCOME><OUTCOME>False</OUTCOME></VARIABLE><VARIABLE TYPE="nature"><NAME>N22</NAME><OUTCOME>True</OUTCOME><OUTCOME>False</OUTCOME></VARIABLE><VARIABLE TYPE="nature"><NAME>N23</NAME><OUTCOME>True</OUTCOME><OUTCOME>False</OUTCOME></VARIABLE><VARIABLE TYPE="nature"><NAME>N24</NAME><OUTCOME>True</OUTCOME><OUTCOME>False</OUTCOME></VARIABLE><VARIABLE TYPE="nature"><NAME>N25</NAME><OUTCOME>True</OUTCOME><OUTCOME>False</OUTCOME></VARIABLE><VARIABLE TYPE="nature"><NAME>N26</NAME><OUTCOME>True</OUTCOME><OUTCOME>False</OUTCOME></VARIABLE><VARIABLE TYPE="nature"><NAME>N27</NAME><OUTCOME>True</OUTCOME><OUTCOME>False</OUTCOME></VARIABLE><DEFINITION><FOR>N0</FOR><TABLE>0.87 0.13</TABLE></DEFINITION><DEFINITION><FOR>N1</FOR><TABLE>0.37 0.63</TABLE></DEFINITION><DEFINITION><FOR>N2</FOR><TABLE>0.49 0.51</TABLE></DEFINITION><DEFINITION><FOR>N3</FOR><TABLE>0.67 0.32999999999999996</TABLE></DEFINITION><DEFINITION><FOR>N4</FOR><TABLE>0.47 0.53</TABLE></DEFINITION><DEFINITION><FOR>N5</FOR><TABLE>0.67 0.32999999999999996</TABLE></DEFINITION><DEFINITION><FOR>N6</FOR><TABLE>0.21 0.79</TABLE></DEFINITION><DEFINITION><FOR>N7</FOR><TABLE>0.35 0.65</TABLE></DEFINITION><DEFINITION><FOR>N8</FOR><TABLE>0.17 0.83</TABLE></DEFINITION><DEFINITION><FOR>N9</FOR><TABLE>0.71 0.29000000000000004</TABLE></DEFINITION><DEFINITION><FOR>N10</FOR><TABLE>0.86 0.14</TABLE></DEFINITION><DEFINITION><FOR>N11</FOR><TABLE>0.54 0.45999999999999996</TABLE></DEFINITION><DEFINITION><FOR>N12</FOR><TABLE>0.91 0.08999999999999997</TABLE></DEFINITION><DEFINITION><FOR>N13</FOR><TABLE>0.54 0.45999999999999996</TABLE></DEFINITION><DEFINITION><FOR>N14</FOR><TABLE>0.34 0.6599999999999999</TABLE></DEFINITION><DEFINITION><FOR>N15</FOR><TABLE>0.51 0.49</TABLE></DEFINITION><DEFINITION><FOR>N16</FOR><TABLE>0.15 0.85</TABLE></DEFINITION><DEFINITION><FOR>N17</FOR><TABLE>0.14 0.86</TABLE></DEFINITION><DEFINITION><FOR>N18</FOR><TABLE>0.11 0.89</TABLE></DEFINITION><DEFINITION><FOR>N19</FOR><TABLE>0.43 0.5700000000000001</TABLE></DEFINITION><DEFINITION><FOR>N20</FOR><TABLE>0.53 0.47</TABLE></DEFINITION><DEFINITION><FOR>N21</FOR><TABLE>0.88 0.12</TABLE></DEFINITION><DEFINITION><FOR>N22</FOR><TABLE>0.7 0.30000000000000004</TABLE></DEFINITION><DEFINITION><FOR>N23</FOR><TABLE>0.43 0.5700000000000001</TABLE></DEFINITION><DEFINITION><FOR>N24</FOR><TABLE>0.03 0.97</TABLE></DEFINITION><DEFINITION><FOR>N25</FOR><TABLE>0.06 0.94</TABLE></DEFINITION><DEFINITION><FOR>N26</FOR><TABLE>0.01 0.99</TABLE></DEFINITION><DEFINITION><FOR>N27</FOR><TABLE>0.92 0.07999999999999996</TABLE></DEFINITION></NETWORK></BIF>