<BIF VERSION="0.3"><NETWORK><NAME>Test34NTNFE</NAME><VARIABLE TYPE="nature"><NAME>N0</NAME><OUTCOME>True</OUTCOME><OUTCOME>False</OUTCOME></VARIABLE><VARIABLE TYPE="nature"><NAME>N1</NAME><OUTCOME>True</OUTCOME><OUTCOME>False</OUTCOME></VARIABLE><VARIABLE TYPE="nature"><NAME>N2</NAME><OUTCOME>True</OUTCOME><OUTCOME>False</OUTCOME></VARIABLE><VARIABLE TYPE="nature"><NAME>N3</NAME><OUTCOME>True</OUTCOME><OUTCOME>False</OUTCOME></VARIABLE><VARIABLE TYPE="nature"><NAME>N4</NAME><OUTCOME>True</OUTCOME><OUTCOME>False</OUTCOME></VARIABLE><VARIABLE TYPE="nature"><NAME>N5</NAME><OUTCOME>True</OUTCOME><OUTCOME>False</OUTCOME></VARIABLE><VARIABLE TYPE="nature"><NAME>N6</NAME><OUTCOME>True</OUTCOME><OUTCOME>False</OUTCOME></VARIABLE><VARIABLE TYPE="nature"><NAME>N7</NAME><OUTCOME>True</OUTCOME><OUTCOME>False</OUTCOME></VARIABLE><VARIABLE TYPE="nature"><NAME>N8</NAME><OUTCOME>True</OUTCOME><OUTCOME>False</OUTCOME></VARIABLE><VARIABLE TYPE="nature"><NAME>N9</NAME><OUTCOME>True</OUTCOME><OUTCOME>False</OUTCOME></VARIABLE><VARIABLE TYPE="nature"><NAME>N10</NAME><OUTCOME>True</OUTCOME><OUTCOME>False</OUTCOME></VARIABLE><VARIABLE TYPE="nature"><NAME>N11</NAME><OUTCOME>True</OUTCOME><OUTCOME>False</OUTCOME></VARIABLE><VARIABLE TYPE="nature"><NAME>N12</NAME><OUTCOME>True</OUTCOME><OUTCOME>False</OUTCOME></VARIABLE><VARIABLE TYPE="nature"><NAME>N13</NAME><OUTCOME>True</OUTCOME><OUTCOME>False</OUTCOME></VARIABLE><VARIABLE TYPE="nature"><NAME>N14</NAME><OUTCOME>True</OUTCOME><OUTCOME>False</OUTCOME></VARIABLE><VARIABLE TYPE="nature"><NAME>N15</NAME><OUTCOME>True</OUTCOME><OUTCOME>False</OUTCOME></VARIABLE><VARIABLE TYPE="nature"><NAME>N16</NAME><OUTCOME>True</OUTCOME><OUTCOME>False</OUTCOME></VARIABLE><VARIABLE TYPE="nature"><NAME>N17</NAME><OUTCOME>True</OUTCOME><OUTCOME>False</OUTCOME></VARIABLE><VARIABLE TYPE="nature"><NAME>N18</NAME><OUTCOME>True</OUTCOME><OUTCOME>False</OUTCOME></VARIABLE><VARIABLE TYPE="nature"><NAME>N19</NAME><OUTCOME>True</OUTCOME><OUTCOME>False</OUTCOME></VARIABLE><VARIABLE TYPE="nature"><NAME>N20</NAME><OUTCOME>True</OUTCOME><OUTCOME>False</OUTCOME></VARIABLE><VARIABLE TYPE="nature"><NAME>N21</NAME><OUTCOME>True</OUTCOME><OUTCOME>False</OUTCOME></VARIABLE><VARIABLE TYPE="nature"><NAME>N22</NAME><OUTCOME>True</OUTCOME><OUTCOME>False</OUTCOME></VARIABLE><VARIABLE TYPE="nature"><NAME>N23</NAME><OUTCOME>True</OUTCOME><OUTCOME>False</OUTCOME></VARIABLE><VARIABLE TYPE="nature"><NAME>N24</NAME><OUTCOME>True</OUTCOME><OUTCOME>False</OUTCOME></VARIABLE><VARIABLE TYPE="nature"><NAME>N25</NAME><OUTCOME>True</OUTCOME><OUTCOME>False</OUTCOME></VARIABLE><VARIABLE TYPE="nature"><NAME>N26</NAME><OUTCOME>True</OUTCOME><OUTCOME>False</OUTCOME></VARIABLE><VARIABLE TYPE="nature"><NAME>N27</NAME><OUTCOME>True</OUTCOME><OUTCOME>False</OUTCOME></VARIABLE><VARIABLE TYPE="nature"><NAME>N28</NAME><OUTCOME>True</OUTCOME><OUTCOME>False</OUTCOME></VARIABLE><VARIABLE TYPE="nature"><NAME>N29</NAME><OUTCOME>True</OUTCOME><OUTCOME>False</OUTCOME></VARIABLE><VARIABLE TYPE="nature"><NAME>N30</NAME><OUTCOME>True</OUTCOME><OUTCOME>False</OUTCOME></VARIABLE><VARIABLE TYPE="nature"><NAME>N31</NAME><OUTCOME>True</OUTCOME><OUTCOME>False</OUTCOME></VARIABLE><VARIABLE TYPE="nature"><NAME>N32</NAME><OUTCOME>True</OUTCOME><OUTCOME>False</OUTCOME></VARIABLE><VARIABLE TYPE="nature"><NAME>N33</NAME><OUTCOME>True</OUTCOME><OUTCOME>False</OUTCOME></VARIABLE><DEFINITION><FOR>N0</FOR><TABLE>0.95 0.050000000000000044</TABLE></DEFINITION><DEFINITION><FOR>N1</FOR><TABLE>0.59 0.41000000000000003</TABLE></DEFINITION><DEFINITION><FOR>N2</FOR><TABLE>0.61 0.39</TABLE></DEFINITION><DEFINITION><FOR>N3</FOR><TABLE>0.05 0.95</TABLE></DEFINITION><DEFINITION><FOR>N4</FOR><TABLE>0.3 0.7</TABLE></DEFINITION><DEFINITION><FOR>N5</FOR><TABLE>0.33 0.6699999999999999</TABLE></DEFINITION><DEFINITION><FOR>N6</FOR><TABLE>0.31 0.69</TABLE></DEFINITION><DEFINITION><FOR>N7</FOR><TABLE>0.08 0.92</TABLE></DEFINITION><DEFINITION><FOR>N8</FOR><TABLE>0.73 0.27</TABLE></DEFINITION><DEFINITION><FOR>N9</FOR><TABLE>0.26 0.74</TABLE></DEFINITION><DEFINITION><FOR>N10</FOR><TABLE>0.61 0.39</TABLE></DEFINITION><DEFINITION><FOR>N11</FOR><TABLE>0.76 0.24</TABLE></DEFINITION><DEFINITION><FOR>N12</FOR><TABLE>0.48 0.52</TABLE></DEFINITION><DEFINITION><FOR>N13</FOR><TABLE>0.39 0.61</TABLE></DEFINITION><DEFINITION><FOR>N14</FOR><TABLE>0.51 0.49</TABLE></DEFINITION><DEFINITION><FOR>N15</FOR><TABLE>0.22 0.78</TABLE></DEFINITION><DEFINITION><FOR>N16</FOR><TABLE>0.68 0.31999999999999995</TABLE></DEFINITION><DEFINITION><FOR>N17</FOR><TABLE>0.99 0.010000000000000009</TABLE></DEFINITION><DEFINITION><FOR>N18</FOR><TABLE>0.21 0.79</TABLE></DEFINITION><DEFINITION><FOR>N19</FOR><TABLE>0.95 0.050000000000000044</TABLE></DEFINITION><DEFINITION><FOR>N20</FOR><TABLE>0.71 0.29000000000000004</TABLE></DEFINITION><DEFINITION><FOR>N21</FOR><TABLE>0.58 0.42000000000000004</TABLE></DEFINITION><DEFINITION><FOR>N22</FOR><TABLE>0.76 0.24</TABLE></DEFINITION><DEFINITION><FOR>N23</FOR><TABLE>0.55 0.44999999999999996</TABLE></DEFINITION><DEFINITION><FOR>N24</FOR><TABLE>0.97 0.030000000000000027</TABLE></DEFINITION><DEFINITION><FOR>N25</FOR><TABLE>0.1 0.9</TABLE></DEFINITION><DEFINITION><FOR>N26</FOR><TABLE>0.08 0.92</TABLE></DEFINITION><DEFINITION><FOR>N27</FOR><TABLE>0.22 0.78</TABLE></DEFINITION><DEFINITION><FOR>N28</FOR><TABLE>0.13 0.87</TABLE></DEFINITION><DEFINITION><FOR>N29</FOR><TABLE>0.76 0.24</TABLE></DEFINITION><DEFINITION><FOR>N30</FOR><TABLE>0.17 0.83</TABLE></DEFINITION><DEFINITION><FOR>N31</FOR><TABLE>0.36 0.64</TABLE></DEFINITION><DEFINITION><FOR>N32</FOR><TABLE>0.96 0.040000000000000036</TABLE></DEFINITION><DEFINITION><FOR>N33</FOR><TABLE>0.62 0.38</TABLE></DEFINITION></NETWORK></BIF>