<BIF VERSION="0.3"><NETWORK><NAME>Test5NTNTE</NAME><VARIABLE TYPE="nature"><NAME>N0</NAME><OUTCOME>True</OUTCOME><OUTCOME>False</OUTCOME></VARIABLE><VARIABLE TYPE="nature"><NAME>N1</NAME><OUTCOME>True</OUTCOME><OUTCOME>False</OUTCOME></VARIABLE><VARIABLE TYPE="nature"><NAME>N2</NAME><OUTCOME>True</OUTCOME><OUTCOME>False</OUTCOME></VARIABLE><VARIABLE TYPE="nature"><NAME>N3</NAME><OUTCOME>True</OUTCOME><OUTCOME>False</OUTCOME></VARIABLE><VARIABLE TYPE="nature"><NAME>N4</NAME><OUTCOME>True</OUTCOME><OUTCOME>False</OUTCOME></VARIABLE><DEFINITION><FOR>N0</FOR><TABLE>0.36 0.64</TABLE></DEFINITION><DEFINITION><FOR>N1</FOR><GIVEN>N0</GIVEN><TABLE>0.34 0.6599999999999999 0.05 0.95</TABLE></DEFINITION><DEFINITION><FOR>N2</FOR><GIVEN>N0</GIVEN><GIVEN>N1</GIVEN><TABLE>0.54 0.45999999999999996 0.38 0.62 0.21 0.79 0.5 0.5</TABLE></DEFINITION><DEFINITION><FOR>N3</FOR><GIVEN>N0</GIVEN><GIVEN>N1</GIVEN><GIVEN>N2</GIVEN><TABLE>0.54 0.45999999999999996 0.97 0.030000000000000027 0.81 0.18999999999999995 0.5 0.5 0.31 0.69 0.44 0.56 0.47 0.53 0.36 0.64</TABLE></DEFINITION><DEFINITION><FOR>N4</FOR><GIVEN>N0</GIVEN><GIVEN>N1</GIVEN><GIVEN>N2</GIVEN><GIVEN>N3</GIVEN><TABLE>0.3 0.7 0.23 0.77 0.59 0.41000000000000003 0.24 0.76 0.71 0.29000000000000004 0.13 0.87 0.01 0.99 0.99 0.010000000000000009 0.11 0.89 0.85 0.15000000000000002 0.72 0.28 0.94 0.06000000000000005 0.19 0.81 0.51 0.49 0.74 0.26 0.52 0.48</TABLE></DEFINITION></NETWORK></BIF>