<BIF VERSION="0.3"><NETWORK><NAME>Test6NTNTE</NAME><VARIABLE TYPE="nature"><NAME>N0</NAME><OUTCOME>True</OUTCOME><OUTCOME>False</OUTCOME></VARIABLE><VARIABLE TYPE="nature"><NAME>N1</NAME><OUTCOME>True</OUTCOME><OUTCOME>False</OUTCOME></VARIABLE><VARIABLE TYPE="nature"><NAME>N2</NAME><OUTCOME>True</OUTCOME><OUTCOME>False</OUTCOME></VARIABLE><VARIABLE TYPE="nature"><NAME>N3</NAME><OUTCOME>True</OUTCOME><OUTCOME>False</OUTCOME></VARIABLE><VARIABLE TYPE="nature"><NAME>N4</NAME><OUTCOME>True</OUTCOME><OUTCOME>False</OUTCOME></VARIABLE><VARIABLE TYPE="nature"><NAME>N5</NAME><OUTCOME>True</OUTCOME><OUTCOME>False</OUTCOME></VARIABLE><DEFINITION><FOR>N0</FOR><TABLE>0.53 0.47</TABLE></DEFINITION><DEFINITION><FOR>N1</FOR><GIVEN>N0</GIVEN><TABLE>0.69 0.31000000000000005 0.25 0.75</TABLE></DEFINITION><DEFINITION><FOR>N2</FOR><GIVEN>N0</GIVEN><GIVEN>N1</GIVEN><TABLE>0.41 0.5900000000000001 0.59 0.41000000000000003 0.51 0.49 0.71 0.29000000000000004</TABLE></DEFINITION><DEFINITION><FOR>N3</FOR><GIVEN>N0</GIVEN><GIVEN>N1</GIVEN><GIVEN>N2</GIVEN><TABLE>0.04 0.96 0.76 0.24 0.36 0.64 0.53 0.47 0.69 0.31000000000000005 0.09 0.91 0.39 0.61 0.32 0.6799999999999999</TABLE></DEFINITION><DEFINITION><FOR>N4</FOR><GIVEN>N0</GIVEN><GIVEN>N1</GIVEN><GIVEN>N2</GIVEN><GIVEN>N3</GIVEN><TABLE>0.78 0.21999999999999997 0.04 0.96 0.07 0.9299999999999999 0.49 0.51 0.04 0.96 0.89 0.10999999999999999 0.91 0.08999999999999997 0.55 0.44999999999999996 0.85 0.15000000000000002 0.98 0.020000000000000018 0.59 0.41000000000000003 0.27 0.73 0.42 0.5800000000000001 0.4 0.6 0.22 0.78 0.31 0.69</TABLE></DEFINITION><DEFINITION><FOR>N5</FOR><GIVEN>N0</GIVEN><GIVEN>N1</GIVEN><GIVEN>N2</GIVEN><GIVEN>N3</GIVEN><GIVEN>N4</GIVEN><TABLE>0.1 0.9 0.52 0.48 0.78 0.21999999999999997 0.92 0.07999999999999996 0.25 0.75 0.47 0.53 0.06 0.94 0.51 0.49 0.44 0.56 0.12 0.88 0.47 0.53 0.81 0.18999999999999995 0.94 0.06000000000000005 0.01 0.99 0.06 0.94 0.96 0.040000000000000036 0.75 0.25 0.55 0.44999999999999996 0.69 0.31000000000000005 0.65 0.35 0.2 0.8 0.62 0.38 0.37 0.63 0.12 0.88 0.37 0.63 0.96 0.040000000000000036 0.05 0.95 0.61 0.39 0.59 0.41000000000000003 0.17 0.83 0.07 0.9299999999999999 0.98 0.020000000000000018</TABLE></DEFINITION></NETWORK></BIF>