<BIF VERSION="0.3"><NETWORK><NAME>Test7NTNTE</NAME><VARIABLE TYPE="nature"><NAME>N0</NAME><OUTCOME>True</OUTCOME><OUTCOME>False</OUTCOME></VARIABLE><VARIABLE TYPE="nature"><NAME>N1</NAME><OUTCOME>True</OUTCOME><OUTCOME>False</OUTCOME></VARIABLE><VARIABLE TYPE="nature"><NAME>N2</NAME><OUTCOME>True</OUTCOME><OUTCOME>False</OUTCOME></VARIABLE><VARIABLE TYPE="nature"><NAME>N3</NAME><OUTCOME>True</OUTCOME><OUTCOME>False</OUTCOME></VARIABLE><VARIABLE TYPE="nature"><NAME>N4</NAME><OUTCOME>True</OUTCOME><OUTCOME>False</OUTCOME></VARIABLE><VARIABLE TYPE="nature"><NAME>N5</NAME><OUTCOME>True</OUTCOME><OUTCOME>False</OUTCOME></VARIABLE><VARIABLE TYPE="nature"><NAME>N6</NAME><OUTCOME>True</OUTCOME><OUTCOME>False</OUTCOME></VARIABLE><DEFINITION><FOR>N0</FOR><TABLE>0.34 0.6599999999999999</TABLE></DEFINITION><DEFINITION><FOR>N1</FOR><GIVEN>N0</GIVEN><TABLE>0.39 0.61 0.05 0.95</TABLE></DEFINITION><DEFINITION><FOR>N2</FOR><GIVEN>N0</GIVEN><GIVEN>N1</GIVEN><TABLE>0.93 0.06999999999999995 0.88 0.12 0.43 0.5700000000000001 0.47 0.53</TABLE></DEFINITION><DEFINITION><FOR>N3</FOR><GIVEN>N0</GIVEN><GIVEN>N1</GIVEN><GIVEN>N2</GIVEN><TABLE>0.61 0.39 0.17 0.83 0.57 0.43000000000000005 0.74 0.26 0.73 0.27 0.17 0.83 0.11 0.89 0.66 0.33999999999999997</TABLE></DEFINITION><DEFINITION><FOR>N4</FOR><GIVEN>N0</GIVEN><GIVEN>N1</GIVEN><GIVEN>N2</GIVEN><GIVEN>N3</GIVEN><TABLE>0.11 0.89 0.43 0.5700000000000001 0.07 0.9299999999999999 0.39 0.61 0.85 0.15000000000000002 0.55 0.44999999999999996 0.31 0.69 0.96 0.040000000000000036 0.6 0.4 0.13 0.87 0.76 0.24 0.68 0.31999999999999995 0.38 0.62 0.66 0.33999999999999997 0.72 0.28 0.84 0.16000000000000003</TABLE></DEFINITION><DEFINITION><FOR>N5</FOR><GIVEN>N0</GIVEN><GIVEN>N1</GIVEN><GIVEN>N2</GIVEN><GIVEN>N3</GIVEN><GIVEN>N4</GIVEN><TABLE>0.17 0.83 0.06 0.94 0.78 0.21999999999999997 0.99 0.010000000000000009 0.37 0.63 0.67 0.32999999999999996 0.84 0.16000000000000003 0.52 0.48 0.86 0.14 0.06 0.94 0.33 0.6699999999999999 0.53 0.47 0.85 0.15000000000000002 0.3 0.7 0.49 0.51 0.75 0.25 0.31 0.69 0.11 0.89 0.56 0.43999999999999995 0.32 0.6799999999999999 0.06 0.94 0.85 0.15000000000000002 0.41 0.5900000000000001 0.15 0.85 0.46 0.54 0.11 0.89 0.23 0.77 0.78 0.21999999999999997 0.48 0.52 0.32 0.6799999999999999 0.45 0.55 0.56 0.43999999999999995</TABLE></DEFINITION><DEFINITION><FOR>N6</FOR><GIVEN>N0</GIVEN><GIVEN>N1</GIVEN><GIVEN>N2</GIVEN><GIVEN>N3</GIVEN><GIVEN>N4</GIVEN><GIVEN>N5</GIVEN><TABLE>0.95 0.050000000000000044 0.15 0.85 0.64 0.36 0.9 0.09999999999999998 0.34 0.6599999999999999 0.16 0.84 0.92 0.07999999999999996 0.37 0.63 0.82 0.18000000000000005 0.71 0.29000000000000004 0.32 0.6799999999999999 0.17 0.83 0.56 0.43999999999999995 0.58 0.42000000000000004 0.87 0.13 0.56 0.43999999999999995 0.18 0.8200000000000001 0.5 0.5 0.03 0.97 0.87 0.13 0.18 0.8200000000000001 0.07 0.9299999999999999 0.08 0.92 0.36 0.64 0.71 0.29000000000000004 0.15 0.85 0.62 0.38 0.82 0.18000000000000005 0.73 0.27 0.54 0.45999999999999996 0.6 0.4 0.16 0.84 0.59 0.41000000000000003 0.93 0.06999999999999995 0.87 0.13 0.05 0.95 0.22 0.78 0.03 0.97 0.52 0.48 0.53 0.47 0.16 0.84 0.4 0.6 0.68 0.31999999999999995 0.41 0.5900000000000001 0.99 0.010000000000000009 0.1 0.9 0.78 0.21999999999999997 0.71 0.29000000000000004 0.29 0.71 0.33 0.6699999999999999 0.68 0.31999999999999995 0.87 0.13 0.27 0.73 0.58 0.42000000000000004 0.68 0.31999999999999995 0.21 0.79 0.92 0.07999999999999996 0.72 0.28 0.17 0.83 0.56 0.43999999999999995 0.92 0.07999999999999996 0.41 0.5900000000000001 0.05 0.95 0.06 0.94</TABLE></DEFINITION></NETWORK></BIF>