<BIF VERSION="0.3"><NETWORK><NAME>Test99NTNFE</NAME><VARIABLE TYPE="nature"><NAME>N0</NAME><OUTCOME>True</OUTCOME><OUTCOME>False</OUTCOME></VARIABLE><VARIABLE TYPE="nature"><NAME>N1</NAME><OUTCOME>True</OUTCOME><OUTCOME>False</OUTCOME></VARIABLE><VARIABLE TYPE="nature"><NAME>N2</NAME><OUTCOME>True</OUTCOME><OUTCOME>False</OUTCOME></VARIABLE><VARIABLE TYPE="nature"><NAME>N3</NAME><OUTCOME>True</OUTCOME><OUTCOME>False</OUTCOME></VARIABLE><VARIABLE TYPE="nature"><NAME>N4</NAME><OUTCOME>True</OUTCOME><OUTCOME>False</OUTCOME></VARIABLE><VARIABLE TYPE="nature"><NAME>N5</NAME><OUTCOME>True</OUTCOME><OUTCOME>False</OUTCOME></VARIABLE><VARIABLE TYPE="nature"><NAME>N6</NAME><OUTCOME>True</OUTCOME><OUTCOME>False</OUTCOME></VARIABLE><VARIABLE TYPE="nature"><NAME>N7</NAME><OUTCOME>True</OUTCOME><OUTCOME>False</OUTCOME></VARIABLE><VARIABLE TYPE="nature"><NAME>N8</NAME><OUTCOME>True</OUTCOME><OUTCOME>False</OUTCOME></VARIABLE><VARIABLE TYPE="nature"><NAME>N9</NAME><OUTCOME>True</OUTCOME><OUTCOME>False</OUTCOME></VARIABLE><VARIABLE TYPE="nature"><NAME>N10</NAME><OUTCOME>True</OUTCOME><OUTCOME>False</OUTCOME></VARIABLE><VARIABLE TYPE="nature"><NAME>N11</NAME><OUTCOME>True</OUTCOME><OUTCOME>False</OUTCOME></VARIABLE><VARIABLE TYPE="nature"><NAME>N12</NAME><OUTCOME>True</OUTCOME><OUTCOME>False</OUTCOME></VARIABLE><VARIABLE TYPE="nature"><NAME>N13</NAME><OUTCOME>True</OUTCOME><OUTCOME>False</OUTCOME></VARIABLE><VARIABLE TYPE="nature"><NAME>N14</NAME><OUTCOME>True</OUTCOME><OUTCOME>False</OUTCOME></VARIABLE><VARIABLE TYPE="nature"><NAME>N15</NAME><OUTCOME>True</OUTCOME><OUTCOME>False</OUTCOME></VARIABLE><VARIABLE TYPE="nature"><NAME>N16</NAME><OUTCOME>True</OUTCOME><OUTCOME>False</OUTCOME></VARIABLE><VARIABLE TYPE="nature"><NAME>N17</NAME><OUTCOME>True</OUTCOME><OUTCOME>False</OUTCOME></VARIABLE><VARIABLE TYPE="nature"><NAME>N18</NAME><OUTCOME>True</OUTCOME><OUTCOME>False</OUTCOME></VARIABLE><VARIABLE TYPE="nature"><NAME>N19</NAME><OUTCOME>True</OUTCOME><OUTCOME>False</OUTCOME></VARIABLE><VARIABLE TYPE="nature"><NAME>N20</NAME><OUTCOME>True</OUTCOME><OUTCOME>False</OUTCOME></VARIABLE><VARIABLE TYPE="nature"><NAME>N21</NAME><OUTCOME>True</OUTCOME><OUTCOME>False</OUTCOME></VARIABLE><VARIABLE TYPE="nature"><NAME>N22</NAME><OUTCOME>True</OUTCOME><OUTCOME>False</OUTCOME></VARIABLE><VARIABLE TYPE="nature"><NAME>N23</NAME><OUTCOME>True</OUTCOME><OUTCOME>False</OUTCOME></VARIABLE><VARIABLE TYPE="nature"><NAME>N24</NAME><OUTCOME>True</OUTCOME><OUTCOME>False</OUTCOME></VARIABLE><VARIABLE TYPE="nature"><NAME>N25</NAME><OUTCOME>True</OUTCOME><OUTCOME>False</OUTCOME></VARIABLE><VARIABLE TYPE="nature"><NAME>N26</NAME><OUTCOME>True</OUTCOME><OUTCOME>False</OUTCOME></VARIABLE><VARIABLE TYPE="nature"><NAME>N27</NAME><OUTCOME>True</OUTCOME><OUTCOME>False</OUTCOME></VARIABLE><VARIABLE TYPE="nature"><NAME>N28</NAME><OUTCOME>True</OUTCOME><OUTCOME>False</OUTCOME></VARIABLE><VARIABLE TYPE="nature"><NAME>N29</NAME><OUTCOME>True</OUTCOME><OUTCOME>False</OUTCOME></VARIABLE><VARIABLE TYPE="nature"><NAME>N30</NAME><OUTCOME>True</OUTCOME><OUTCOME>False</OUTCOME></VARIABLE><VARIABLE TYPE="nature"><NAME>N31</NAME><OUTCOME>True</OUTCOME><OUTCOME>False</OUTCOME></VARIABLE><VARIABLE TYPE="nature"><NAME>N32</NAME><OUTCOME>True</OUTCOME><OUTCOME>False</OUTCOME></VARIABLE><VARIABLE TYPE="nature"><NAME>N33</NAME><OUTCOME>True</OUTCOME><OUTCOME>False</OUTCOME></VARIABLE><VARIABLE TYPE="nature"><NAME>N34</NAME><OUTCOME>True</OUTCOME><OUTCOME>False</OUTCOME></VARIABLE><VARIABLE TYPE="nature"><NAME>N35</NAME><OUTCOME>True</OUTCOME><OUTCOME>False</OUTCOME></VARIABLE><VARIABLE TYPE="nature"><NAME>N36</NAME><OUTCOME>True</OUTCOME><OUTCOME>False</OUTCOME></VARIABLE><VARIABLE TYPE="nature"><NAME>N37</NAME><OUTCOME>True</OUTCOME><OUTCOME>False</OUTCOME></VARIABLE><VARIABLE TYPE="nature"><NAME>N38</NAME><OUTCOME>True</OUTCOME><OUTCOME>False</OUTCOME></VARIABLE><VARIABLE TYPE="nature"><NAME>N39</NAME><OUTCOME>True</OUTCOME><OUTCOME>False</OUTCOME></VARIABLE><VARIABLE TYPE="nature"><NAME>N40</NAME><OUTCOME>True</OUTCOME><OUTCOME>False</OUTCOME></VARIABLE><VARIABLE TYPE="nature"><NAME>N41</NAME><OUTCOME>True</OUTCOME><OUTCOME>False</OUTCOME></VARIABLE><VARIABLE TYPE="nature"><NAME>N42</NAME><OUTCOME>True</OUTCOME><OUTCOME>False</OUTCOME></VARIABLE><VARIABLE TYPE="nature"><NAME>N43</NAME><OUTCOME>True</OUTCOME><OUTCOME>False</OUTCOME></VARIABLE><VARIABLE TYPE="nature"><NAME>N44</NAME><OUTCOME>True</OUTCOME><OUTCOME>False</OUTCOME></VARIABLE><VARIABLE TYPE="nature"><NAME>N45</NAME><OUTCOME>True</OUTCOME><OUTCOME>False</OUTCOME></VARIABLE><VARIABLE TYPE="nature"><NAME>N46</NAME><OUTCOME>True</OUTCOME><OUTCOME>False</OUTCOME></VARIABLE><VARIABLE TYPE="nature"><NAME>N47</NAME><OUTCOME>True</OUTCOME><OUTCOME>False</OUTCOME></VARIABLE><VARIABLE TYPE="nature"><NAME>N48</NAME><OUTCOME>True</OUTCOME><OUTCOME>False</OUTCOME></VARIABLE><VARIABLE TYPE="nature"><NAME>N49</NAME><OUTCOME>True</OUTCOME><OUTCOME>False</OUTCOME></VARIABLE><VARIABLE TYPE="nature"><NAME>N50</NAME><OUTCOME>True</OUTCOME><OUTCOME>False</OUTCOME></VARIABLE><VARIABLE TYPE="nature"><NAME>N51</NAME><OUTCOME>True</OUTCOME><OUTCOME>False</OUTCOME></VARIABLE><VARIABLE TYPE="nature"><NAME>N52</NAME><OUTCOME>True</OUTCOME><OUTCOME>False</OUTCOME></VARIABLE><VARIABLE TYPE="nature"><NAME>N53</NAME><OUTCOME>True</OUTCOME><OUTCOME>False</OUTCOME></VARIABLE><VARIABLE TYPE="nature"><NAME>N54</NAME><OUTCOME>True</OUTCOME><OUTCOME>False</OUTCOME></VARIABLE><VARIABLE TYPE="nature"><NAME>N55</NAME><OUTCOME>True</OUTCOME><OUTCOME>False</OUTCOME></VARIABLE><VARIABLE TYPE="nature"><NAME>N56</NAME><OUTCOME>True</OUTCOME><OUTCOME>False</OUTCOME></VARIABLE><VARIABLE TYPE="nature"><NAME>N57</NAME><OUTCOME>True</OUTCOME><OUTCOME>False</OUTCOME></VARIABLE><VARIABLE TYPE="nature"><NAME>N58</NAME><OUTCOME>True</OUTCOME><OUTCOME>False</OUTCOME></VARIABLE><VARIABLE TYPE="nature"><NAME>N59</NAME><OUTCOME>True</OUTCOME><OUTCOME>False</OUTCOME></VARIABLE><VARIABLE TYPE="nature"><NAME>N60</NAME><OUTCOME>True</OUTCOME><OUTCOME>False</OUTCOME></VARIABLE><VARIABLE TYPE="nature"><NAME>N61</NAME><OUTCOME>True</OUTCOME><OUTCOME>False</OUTCOME></VARIABLE><VARIABLE TYPE="nature"><NAME>N62</NAME><OUTCOME>True</OUTCOME><OUTCOME>False</OUTCOME></VARIABLE><VARIABLE TYPE="nature"><NAME>N63</NAME><OUTCOME>True</OUTCOME><OUTCOME>False</OUTCOME></VARIABLE><VARIABLE TYPE="nature"><NAME>N64</NAME><OUTCOME>True</OUTCOME><OUTCOME>False</OUTCOME></VARIABLE><VARIABLE TYPE="nature"><NAME>N65</NAME><OUTCOME>True</OUTCOME><OUTCOME>False</OUTCOME></VARIABLE><VARIABLE TYPE="nature"><NAME>N66</NAME><OUTCOME>True</OUTCOME><OUTCOME>False</OUTCOME></VARIABLE><VARIABLE TYPE="nature"><NAME>N67</NAME><OUTCOME>True</OUTCOME><OUTCOME>False</OUTCOME></VARIABLE><VARIABLE TYPE="nature"><NAME>N68</NAME><OUTCOME>True</OUTCOME><OUTCOME>False</OUTCOME></VARIABLE><VARIABLE TYPE="nature"><NAME>N69</NAME><OUTCOME>True</OUTCOME><OUTCOME>False</OUTCOME></VARIABLE><VARIABLE TYPE="nature"><NAME>N70</NAME><OUTCOME>True</OUTCOME><OUTCOME>False</OUTCOME></VARIABLE><VARIABLE TYPE="nature"><NAME>N71</NAME><OUTCOME>True</OUTCOME><OUTCOME>False</OUTCOME></VARIABLE><VARIABLE TYPE="nature"><NAME>N72</NAME><OUTCOME>True</OUTCOME><OUTCOME>False</OUTCOME></VARIABLE><VARIABLE TYPE="nature"><NAME>N73</NAME><OUTCOME>True</OUTCOME><OUTCOME>False</OUTCOME></VARIABLE><VARIABLE TYPE="nature"><NAME>N74</NAME><OUTCOME>True</OUTCOME><OUTCOME>False</OUTCOME></VARIABLE><VARIABLE TYPE="nature"><NAME>N75</NAME><OUTCOME>True</OUTCOME><OUTCOME>False</OUTCOME></VARIABLE><VARIABLE TYPE="nature"><NAME>N76</NAME><OUTCOME>True</OUTCOME><OUTCOME>False</OUTCOME></VARIABLE><VARIABLE TYPE="nature"><NAME>N77</NAME><OUTCOME>True</OUTCOME><OUTCOME>False</OUTCOME></VARIABLE><VARIABLE TYPE="nature"><NAME>N78</NAME><OUTCOME>True</OUTCOME><OUTCOME>False</OUTCOME></VARIABLE><VARIABLE TYPE="nature"><NAME>N79</NAME><OUTCOME>True</OUTCOME><OUTCOME>False</OUTCOME></VARIABLE><VARIABLE TYPE="nature"><NAME>N80</NAME><OUTCOME>True</OUTCOME><OUTCOME>False</OUTCOME></VARIABLE><VARIABLE TYPE="nature"><NAME>N81</NAME><OUTCOME>True</OUTCOME><OUTCOME>False</OUTCOME></VARIABLE><VARIABLE TYPE="nature"><NAME>N82</NAME><OUTCOME>True</OUTCOME><OUTCOME>False</OUTCOME></VARIABLE><VARIABLE TYPE="nature"><NAME>N83</NAME><OUTCOME>True</OUTCOME><OUTCOME>False</OUTCOME></VARIABLE><VARIABLE TYPE="nature"><NAME>N84</NAME><OUTCOME>True</OUTCOME><OUTCOME>False</OUTCOME></VARIABLE><VARIABLE TYPE="nature"><NAME>N85</NAME><OUTCOME>True</OUTCOME><OUTCOME>False</OUTCOME></VARIABLE><VARIABLE TYPE="nature"><NAME>N86</NAME><OUTCOME>True</OUTCOME><OUTCOME>False</OUTCOME></VARIABLE><VARIABLE TYPE="nature"><NAME>N87</NAME><OUTCOME>True</OUTCOME><OUTCOME>False</OUTCOME></VARIABLE><VARIABLE TYPE="nature"><NAME>N88</NAME><OUTCOME>True</OUTCOME><OUTCOME>False</OUTCOME></VARIABLE><VARIABLE TYPE="nature"><NAME>N89</NAME><OUTCOME>True</OUTCOME><OUTCOME>False</OUTCOME></VARIABLE><VARIABLE TYPE="nature"><NAME>N90</NAME><OUTCOME>True</OUTCOME><OUTCOME>False</OUTCOME></VARIABLE><VARIABLE TYPE="nature"><NAME>N91</NAME><OUTCOME>True</OUTCOME><OUTCOME>False</OUTCOME></VARIABLE><VARIABLE TYPE="nature"><NAME>N92</NAME><OUTCOME>True</OUTCOME><OUTCOME>False</OUTCOME></VARIABLE><VARIABLE TYPE="nature"><NAME>N93</NAME><OUTCOME>True</OUTCOME><OUTCOME>False</OUTCOME></VARIABLE><VARIABLE TYPE="nature"><NAME>N94</NAME><OUTCOME>True</OUTCOME><OUTCOME>False</OUTCOME></VARIABLE><VARIABLE TYPE="nature"><NAME>N95</NAME><OUTCOME>True</OUTCOME><OUTCOME>False</OUTCOME></VARIABLE><VARIABLE TYPE="nature"><NAME>N96</NAME><OUTCOME>True</OUTCOME><OUTCOME>False</OUTCOME></VARIABLE><VARIABLE TYPE="nature"><NAME>N97</NAME><OUTCOME>True</OUTCOME><OUTCOME>False</OUTCOME></VARIABLE><VARIABLE TYPE="nature"><NAME>N98</NAME><OUTCOME>True</OUTCOME><OUTCOME>False</OUTCOME></VARIABLE><DEFINITION><FOR>N0</FOR><TABLE>0.82 0.18000000000000005</TABLE></DEFINITION><DEFINITION><FOR>N1</FOR><TABLE>0.18 0.8200000000000001</TABLE></DEFINITION><DEFINITION><FOR>N2</FOR><TABLE>0.02 0.98</TABLE></DEFINITION><DEFINITION><FOR>N3</FOR><TABLE>0.33 0.6699999999999999</TABLE></DEFINITION><DEFINITION><FOR>N4</FOR><TABLE>0.18 0.8200000000000001</TABLE></DEFINITION><DEFINITION><FOR>N5</FOR><TABLE>0.25 0.75</TABLE></DEFINITION><DEFINITION><FOR>N6</FOR><TABLE>0.31 0.69</TABLE></DEFINITION><DEFINITION><FOR>N7</FOR><TABLE>0.44 0.56</TABLE></DEFINITION><DEFINITION><FOR>N8</FOR><TABLE>0.1 0.9</TABLE></DEFINITION><DEFINITION><FOR>N9</FOR><TABLE>0.29 0.71</TABLE></DEFINITION><DEFINITION><FOR>N10</FOR><TABLE>0.14 0.86</TABLE></DEFINITION><DEFINITION><FOR>N11</FOR><TABLE>0.96 0.040000000000000036</TABLE></DEFINITION><DEFINITION><FOR>N12</FOR><TABLE>0.67 0.32999999999999996</TABLE></DEFINITION><DEFINITION><FOR>N13</FOR><TABLE>0.48 0.52</TABLE></DEFINITION><DEFINITION><FOR>N14</FOR><TABLE>0.81 0.18999999999999995</TABLE></DEFINITION><DEFINITION><FOR>N15</FOR><TABLE>0.58 0.42000000000000004</TABLE></DEFINITION><DEFINITION><FOR>N16</FOR><TABLE>0.31 0.69</TABLE></DEFINITION><DEFINITION><FOR>N17</FOR><TABLE>0.41 0.5900000000000001</TABLE></DEFINITION><DEFINITION><FOR>N18</FOR><TABLE>0.7 0.30000000000000004</TABLE></DEFINITION><DEFINITION><FOR>N19</FOR><TABLE>0.02 0.98</TABLE></DEFINITION><DEFINITION><FOR>N20</FOR><TABLE>0.73 0.27</TABLE></DEFINITION><DEFINITION><FOR>N21</FOR><TABLE>0.66 0.33999999999999997</TABLE></DEFINITION><DEFINITION><FOR>N22</FOR><TABLE>0.99 0.010000000000000009</TABLE></DEFINITION><DEFINITION><FOR>N23</FOR><TABLE>0.27 0.73</TABLE></DEFINITION><DEFINITION><FOR>N24</FOR><TABLE>0.64 0.36</TABLE></DEFINITION><DEFINITION><FOR>N25</FOR><TABLE>0.17 0.83</TABLE></DEFINITION><DEFINITION><FOR>N26</FOR><TABLE>0.23 0.77</TABLE></DEFINITION><DEFINITION><FOR>N27</FOR><TABLE>0.09 0.91</TABLE></DEFINITION><DEFINITION><FOR>N28</FOR><TABLE>0.08 0.92</TABLE></DEFINITION><DEFINITION><FOR>N29</FOR><TABLE>0.86 0.14</TABLE></DEFINITION><DEFINITION><FOR>N30</FOR><TABLE>0.48 0.52</TABLE></DEFINITION><DEFINITION><FOR>N31</FOR><TABLE>0.1 0.9</TABLE></DEFINITION><DEFINITION><FOR>N32</FOR><TABLE>0.02 0.98</TABLE></DEFINITION><DEFINITION><FOR>N33</FOR><TABLE>0.15 0.85</TABLE></DEFINITION><DEFINITION><FOR>N34</FOR><TABLE>0.62 0.38</TABLE></DEFINITION><DEFINITION><FOR>N35</FOR><TABLE>0.46 0.54</TABLE></DEFINITION><DEFINITION><FOR>N36</FOR><TABLE>0.96 0.040000000000000036</TABLE></DEFINITION><DEFINITION><FOR>N37</FOR><TABLE>0.44 0.56</TABLE></DEFINITION><DEFINITION><FOR>N38</FOR><TABLE>0.59 0.41000000000000003</TABLE></DEFINITION><DEFINITION><FOR>N39</FOR><TABLE>0.42 0.5800000000000001</TABLE></DEFINITION><DEFINITION><FOR>N40</FOR><TABLE>0.08 0.92</TABLE></DEFINITION><DEFINITION><FOR>N41</FOR><TABLE>0.94 0.06000000000000005</TABLE></DEFINITION><DEFINITION><FOR>N42</FOR><TABLE>0.75 0.25</TABLE></DEFINITION><DEFINITION><FOR>N43</FOR><TABLE>0.32 0.6799999999999999</TABLE></DEFINITION><DEFINITION><FOR>N44</FOR><TABLE>0.58 0.42000000000000004</TABLE></DEFINITION><DEFINITION><FOR>N45</FOR><TABLE>0.89 0.10999999999999999</TABLE></DEFINITION><DEFINITION><FOR>N46</FOR><TABLE>0.78 0.21999999999999997</TABLE></DEFINITION><DEFINITION><FOR>N47</FOR><TABLE>0.17 0.83</TABLE></DEFINITION><DEFINITION><FOR>N48</FOR><TABLE>0.54 0.45999999999999996</TABLE></DEFINITION><DEFINITION><FOR>N49</FOR><TABLE>0.34 0.6599999999999999</TABLE></DEFINITION><DEFINITION><FOR>N50</FOR><TABLE>0.52 0.48</TABLE></DEFINITION><DEFINITION><FOR>N51</FOR><TABLE>0.74 0.26</TABLE></DEFINITION><DEFINITION><FOR>N52</FOR><TABLE>0.76 0.24</TABLE></DEFINITION><DEFINITION><FOR>N53</FOR><TABLE>0.27 0.73</TABLE></DEFINITION><DEFINITION><FOR>N54</FOR><TABLE>0.73 0.27</TABLE></DEFINITION><DEFINITION><FOR>N55</FOR><TABLE>0.03 0.97</TABLE></DEFINITION><DEFINITION><FOR>N56</FOR><TABLE>0.51 0.49</TABLE></DEFINITION><DEFINITION><FOR>N57</FOR><TABLE>0.14 0.86</TABLE></DEFINITION><DEFINITION><FOR>N58</FOR><TABLE>0.15 0.85</TABLE></DEFINITION><DEFINITION><FOR>N59</FOR><TABLE>0.57 0.43000000000000005</TABLE></DEFINITION><DEFINITION><FOR>N60</FOR><TABLE>0.63 0.37</TABLE></DEFINITION><DEFINITION><FOR>N61</FOR><TABLE>0.68 0.31999999999999995</TABLE></DEFINITION><DEFINITION><FOR>N62</FOR><TABLE>0.86 0.14</TABLE></DEFINITION><DEFINITION><FOR>N63</FOR><TABLE>0.27 0.73</TABLE></DEFINITION><DEFINITION><FOR>N64</FOR><TABLE>0.47 0.53</TABLE></DEFINITION><DEFINITION><FOR>N65</FOR><TABLE>0.58 0.42000000000000004</TABLE></DEFINITION><DEFINITION><FOR>N66</FOR><TABLE>0.08 0.92</TABLE></DEFINITION><DEFINITION><FOR>N67</FOR><TABLE>0.85 0.15000000000000002</TABLE></DEFINITION><DEFINITION><FOR>N68</FOR><TABLE>0.46 0.54</TABLE></DEFINITION><DEFINITION><FOR>N69</FOR><TABLE>0.22 0.78</TABLE></DEFINITION><DEFINITION><FOR>N70</FOR><TABLE>0.87 0.13</TABLE></DEFINITION><DEFINITION><FOR>N71</FOR><TABLE>0.02 0.98</TABLE></DEFINITION><DEFINITION><FOR>N72</FOR><TABLE>0.31 0.69</TABLE></DEFINITION><DEFINITION><FOR>N73</FOR><TABLE>0.51 0.49</TABLE></DEFINITION><DEFINITION><FOR>N74</FOR><TABLE>0.11 0.89</TABLE></DEFINITION><DEFINITION><FOR>N75</FOR><TABLE>0.65 0.35</TABLE></DEFINITION><DEFINITION><FOR>N76</FOR><TABLE>0.2 0.8</TABLE></DEFINITION><DEFINITION><FOR>N77</FOR><TABLE>0.16 0.84</TABLE></DEFINITION><DEFINITION><FOR>N78</FOR><TABLE>0.49 0.51</TABLE></DEFINITION><DEFINITION><FOR>N79</FOR><TABLE>0.86 0.14</TABLE></DEFINITION><DEFINITION><FOR>N80</FOR><TABLE>0.4 0.6</TABLE></DEFINITION><DEFINITION><FOR>N81</FOR><TABLE>0.34 0.6599999999999999</TABLE></DEFINITION><DEFINITION><FOR>N82</FOR><TABLE>0.87 0.13</TABLE></DEFINITION><DEFINITION><FOR>N83</FOR><TABLE>0.97 0.030000000000000027</TABLE></DEFINITION><DEFINITION><FOR>N84</FOR><TABLE>0.72 0.28</TABLE></DEFINITION><DEFINITION><FOR>N85</FOR><TABLE>0.63 0.37</TABLE></DEFINITION><DEFINITION><FOR>N86</FOR><TABLE>0.44 0.56</TABLE></DEFINITION><DEFINITION><FOR>N87</FOR><TABLE>0.19 0.81</TABLE></DEFINITION><DEFINITION><FOR>N88</FOR><TABLE>0.77 0.22999999999999998</TABLE></DEFINITION><DEFINITION><FOR>N89</FOR><TABLE>0.95 0.050000000000000044</TABLE></DEFINITION><DEFINITION><FOR>N90</FOR><TABLE>0.74 0.26</TABLE></DEFINITION><DEFINITION><FOR>N91</FOR><TABLE>0.8 0.19999999999999996</TABLE></DEFINITION><DEFINITION><FOR>N92</FOR><TABLE>0.31 0.69</TABLE></DEFINITION><DEFINITION><FOR>N93</FOR><TABLE>0.59 0.41000000000000003</TABLE></DEFINITION><DEFINITION><FOR>N94</FOR><TABLE>0.58 0.42000000000000004</TABLE></DEFINITION><DEFINITION><FOR>N95</FOR><TABLE>0.33 0.6699999999999999</TABLE></DEFINITION><DEFINITION><FOR>N96</FOR><TABLE>0.44 0.56</TABLE></DEFINITION><DEFINITION><FOR>N97</FOR><TABLE>0.16 0.84</TABLE></DEFINITION><DEFINITION><FOR>N98</FOR><TABLE>0.88 0.12</TABLE></DEFINITION></NETWORK></BIF>