<BIF VERSION="0.3"><NETWORK><NAME>Test9NTNTE</NAME><VARIABLE TYPE="nature"><NAME>N0</NAME><OUTCOME>True</OUTCOME><OUTCOME>False</OUTCOME></VARIABLE><VARIABLE TYPE="nature"><NAME>N1</NAME><OUTCOME>True</OUTCOME><OUTCOME>False</OUTCOME></VARIABLE><VARIABLE TYPE="nature"><NAME>N2</NAME><OUTCOME>True</OUTCOME><OUTCOME>False</OUTCOME></VARIABLE><VARIABLE TYPE="nature"><NAME>N3</NAME><OUTCOME>True</OUTCOME><OUTCOME>False</OUTCOME></VARIABLE><VARIABLE TYPE="nature"><NAME>N4</NAME><OUTCOME>True</OUTCOME><OUTCOME>False</OUTCOME></VARIABLE><VARIABLE TYPE="nature"><NAME>N5</NAME><OUTCOME>True</OUTCOME><OUTCOME>False</OUTCOME></VARIABLE><VARIABLE TYPE="nature"><NAME>N6</NAME><OUTCOME>True</OUTCOME><OUTCOME>False</OUTCOME></VARIABLE><VARIABLE TYPE="nature"><NAME>N7</NAME><OUTCOME>True</OUTCOME><OUTCOME>False</OUTCOME></VARIABLE><VARIABLE TYPE="nature"><NAME>N8</NAME><OUTCOME>True</OUTCOME><OUTCOME>False</OUTCOME></VARIABLE><DEFINITION><FOR>N0</FOR><TABLE>0.06 0.94</TABLE></DEFINITION><DEFINITION><FOR>N1</FOR><GIVEN>N0</GIVEN><TABLE>0.14 0.86 0.44 0.56</TABLE></DEFINITION><DEFINITION><FOR>N2</FOR><GIVEN>N0</GIVEN><GIVEN>N1</GIVEN><TABLE>0.03 0.97 0.38 0.62 0.69 0.31000000000000005 0.27 0.73</TABLE></DEFINITION><DEFINITION><FOR>N3</FOR><GIVEN>N0</GIVEN><GIVEN>N1</GIVEN><GIVEN>N2</GIVEN><TABLE>0.17 0.83 0.2 0.8 0.28 0.72 0.09 0.91 0.9 0.09999999999999998 0.34 0.6599999999999999 0.93 0.06999999999999995 0.16 0.84</TABLE></DEFINITION><DEFINITION><FOR>N4</FOR><GIVEN>N0</GIVEN><GIVEN>N1</GIVEN><GIVEN>N2</GIVEN><GIVEN>N3</GIVEN><TABLE>0.38 0.62 0.21 0.79 0.75 0.25 0.61 0.39 0.81 0.18999999999999995 0.88 0.12 0.28 0.72 0.5 0.5 0.22 0.78 0.26 0.74 0.83 0.17000000000000004 0.98 0.020000000000000018 0.18 0.8200000000000001 0.71 0.29000000000000004 0.3 0.7 0.95 0.050000000000000044</TABLE></DEFINITION><DEFINITION><FOR>N5</FOR><GIVEN>N0</GIVEN><GIVEN>N1</GIVEN><GIVEN>N2</GIVEN><GIVEN>N3</GIVEN><GIVEN>N4</GIVEN><TABLE>0.25 0.75 0.45 0.55 0.42 0.5800000000000001 0.12 0.88 0.45 0.55 0.32 0.6799999999999999 0.46 0.54 0.85 0.15000000000000002 0.28 0.72 0.66 0.33999999999999997 0.38 0.62 0.71 0.29000000000000004 0.53 0.47 0.32 0.6799999999999999 0.53 0.47 0.07 0.9299999999999999 0.11 0.89 0.79 0.20999999999999996 0.11 0.89 0.14 0.86 0.88 0.12 0.8 0.19999999999999996 0.49 0.51 0.95 0.050000000000000044 0.92 0.07999999999999996 0.46 0.54 0.12 0.88 0.61 0.39 0.39 0.61 0.2 0.8 0.39 0.61 0.05 0.95</TABLE></DEFINITION><DEFINITION><FOR>N6</FOR><GIVEN>N0</GIVEN><GIVEN>N1</GIVEN><GIVEN>N2</GIVEN><GIVEN>N3</GIVEN><GIVEN>N4</GIVEN><GIVEN>N5</GIVEN><TABLE>0.09 0.91 0.03 0.97 0.28 0.72 0.22 0.78 0.86 0.14 0.11 0.89 0.37 0.63 0.68 0.31999999999999995 0.35 0.65 0.7 0.30000000000000004 0.95 0.050000000000000044 0.14 0.86 0.82 0.18000000000000005 0.42 0.5800000000000001 0.97 0.030000000000000027 0.62 0.38 0.33 0.6699999999999999 0.99 0.010000000000000009 0.87 0.13 0.56 0.43999999999999995 0.71 0.29000000000000004 0.67 0.32999999999999996 0.63 0.37 0.87 0.13 0.58 0.42000000000000004 0.25 0.75 0.36 0.64 0.25 0.75 0.58 0.42000000000000004 0.46 0.54 0.24 0.76 0.63 0.37 0.5 0.5 0.26 0.74 0.99 0.010000000000000009 0.51 0.49 0.94 0.06000000000000005 0.45 0.55 0.38 0.62 0.46 0.54 0.32 0.6799999999999999 0.88 0.12 0.68 0.31999999999999995 0.8 0.19999999999999996 0.96 0.040000000000000036 0.71 0.29000000000000004 0.96 0.040000000000000036 0.9 0.09999999999999998 0.93 0.06999999999999995 0.46 0.54 0.32 0.6799999999999999 0.13 0.87 0.68 0.31999999999999995 0.67 0.32999999999999996 0.92 0.07999999999999996 0.54 0.45999999999999996 0.03 0.97 0.16 0.84 0.01 0.99 0.92 0.07999999999999996 0.97 0.030000000000000027 0.34 0.6599999999999999 0.35 0.65 0.5 0.5</TABLE></DEFINITION><DEFINITION><FOR>N7</FOR><GIVEN>N0</GIVEN><GIVEN>N1</GIVEN><GIVEN>N2</GIVEN><GIVEN>N3</GIVEN><GIVEN>N4</GIVEN><GIVEN>N5</GIVEN><GIVEN>N6</GIVEN><TABLE>0.46 0.54 0.19 0.81 0.51 0.49 0.04 0.96 0.59 0.41000000000000003 0.55 0.44999999999999996 0.62 0.38 0.96 0.040000000000000036 0.34 0.6599999999999999 0.93 0.06999999999999995 0.61 0.39 0.93 0.06999999999999995 0.35 0.65 0.91 0.08999999999999997 0.4 0.6 0.35 0.65 0.25 0.75 0.27 0.73 0.88 0.12 0.16 0.84 0.98 0.020000000000000018 0.83 0.17000000000000004 0.11 0.89 0.15 0.85 0.86 0.14 0.91 0.08999999999999997 0.05 0.95 0.59 0.41000000000000003 0.62 0.38 0.25 0.75 0.14 0.86 0.09 0.91 0.76 0.24 0.19 0.81 0.68 0.31999999999999995 0.89 0.10999999999999999 0.79 0.20999999999999996 0.61 0.39 0.2 0.8 0.39 0.61 0.83 0.17000000000000004 0.32 0.6799999999999999 0.95 0.050000000000000044 0.17 0.83 0.3 0.7 0.77 0.22999999999999998 0.79 0.20999999999999996 0.49 0.51 0.48 0.52 0.82 0.18000000000000005 0.15 0.85 0.01 0.99 0.2 0.8 0.32 0.6799999999999999 0.21 0.79 0.02 0.98 0.23 0.77 0.54 0.45999999999999996 0.03 0.97 0.51 0.49 0.55 0.44999999999999996 0.31 0.69 0.43 0.5700000000000001 0.84 0.16000000000000003 0.32 0.6799999999999999 0.05 0.95 0.76 0.24 0.21 0.79 0.2 0.8 0.6 0.4 0.05 0.95 0.07 0.9299999999999999 0.76 0.24 0.16 0.84 0.18 0.8200000000000001 0.33 0.6699999999999999 0.11 0.89 0.32 0.6799999999999999 0.36 0.64 0.06 0.94 0.41 0.5900000000000001 0.92 0.07999999999999996 0.08 0.92 0.95 0.050000000000000044 0.81 0.18999999999999995 0.24 0.76 0.2 0.8 0.61 0.39 0.53 0.47 0.13 0.87 0.46 0.54 0.91 0.08999999999999997 0.99 0.010000000000000009 0.15 0.85 0.67 0.32999999999999996 0.88 0.12 0.47 0.53 0.42 0.5800000000000001 0.88 0.12 0.52 0.48 0.91 0.08999999999999997 0.12 0.88 0.57 0.43000000000000005 0.48 0.52 0.83 0.17000000000000004 0.91 0.08999999999999997 0.57 0.43000000000000005 0.27 0.73 0.68 0.31999999999999995 0.16 0.84 0.07 0.9299999999999999 0.39 0.61 0.82 0.18000000000000005 0.94 0.06000000000000005 0.93 0.06999999999999995 0.2 0.8 0.72 0.28 0.91 0.08999999999999997 0.49 0.51 0.65 0.35 0.59 0.41000000000000003 0.71 0.29000000000000004 0.04 0.96 0.47 0.53 0.8 0.19999999999999996 0.05 0.95 0.74 0.26 0.87 0.13</TABLE></DEFINITION><DEFINITION><FOR>N8</FOR><GIVEN>N0</GIVEN><GIVEN>N1</GIVEN><GIVEN>N2</GIVEN><GIVEN>N3</GIVEN><GIVEN>N4</GIVEN><GIVEN>N5</GIVEN><GIVEN>N6</GIVEN><GIVEN>N7</GIVEN><TABLE>0.66 0.33999999999999997 0.87 0.13 0.3 0.7 0.82 0.18000000000000005 0.73 0.27 0.43 0.5700000000000001 0.8 0.19999999999999996 0.35 0.65 0.97 0.030000000000000027 0.7 0.30000000000000004 0.93 0.06999999999999995 0.25 0.75 0.8 0.19999999999999996 0.07 0.9299999999999999 0.67 0.32999999999999996 0.8 0.19999999999999996 0.82 0.18000000000000005 0.74 0.26 0.86 0.14 0.43 0.5700000000000001 0.12 0.88 0.21 0.79 0.79 0.20999999999999996 0.35 0.65 0.56 0.43999999999999995 0.92 0.07999999999999996 0.56 0.43999999999999995 0.99 0.010000000000000009 0.5 0.5 0.31 0.69 0.78 0.21999999999999997 0.7 0.30000000000000004 0.34 0.6599999999999999 0.43 0.5700000000000001 0.62 0.38 0.15 0.85 0.57 0.43000000000000005 0.54 0.45999999999999996 0.17 0.83 0.16 0.84 0.03 0.97 0.19 0.81 0.03 0.97 0.85 0.15000000000000002 0.67 0.32999999999999996 0.18 0.8200000000000001 0.2 0.8 0.36 0.64 0.61 0.39 0.9 0.09999999999999998 0.77 0.22999999999999998 0.04 0.96 0.87 0.13 0.89 0.10999999999999999 0.78 0.21999999999999997 0.25 0.75 0.96 0.040000000000000036 0.31 0.69 0.33 0.6699999999999999 0.56 0.43999999999999995 0.59 0.41000000000000003 0.62 0.38 0.8 0.19999999999999996 0.43 0.5700000000000001 0.18 0.8200000000000001 0.07 0.9299999999999999 0.04 0.96 0.27 0.73 0.49 0.51 0.94 0.06000000000000005 0.62 0.38 0.33 0.6699999999999999 0.17 0.83 0.17 0.83 0.52 0.48 0.69 0.31000000000000005 0.58 0.42000000000000004 0.69 0.31000000000000005 0.65 0.35 0.52 0.48 0.1 0.9 0.71 0.29000000000000004 0.81 0.18999999999999995 0.08 0.92 0.02 0.98 0.49 0.51 0.07 0.9299999999999999 0.1 0.9 0.39 0.61 0.81 0.18999999999999995 0.42 0.5800000000000001 0.81 0.18999999999999995 0.32 0.6799999999999999 0.72 0.28 0.12 0.88 0.62 0.38 0.28 0.72 0.87 0.13 0.3 0.7 0.25 0.75 0.43 0.5700000000000001 0.54 0.45999999999999996 0.96 0.040000000000000036 0.82 0.18000000000000005 0.72 0.28 0.47 0.53 0.64 0.36 0.2 0.8 0.37 0.63 0.94 0.06000000000000005 0.22 0.78 0.29 0.71 0.11 0.89 0.3 0.7 0.58 0.42000000000000004 0.17 0.83 0.27 0.73 0.39 0.61 0.83 0.17000000000000004 0.03 0.97 0.3 0.7 0.54 0.45999999999999996 0.28 0.72 0.84 0.16000000000000003 0.9 0.09999999999999998 0.06 0.94 0.38 0.62 0.21 0.79 0.61 0.39 0.61 0.39 0.13 0.87 0.13 0.87 0.09 0.91 0.37 0.63 0.53 0.47 0.06 0.94 0.15 0.85 0.11 0.89 0.38 0.62 0.75 0.25 0.96 0.040000000000000036 0.16 0.84 0.45 0.55 0.47 0.53 0.21 0.79 0.69 0.31000000000000005 0.07 0.9299999999999999 0.47 0.53 0.75 0.25 0.9 0.09999999999999998 0.75 0.25 0.01 0.99 0.38 0.62 0.83 0.17000000000000004 0.18 0.8200000000000001 0.39 0.61 0.42 0.5800000000000001 0.23 0.77 0.2 0.8 0.91 0.08999999999999997 0.62 0.38 0.06 0.94 0.93 0.06999999999999995 0.81 0.18999999999999995 0.34 0.6599999999999999 0.59 0.41000000000000003 0.67 0.32999999999999996 0.89 0.10999999999999999 0.14 0.86 0.63 0.37 0.34 0.6599999999999999 0.87 0.13 0.43 0.5700000000000001 0.87 0.13 0.19 0.81 0.22 0.78 0.16 0.84 0.49 0.51 0.62 0.38 0.64 0.36 0.61 0.39 0.66 0.33999999999999997 0.54 0.45999999999999996 0.88 0.12 0.43 0.5700000000000001 0.59 0.41000000000000003 0.17 0.83 0.24 0.76 0.4 0.6 0.58 0.42000000000000004 0.79 0.20999999999999996 0.22 0.78 0.56 0.43999999999999995 0.94 0.06000000000000005 0.79 0.20999999999999996 0.26 0.74 0.21 0.79 0.66 0.33999999999999997 0.21 0.79 0.87 0.13 0.89 0.10999999999999999 0.46 0.54 0.03 0.97 0.96 0.040000000000000036 0.17 0.83 0.06 0.94 0.13 0.87 0.17 0.83 0.39 0.61 0.96 0.040000000000000036 0.86 0.14 0.72 0.28 0.25 0.75 0.4 0.6 0.67 0.32999999999999996 0.22 0.78 0.03 0.97 0.15 0.85 0.25 0.75 0.32 0.6799999999999999 0.38 0.62 0.32 0.6799999999999999 0.59 0.41000000000000003 0.67 0.32999999999999996 0.13 0.87 0.45 0.55 0.3 0.7 0.15 0.85 0.54 0.45999999999999996 0.35 0.65 0.45 0.55 0.72 0.28 0.76 0.24 0.26 0.74 0.15 0.85 0.56 0.43999999999999995 0.94 0.06000000000000005 0.66 0.33999999999999997 0.95 0.050000000000000044 0.54 0.45999999999999996 0.68 0.31999999999999995 0.01 0.99 0.07 0.9299999999999999 0.97 0.030000000000000027 0.31 0.69 0.43 0.5700000000000001 0.33 0.6699999999999999 0.68 0.31999999999999995 0.48 0.52 0.6 0.4 0.65 0.35 0.35 0.65 0.01 0.99 0.66 0.33999999999999997 0.32 0.6799999999999999 0.21 0.79</TABLE></DEFINITION></NETWORK></BIF>