<BIF VERSION="0.3"><NETWORK><NAME>Test9NFNTE</NAME><VARIABLE TYPE="nature"><NAME>N0</NAME><OUTCOME>True</OUTCOME><OUTCOME>False</OUTCOME></VARIABLE><VARIABLE TYPE="nature"><NAME>N1</NAME><OUTCOME>True</OUTCOME><OUTCOME>False</OUTCOME></VARIABLE><VARIABLE TYPE="nature"><NAME>N2</NAME><OUTCOME>True</OUTCOME><OUTCOME>False</OUTCOME></VARIABLE><VARIABLE TYPE="nature"><NAME>N3</NAME><OUTCOME>True</OUTCOME><OUTCOME>False</OUTCOME></VARIABLE><VARIABLE TYPE="nature"><NAME>N4</NAME><OUTCOME>True</OUTCOME><OUTCOME>False</OUTCOME></VARIABLE><VARIABLE TYPE="nature"><NAME>N5</NAME><OUTCOME>True</OUTCOME><OUTCOME>False</OUTCOME></VARIABLE><VARIABLE TYPE="nature"><NAME>N6</NAME><OUTCOME>True</OUTCOME><OUTCOME>False</OUTCOME></VARIABLE><VARIABLE TYPE="nature"><NAME>N7</NAME><OUTCOME>True</OUTCOME><OUTCOME>False</OUTCOME></VARIABLE><VARIABLE TYPE="nature"><NAME>N8</NAME><OUTCOME>True</OUTCOME><OUTCOME>False</OUTCOME></VARIABLE><DEFINITION><FOR>N1</FOR><GIVEN>N1</GIVEN><TABLE>0.32 0.6799999999999999 0.58 0.42000000000000004</TABLE></DEFINITION><DEFINITION><FOR>N2</FOR><GIVEN>N2</GIVEN><TABLE>0.94 0.06000000000000005 0.85 0.15000000000000002</TABLE></DEFINITION><DEFINITION><FOR>N3</FOR><GIVEN>N3</GIVEN><TABLE>0.18 0.8200000000000001 0.08 0.92</TABLE></DEFINITION><DEFINITION><FOR>N4</FOR><GIVEN>N4</GIVEN><TABLE>0.32 0.6799999999999999 0.78 0.21999999999999997</TABLE></DEFINITION><DEFINITION><FOR>N5</FOR><GIVEN>N5</GIVEN><TABLE>0.42 0.5800000000000001 0.54 0.45999999999999996</TABLE></DEFINITION><DEFINITION><FOR>N6</FOR><GIVEN>N6</GIVEN><TABLE>0.41 0.5900000000000001 0.46 0.54</TABLE></DEFINITION><DEFINITION><FOR>N7</FOR><GIVEN>N7</GIVEN><TABLE>0.11 0.89 0.18 0.8200000000000001</TABLE></DEFINITION><DEFINITION><FOR>N8</FOR><TABLE>0.57 0.43000000000000005</TABLE></DEFINITION></NETWORK></BIF>